{"learner":{"attributes":{"scikit_learn":"{\"_estimator_type\": \"classifier\"}"},"feature_names":[],"feature_types":[],"gradient_booster":{"model":{"cats":{"enc":[],"feature_segments":[],"sorted_idx":[]},"gbtree_model_param":{"num_parallel_tree":"1","num_trees":"100"},"iteration_indptr":[0,1,2,3,4,5,6,7,8,9,10,11,12,13,14,15,16,17,18,19,20,21,22,23,24,25,26,27,28,29,30,31,32,33,34,35,36,37,38,39,40,41,42,43,44,45,46,47,48,49,50,51,52,53,54,55,56,57,58,59,60,61,62,63,64,65,66,67,68,69,70,71,72,73,74,75,76,77,78,79,80,81,82,83,84,85,86,87,88,89,90,91,92,93,94,95,96,97,98,99,100],"tree_info":[0,0,0,0,0,0,0,0,0,0,0,0,0,0,0,0,0,0,0,0,0,0,0,0,0,0,0,0,0,0,0,0,0,0,0,0,0,0,0,0,0,0,0,0,0,0,0,0,0,0,0,0,0,0,0,0,0,0,0,0,0,0,0,0,0,0,0,0,0,0,0,0,0,0,0,0,0,0,0,0,0,0,0,0,0,0,0,0,0,0,0,0,0,0,0,0,0,0,0,0],"trees":[{"base_weights":[1.2608675E-8,-1.2285714E0,9.49448E-1,-1.3642732E0,-2.5249168E-2,1.1864651E0,-3.1460665E-2,-4.5652173E-2,-1.462717E-1,3.6033857E-1,1.3771245E0,5.9481867E-2,-4.9723756E-2,-4.5652173E-2,1.09780446E-1,1.571564E-1,6.22791E-1,-4.0170033E-2,1.2152778E-1],"categories":[],"categories_nodes":[],"categories_segments":[],"categories_sizes":[],"default_left":[0,0,0,0,0,0,0,0,0,0,0,0,0,0,0,0,0,0,0],"id":0,"left_children":[1,3,5,7,-1,9,11,-1,-1,13,15,-1,-1,-1,-1,-1,17,-1,-1],"loss_changes":[3.1494547E1,1.2145252E0,3.5782032E0,2.3535156E-1,0E0,1.4398708E0,1.4445217E0,0E0,0E0,2.705553E0,4.340992E-1,0E0,0E0,0E0,0E0,0E0,2.691901E0,0E0,0E0],"parents":[2147483647,0,0,1,1,2,2,3,3,5,5,6,6,9,9,10,10,16,16],"right_children":[2,4,6,8,-1,10,12,-1,-1,14,16,-1,-1,-1,-1,-1,18,-1,-1],"split_conditions":[2.3E1,3.1E1,2.1E1,2.07E2,-2.5249168E-2,2.48E2,9.444444E-1,-4.5652173E-2,-1.462717E-1,2E0,5E0,5.9481867E-2,-4.9723756E-2,-4.5652173E-2,1.09780446E-1,1.571564E-1,6.4E1,-4.0170033E-2,1.2152778E-1],"split_indices":[0,11,7,14,0,14,4,0,0,3,3,0,0,0,0,0,0,0,0],"split_type":[0,0,0,0,0,0,0,0,0,0,0,0,0,0,0,0,0,0,0],"sum_hessian":[2.5E1,1.0769912E1,1.4230088E1,9.1061945E0,1.6637168E0,1.1292035E1,2.9380531E0,1.442478E0,7.663717E0,2.659292E0,8.632744E0,1.1349558E0,1.8030974E0,1.442478E0,1.2168142E0,6.0022125E0,2.630531E0,1.0818584E0,1.5486726E0],"tree_param":{"num_deleted":"0","num_feature":"15","num_nodes":"19","size_leaf_vector":"1"}},{"base_weights":[3.6863259E-3,-1.1283497E0,8.780235E-1,-1.252189E0,-2.3674587E-2,1.0968604E0,-2.5850242E-2,-4.2969733E-2,-1.3398758E-1,3.4227553E-1,1.2700733E0,5.634719E-2,-4.6544433E-2,-4.2969733E-2,1.0393216E-1,1.4447433E0,5.83971E-1,4.4004247E-2,1.5427347E-1,-3.8090825E-2,1.1440841E-1],"categories":[],"categories_nodes":[],"categories_segments":[],"categories_sizes":[],"default_left":[0,0,0,0,0,0,0,0,0,0,0,0,0,0,0,0,0,0,0,0,0],"id":1,"left_children":[1,3,5,7,-1,9,11,-1,-1,13,15,-1,-1,-1,-1,17,19,-1,-1,-1,-1],"loss_changes":[2.6634523E1,9.9850845E-1,3.0310745E0,1.5013409E-1,0E0,1.1656961E0,1.2819184E0,0E0,0E0,2.4132876E0,3.0555534E-1,0E0,0E0,0E0,0E0,6.878853E-3,2.3945622E0,0E0,0E0,0E0,0E0],"parents":[2147483647,0,0,1,1,2,2,3,3,5,5,6,6,9,9,10,10,15,15,16,16],"right_children":[2,4,6,8,-1,10,12,-1,-1,14,16,-1,-1,-1,-1,18,20,-1,-1,-1,-1],"split_conditions":[2.3E1,3.1E1,2.1E1,2.07E2,-2.3674587E-2,2.48E2,9.444444E-1,-4.2969733E-2,-1.3398758E-1,2E0,5E0,5.634719E-2,-4.6544433E-2,-4.2969733E-2,1.0393216E-1,1.6E1,6.4E1,4.4004247E-2,1.5427347E-1,-3.8090825E-2,1.1440841E-1],"split_indices":[0,11,7,14,0,14,4,0,0,3,3,0,0,0,0,11,0,0,0,0,0],"split_type":[0,0,0,0,0,0,0,0,0,0,0,0,0,0,0,0,0,0,0,0,0],"sum_hessian":[2.4908562E1,1.0728048E1,1.4180512E1,9.064597E0,1.6634517E0,1.1244576E1,2.9359357E0,1.4417266E0,7.6228704E0,2.654882E0,8.589695E0,1.1339525E0,1.8019834E0,1.4417266E0,1.2131554E0,5.965304E0,2.6243906E0,1.0180374E0,4.9472666E0,1.0814221E0,1.5429685E0],"tree_param":{"num_deleted":"0","num_feature":"15","num_nodes":"21","size_leaf_vector":"1"}},{"base_weights":[9.019482E-3,-1.0430055E0,8.203253E-1,-1.1578282E0,-2.2202369E-2,1.0253334E0,-2.0803925E-2,-4.046863E-2,-1.2376356E-1,3.259343E-1,1.1859076E0,5.3426243E-2,-4.3600954E-2,-4.046863E-2,9.870814E-2,1.347449E-1,5.4940295E-1,-3.6133926E-2,1.0816374E-1],"categories":[],"categories_nodes":[],"categories_segments":[],"categories_sizes":[],"default_left":[0,0,0,0,0,0,0,0,0,0,0,0,0,0,0,0,0,0,0],"id":2,"left_children":[1,3,5,7,-1,9,11,-1,-1,13,15,-1,-1,-1,-1,-1,17,-1,-1],"loss_changes":[2.276614E1,8.380909E-1,2.6171198E0,9.7494125E-2,0E0,9.74988E-1,1.1386968E0,0E0,0E0,2.1590438E0,2.3452663E-1,0E0,0E0,0E0,0E0,0E0,2.1395068E0,0E0,0E0],"parents":[2147483647,0,0,1,1,2,2,3,3,5,5,6,6,9,9,10,10,16,16],"right_children":[2,4,6,8,-1,10,12,-1,-1,14,16,-1,-1,-1,-1,-1,18,-1,-1],"split_conditions":[2.3E1,3.1E1,2.1E1,2.07E2,-2.2202369E-2,2.48E2,9.444444E-1,-4.046863E-2,-1.2376356E-1,2E0,5E0,5.3426243E-2,-4.3600954E-2,-4.046863E-2,9.870814E-2,1.347449E-1,6.4E1,-3.6133926E-2,1.0816374E-1],"split_indices":[0,11,7,14,0,14,4,0,0,3,3,0,0,0,0,0,0,0,0],"split_type":[0,0,0,0,0,0,0,0,0,0,0,0,0,0,0,0,0,0,0],"sum_hessian":[2.4670975E1,1.0617549E1,1.4053426E1,8.954827E0,1.6627216E0,1.1123342E1,2.9300838E0,1.4396493E0,7.5151777E0,2.6426747E0,8.480667E0,1.1311575E0,1.7989262E0,1.4396493E0,1.2030253E0,5.8731446E0,2.6075225E0,1.0802035E0,1.527319E0],"tree_param":{"num_deleted":"0","num_feature":"15","num_nodes":"19","size_leaf_vector":"1"}},{"base_weights":[1.1780929E-2,-9.689005E-1,7.6704335E-1,-1.0766671E0,-2.0825047E-2,9.600389E-1,-1.6256904E-2,-3.8132485E-2,-1.1505399E-1,1.2780486E-1,5.5370224E-1,5.0697673E-2,-4.086944E-2,1.2153991E-1,-7.15145E-2,-6.770233E-2,6.803163E-2],"categories":[],"categories_nodes":[],"categories_segments":[],"categories_sizes":[],"default_left":[0,0,0,0,0,0,0,0,0,0,0,0,0,0,0,0,0],"id":3,"left_children":[1,3,5,7,-1,9,11,-1,-1,-1,13,-1,-1,-1,15,-1,-1],"loss_changes":[1.9496109E1,7.149763E-1,2.2622585E0,6.44474E-2,0E0,8.3524704E-1,1.0123585E0,0E0,0E0,0E0,2.9855504E0,0E0,0E0,0E0,2.530569E0,0E0,0E0],"parents":[2147483647,0,0,1,1,2,2,3,3,5,5,6,6,10,10,14,14],"right_children":[2,4,6,8,-1,10,12,-1,-1,-1,14,-1,-1,-1,16,-1,-1],"split_conditions":[2.3E1,3.1E1,2.1E1,2.07E2,-2.0825047E-2,3E0,9.444444E-1,-3.8132485E-2,-1.1505399E-1,1.2780486E-1,1.4E1,5.0697673E-2,-4.086944E-2,1.2153991E-1,1.7E1,-6.770233E-2,6.803163E-2],"split_indices":[0,11,7,14,0,8,4,0,0,0,7,0,0,0,7,0,0],"split_type":[0,0,0,0,0,0,0,0,0,0,0,0,0,0,0,0,0],"sum_hessian":[2.4318798E1,1.0457386E1,1.3861411E1,8.795772E0,1.6616144E0,1.0940238E1,2.9211736E0,1.436485E0,7.3592873E0,4.9337006E0,6.006537E0,1.1268661E0,1.7943075E0,2.459532E0,3.547005E0,2.0198002E0,1.5272045E0],"tree_param":{"num_deleted":"0","num_feature":"15","num_nodes":"17","size_leaf_vector":"1"}},{"base_weights":[1.4230519E-2,-9.0349424E-1,7.183437E-1,-1.0055841E0,-1.9535832E-2,9.002921E-1,-1.2155109E-2,-3.5947E-2,-1.0748696E-1,3.666367E-1,1.1055349E0,-4.477596E-2,4.1908268E-2,5.546076E-3,8.4320374E-2,1.2620714E-1,1.8080905E-2,3.3560175E-2,-4.2183112E-2],"categories":[],"categories_nodes":[],"categories_segments":[],"categories_sizes":[],"default_left":[0,0,0,0,0,0,0,0,0,0,0,0,0,0,0,0,0,0,0],"id":4,"left_children":[1,3,5,7,-1,9,11,-1,-1,13,15,-1,-1,17,-1,-1,-1,-1,-1],"loss_changes":[1.6752832E1,6.17754E-1,1.9593196E0,4.3473244E-2,0E0,8.8155174E-1,9.22099E-1,0E0,0E0,8.1440175E-1,9.283056E-1,0E0,0E0,6.655399E-1,0E0,0E0,0E0,0E0,0E0],"parents":[2147483647,0,0,1,1,2,2,3,3,5,5,6,6,9,9,10,10,13,13],"right_children":[2,4,6,8,-1,10,12,-1,-1,14,16,-1,-1,18,-1,-1,-1,-1,-1],"split_conditions":[2.3E1,3.1E1,2.1E1,2.07E2,-1.9535832E-2,2E1,1E0,-3.5947E-2,-1.0748696E-1,3.3E1,6.3076925E-1,-4.477596E-2,4.1908268E-2,2.6E1,8.4320374E-2,1.2620714E-1,1.8080905E-2,3.3560175E-2,-4.2183112E-2],"split_indices":[0,11,7,14,0,11,8,0,0,1,6,0,0,1,0,0,0,0,0],"split_type":[0,0,0,0,0,0,0,0,0,0,0,0,0,0,0,0,0,0,0],"sum_hessian":[2.3921478E1,1.0262461E1,1.36590185E1,8.602255E0,1.6602051E0,1.07492285E1,2.9097905E0,1.4324405E0,7.1698146E0,3.7597616E0,6.9894667E0,1.4285065E0,1.481284E0,2.7145834E0,1.0451782E0,5.665596E0,1.3238708E0,1.6528547E0,1.0617287E0],"tree_param":{"num_deleted":"0","num_feature":"15","num_nodes":"19","size_leaf_vector":"1"}},{"base_weights":[1.52469445E-2,-8.449674E-1,6.7145616E-1,-4.4493487E-1,-1.1135197E-1,8.4457874E-1,-1.1685293E-2,1.917282E-2,-6.8951356E-1,2.3379011E-1,9.9460393E-1,4.828679E-2,-3.8379267E-2,-1.0211637E-1,1.3969663E-2,-4.217571E-2,8.678768E-2,1.15088224E-1,4.230873E-1,-3.6656927E-2,9.235293E-2],"categories":[],"categories_nodes":[],"categories_segments":[],"categories_sizes":[],"default_left":[0,0,0,0,0,0,0,0,0,0,0,0,0,0,0,0,0,0,0,0,0],"id":5,"left_children":[1,3,5,7,-1,9,11,-1,13,15,17,-1,-1,-1,-1,-1,-1,-1,19,-1,-1],"loss_changes":[1.4396648E1,6.9105434E-1,1.719388E0,1.0823251E0,0E0,8.254614E-1,9.046566E-1,0E0,1.4147918E0,1.8558172E0,3.13509E-1,0E0,0E0,0E0,0E0,0E0,0E0,0E0,1.7239066E0,0E0,0E0],"parents":[2147483647,0,0,1,1,2,2,3,3,5,5,6,6,8,8,9,9,10,10,18,18],"right_children":[2,4,6,8,-1,10,12,-1,14,16,18,-1,-1,-1,-1,-1,-1,-1,20,-1,-1],"split_conditions":[2.3E1,1.4E1,2.1E1,7.692308E-1,-1.1135197E-1,2.48E2,9.444444E-1,1.917282E-2,1E1,2E0,5E0,4.828679E-2,-3.8379267E-2,-1.0211637E-1,1.3969663E-2,-4.217571E-2,8.678768E-2,1.15088224E-1,6.4E1,-3.6656927E-2,9.235293E-2],"split_indices":[0,7,7,4,0,14,4,0,7,3,3,0,0,0,0,0,0,0,0,0,0],"split_type":[0,0,0,0,0,0,0,0,0,0,0,0,0,0,0,0,0,0,0,0,0],"sum_hessian":[2.349914E1,1.0044419E1,1.34547205E1,5.1017284E0,4.9426904E0,1.054586E1,2.908861E0,1.4758997E0,3.6258287E0,2.5840223E0,7.9618373E0,1.1211404E0,1.7877206E0,2.4245987E0,1.2012302E0,1.4351543E0,1.1488681E0,5.4561477E0,2.5056899E0,1.0757513E0,1.4299386E0],"tree_param":{"num_deleted":"0","num_feature":"15","num_nodes":"21","size_leaf_vector":"1"}},{"base_weights":[1.597819E-2,-7.4532354E-1,6.726414E-1,-8.7319136E-1,1.1345429E-2,2.6045364E-1,9.6012855E-1,-3.6022526E-1,-1.1802485E-1,5.3733325E-1,-4.871401E-2,1.24243654E-1,-8.394152E-3,2.4887417E-2,-6.8528765E-1,3.135236E-2,1.0323212E-1,-5.9234793E-4,-9.7259454E-2,-3.3267587E-2,4.2881195E-2],"categories":[],"categories_nodes":[],"categories_segments":[],"categories_sizes":[],"default_left":[0,0,0,0,0,0,0,0,0,0,0,0,0,0,0,0,0,0,0,0,0],"id":6,"left_children":[1,3,5,7,-1,9,11,13,-1,15,-1,-1,-1,-1,17,19,-1,-1,-1,-1,-1],"loss_changes":[1.2505962E1,1.3723063E0,1.3399739E0,1.1825838E0,0E0,1.687035E0,2.324521E0,1.2122781E0,0E0,1.345179E0,0E0,0E0,0E0,0E0,7.1583724E-1,6.8540484E-1,0E0,0E0,0E0,0E0,0E0],"parents":[2147483647,0,0,1,1,2,2,3,3,5,5,6,6,7,7,9,9,14,14,15,15],"right_children":[2,4,6,8,-1,10,12,14,-1,16,-1,-1,-1,-1,18,20,-1,-1,-1,-1,-1],"split_conditions":[1.4E1,1E1,2.2E1,1.4E1,1.1345429E-2,8.46E2,6.2E-1,8.611111E-1,-1.1802485E-1,2E0,-4.871401E-2,1.24243654E-1,-8.394152E-3,2.4887417E-2,7.09E2,2.54E2,1.0323212E-1,-5.9234793E-4,-9.7259454E-2,-3.3267587E-2,4.2881195E-2],"split_indices":[2,1,11,7,0,14,6,4,0,3,0,0,0,0,14,14,0,0,0,0,0],"split_type":[0,0,0,0,0,0,0,0,0,0,0,0,0,0,0,0,0,0,0,0,0],"sum_hessian":[2.3013151E1,1.0594923E1,1.2418228E1,9.207228E0,1.3876953E0,5.885622E0,6.532606E0,4.2613764E0,4.945852E0,4.5001807E0,1.3854417E0,4.9926434E0,1.5399629E0,1.5643985E0,2.6969776E0,2.75121E0,1.7489705E0,1.1049162E0,1.5920614E0,1.5210729E0,1.2301371E0],"tree_param":{"num_deleted":"0","num_feature":"15","num_nodes":"21","size_leaf_vector":"1"}},{"base_weights":[1.4662093E-2,-7.5306153E-1,5.99984E-1,-3.6641374E-1,-9.718929E-1,7.61136E-1,-1.4371568E-2,3.4131624E-2,-6.5910375E-1,-1.09179154E-1,-3.7631087E-2,1.0642892E0,3.958028E-1,-4.1102808E-2,3.7951376E-2,2.9702863E-4,-8.9476936E-2,3.2862447E-2,1.160589E-1,1.0287507E-1,-1.5881947E-1,-6.902948E-2,5.5845805E-2],"categories":[],"categories_nodes":[],"categories_segments":[],"categories_sizes":[],"default_left":[0,0,0,0,0,0,0,0,0,0,0,0,0,0,0,0,0,0,0,0,0,0,0],"id":7,"left_children":[1,3,5,7,9,11,13,-1,15,-1,-1,17,19,-1,-1,-1,-1,-1,-1,-1,21,-1,-1],"loss_changes":[1.1048855E1,5.445652E-1,1.3907876E0,1.3544159E0,3.135252E-2,8.036194E-1,7.6182353E-1,0E0,6.5772986E-1,0E0,0E0,4.848957E-3,2.4829326E0,0E0,0E0,0E0,0E0,0E0,0E0,0E0,2.058242E0,0E0,0E0],"parents":[2147483647,0,0,1,1,2,2,3,3,4,4,5,5,6,6,8,8,11,11,12,12,20,20],"right_children":[2,4,6,8,10,12,14,-1,16,-1,-1,18,20,-1,-1,-1,-1,-1,-1,-1,22,-1,-1],"split_conditions":[2.3E1,1.2E1,2.1E1,7.692308E-1,1.9E1,3E0,1E0,3.4131624E-2,7.02E2,-1.09179154E-1,-3.7631087E-2,1.9E1,1.4E1,-4.1102808E-2,3.7951376E-2,2.9702863E-4,-8.9476936E-2,3.2862447E-2,1.160589E-1,1.0287507E-1,1.7E1,-6.902948E-2,5.5845805E-2],"split_indices":[0,7,7,4,7,8,8,0,14,0,0,11,7,0,0,0,0,0,0,0,7,0,0],"split_type":[0,0,0,0,0,0,0,0,0,0,0,0,0,0,0,0,0,0,0,0,0,0,0],"sum_hessian":[2.258221E1,9.644999E0,1.2937211E1,4.4524627E0,5.1925364E0,1.0059563E1,2.877648E0,1.2540385E0,3.198424E0,3.6288495E0,1.5636868E0,4.452052E0,5.607511E0,1.4120955E0,1.4655526E0,1.0988195E0,2.0996046E0,1.0260721E0,3.4259799E0,2.2195928E0,3.3879182E0,1.9676113E0,1.4203069E0],"tree_param":{"num_deleted":"0","num_feature":"15","num_nodes":"23","size_leaf_vector":"1"}},{"base_weights":[1.50378E-2,-6.8299943E-1,5.9456354E-1,-3.1341866E-1,-8.9128554E-2,2.0158833E-1,8.702744E-1,3.2183927E-2,-5.7825583E-1,-1.0807052E-1,8.365558E-2,1.1232092E-1,-2.6127854E-3,-2.673451E-3,-8.3396696E-2,4.439684E-2,-3.7592927E-1,-8.322172E-2,4.6862427E-2,4.8768383E-2,-4.2360526E-2],"categories":[],"categories_nodes":[],"categories_segments":[],"categories_sizes":[],"default_left":[0,0,0,0,0,0,0,0,0,0,0,0,0,0,0,0,0,0,0,0,0],"id":8,"left_children":[1,3,5,7,-1,9,11,-1,13,15,-1,-1,-1,-1,-1,-1,17,-1,19,-1,-1],"loss_changes":[9.753953E0,5.633831E-1,1.2504563E0,1.109458E0,0E0,1.413233E0,1.7145619E0,0E0,5.7440746E-1,9.665574E-1,0E0,0E0,0E0,0E0,0E0,0E0,8.458924E-1,0E0,8.531717E-1,0E0,0E0],"parents":[2147483647,0,0,1,1,2,2,3,3,5,5,6,6,8,8,9,9,16,16,18,18],"right_children":[2,4,6,8,-1,10,12,-1,14,16,-1,-1,-1,-1,-1,-1,18,-1,20,-1,-1],"split_conditions":[2.6E1,1.2E1,2.2E1,7.692308E-1,-8.9128554E-2,3.7E1,6.2E-1,3.2183927E-2,2.4E1,1.4E1,8.365558E-2,1.1232092E-1,-2.6127854E-3,-2.673451E-3,-8.3396696E-2,4.439684E-2,1.7E1,-8.322172E-2,2.7E1,4.8768383E-2,-4.2360526E-2],"split_indices":[0,7,11,4,0,1,6,0,11,7,0,0,0,0,0,0,7,0,1,0,0],"split_type":[0,0,0,0,0,0,0,0,0,0,0,0,0,0,0,0,0,0,0,0,0],"sum_hessian":[2.2107939E1,9.947569E0,1.2160369E1,4.488309E0,5.4592595E0,5.727718E0,6.432651E0,1.2572773E0,3.2310317E0,4.4078927E0,1.3198253E0,4.8196793E0,1.612972E0,1.373404E0,1.8576276E0,1.225254E0,3.1826386E0,1.0649407E0,2.117698E0,1.0744035E0,1.0432944E0],"tree_param":{"num_deleted":"0","num_feature":"15","num_nodes":"21","size_leaf_vector":"1"}},{"base_weights":[1.4707493E-2,-6.3767433E-1,5.7506865E-1,-7.5444955E-1,1.1109629E-2,2.1143776E-1,8.382079E-1,-2.9328963E-1,-1.04414515E-1,4.6316856E-1,-4.468451E-2,1.1054572E-1,-7.940679E-3,2.1498246E-2,-5.768124E-1,5.182324E-3,9.2923455E-2,4.819374E-3,-8.668338E-2,-3.2674614E-2,3.8264476E-2],"categories":[],"categories_nodes":[],"categories_segments":[],"categories_sizes":[],"default_left":[0,0,0,0,0,0,0,0,0,0,0,0,0,0,0,0,0,0,0,0,0],"id":9,"left_children":[1,3,5,7,-1,9,11,13,-1,15,-1,-1,-1,-1,17,19,-1,-1,-1,-1,-1],"loss_changes":[8.643054E0,1.0399551E0,1.0384121E0,9.7469616E-1,0E0,1.3124394E0,1.8125949E0,8.5749316E-1,0E0,1.1300602E0,0E0,0E0,0E0,0E0,6.8324447E-1,5.870042E-1,0E0,0E0,0E0,0E0,0E0],"parents":[2147483647,0,0,1,1,2,2,3,3,5,5,6,6,7,7,9,9,14,14,15,15],"right_children":[2,4,6,8,-1,10,12,14,-1,16,-1,-1,-1,-1,18,20,-1,-1,-1,-1,-1],"split_conditions":[1.4E1,1E1,2.2E1,1.4E1,1.1109629E-2,8.46E2,6.2E-1,8.611111E-1,-1.04414515E-1,2E0,-4.468451E-2,1.1054572E-1,-7.940679E-3,2.1498246E-2,7.09E2,2.54E2,9.2923455E-2,4.819374E-3,-8.668338E-2,-3.2674614E-2,3.8264476E-2],"split_indices":[2,1,11,7,0,14,6,4,0,3,0,0,0,0,14,14,0,0,0,0,0],"split_type":[0,0,0,0,0,0,0,0,0,0,0,0,0,0,0,0,0,0,0,0,0],"sum_hessian":[2.1639605E1,9.935065E0,1.1704538E1,8.588114E0,1.3469517E0,5.6711383E0,6.0334E0,4.089899E0,4.4982142E0,4.3167787E0,1.3543597E0,4.514015E0,1.5193852E0,1.551058E0,2.5388412E0,2.6872418E0,1.6295367E0,1.0689796E0,1.4698615E0,1.5013572E0,1.1858847E0],"tree_param":{"num_deleted":"0","num_feature":"15","num_nodes":"21","size_leaf_vector":"1"}},{"base_weights":[1.3671738E-2,-6.428969E-1,5.10846E-1,-8.1645526E-2,-2.2692294E-1,6.679714E-1,-4.610534E-2,5.286438E-2,-6.2122624E-2,1.2169251E-1,8.1807137E-1,3.9423596E-2,-3.6186557E-2,4.649154E-2,-2.8488452E-2,9.788003E-2,2.7876866E-1,-3.4652833E-2,7.346218E-2],"categories":[],"categories_nodes":[],"categories_segments":[],"categories_sizes":[],"default_left":[0,0,0,0,0,0,0,0,0,0,0,0,0,0,0,0,0,0,0],"id":10,"left_children":[1,3,5,-1,7,9,11,-1,-1,13,15,-1,-1,-1,-1,-1,17,-1,-1],"loss_changes":[7.5623765E0,5.361366E-1,1.1831858E0,0E0,1.6174238E0,7.479172E-1,6.7561275E-1,0E0,0E0,6.0725296E-1,4.1478252E-1,0E0,0E0,0E0,0E0,0E0,1.1723076E0,0E0,0E0],"parents":[2147483647,0,0,1,1,2,2,4,4,5,5,6,6,9,9,10,10,16,16],"right_children":[2,4,6,-1,8,10,12,-1,-1,14,16,-1,-1,-1,-1,-1,18,-1,-1],"split_conditions":[2.3E1,5E0,2.1E1,-8.1645526E-2,6.2E2,2.48E2,9.444444E-1,5.286438E-2,-6.2122624E-2,5E0,5E0,3.9423596E-2,-3.6186557E-2,4.649154E-2,-2.8488452E-2,9.788003E-2,6.4E1,-3.4652833E-2,7.346218E-2],"split_indices":[0,8,7,0,14,14,4,0,0,8,3,0,0,0,0,0,0,0,0],"split_type":[0,0,0,0,0,0,0,0,0,0,0,0,0,0,0,0,0,0,0],"sum_hessian":[2.116088E1,8.992404E0,1.2168476E1,5.6657195E0,3.3266845E0,9.335452E0,2.833024E0,1.0239264E0,2.302758E0,2.4024909E0,6.9329615E0,1.0793269E0,1.7536972E0,1.2249391E0,1.1775516E0,4.7133126E0,2.2196488E0,1.0370057E0,1.1826433E0],"tree_param":{"num_deleted":"0","num_feature":"15","num_nodes":"19","size_leaf_vector":"1"}},{"base_weights":[1.5810225E-2,-5.681558E-1,5.1624644E-1,-7.1398306E-1,1.4397697E-2,1.779389E-1,7.6823425E-1,-8.381398E-2,-1.11749156E-4,3.9033927E-2,-3.692269E-2,-9.703579E-2,7.5884365E-2,1.03717856E-1,-9.987849E-3,2.1401578E-1,-4.835623E-2,-2.317003E-2,5.924381E-2],"categories":[],"categories_nodes":[],"categories_segments":[],"categories_sizes":[],"default_left":[0,0,0,0,0,0,0,0,0,0,0,0,0,0,0,0,0,0,0],"id":11,"left_children":[1,3,5,7,9,11,13,-1,-1,-1,-1,15,-1,-1,-1,17,-1,-1,-1],"loss_changes":[6.6273265E0,9.004419E-1,9.0298533E-1,7.425504E-1,5.8804655E-1,1.113126E0,1.6651037E0,0E0,0E0,0E0,0E0,7.4112844E-1,0E0,0E0,0E0,7.498503E-1,0E0,0E0,0E0],"parents":[2147483647,0,0,1,1,2,2,3,3,4,4,5,5,6,6,11,11,15,15],"right_children":[2,4,6,8,10,12,14,-1,-1,-1,-1,16,-1,-1,-1,18,-1,-1,-1],"split_conditions":[1.4E1,1E0,2.2E1,3.1E1,2.6E1,3.7E1,6.2E-1,-8.381398E-2,-1.11749156E-4,3.9033927E-2,-3.692269E-2,2.7E1,7.5884365E-2,1.03717856E-1,-9.987849E-3,1.6E1,-4.835623E-2,-2.317003E-2,5.924381E-2],"split_indices":[2,3,11,11,11,1,6,0,0,0,0,1,0,0,0,7,0,0,0],"split_type":[0,0,0,0,0,0,0,0,0,0,0,0,0,0,0,0,0,0,0],"sum_hessian":[2.0674194E1,9.478397E0,1.1195797E1,7.4003115E0,2.078086E0,5.507634E0,5.6881623E0,6.152946E0,1.2473655E0,1.0407127E0,1.0373733E0,4.303503E0,1.2041311E0,4.194073E0,1.4940891E0,2.6318612E0,1.6716418E0,1.3865112E0,1.2453501E0],"tree_param":{"num_deleted":"0","num_feature":"15","num_nodes":"19","size_leaf_vector":"1"}},{"base_weights":[1.8167889E-2,-5.6973666E-1,4.624882E-1,-7.400232E-2,-1.7693906E-1,6.126322E-1,-5.0007578E-2,5.2656144E-2,-5.672064E-2,9.0210326E-2,2.8141236E-1,-4.0401157E-2,3.2166738E-2,8.956706E-2,-2.1768136E-1,-6.6578954E-2,4.4671264E-2],"categories":[],"categories_nodes":[],"categories_segments":[],"categories_sizes":[],"default_left":[0,0,0,0,0,0,0,0,0,0,0,0,0,0,0,0,0],"id":12,"left_children":[1,3,5,-1,7,9,11,-1,-1,-1,13,-1,-1,-1,15,-1,-1],"loss_changes":[5.810032E0,5.103798E-1,1.0036788E0,0E0,1.455579E0,6.9108176E-1,6.2859714E-1,0E0,0E0,0E0,2.0496573E0,0E0,0E0,0E0,1.530648E0,0E0,0E0],"parents":[2147483647,0,0,1,1,2,2,4,4,5,5,6,6,10,10,14,14],"right_children":[2,4,6,-1,8,10,12,-1,-1,-1,14,-1,-1,-1,16,-1,-1],"split_conditions":[2.3E1,5E0,2.1E1,-7.400232E-2,6.2E2,3E0,1E0,5.2656144E-2,-5.672064E-2,9.0210326E-2,1.4E1,-4.0401157E-2,3.2166738E-2,8.956706E-2,1.7E1,-6.6578954E-2,4.4671264E-2],"split_indices":[0,8,7,0,14,8,8,0,0,0,7,0,0,0,7,0,0],"split_type":[0,0,0,0,0,0,0,0,0,0,0,0,0,0,0,0,0],"sum_hessian":[2.0233364E1,8.587934E0,1.16454315E1,5.374143E0,3.2137907E0,8.8556385E0,2.7897933E0,1.022103E0,2.1916878E0,3.8058872E0,5.049751E0,1.384303E0,1.4054902E0,1.907503E0,3.142248E0,1.8753178E0,1.26693E0],"tree_param":{"num_deleted":"0","num_feature":"15","num_nodes":"17","size_leaf_vector":"1"}},{"base_weights":[2.0316763E-2,-5.8799165E-1,4.0737048E-1,-2.4455106E-1,-8.3442956E-2,-6.475282E-2,5.7958615E-1,1.3303312E-2,-4.6973318E-1,5.891034E-2,-5.752654E-2,8.588003E-1,-8.795863E-2,8.881425E-3,-7.612058E-2,9.945255E-2,1.0175576E-2,-4.063752E-2,2.5422735E-2],"categories":[],"categories_nodes":[],"categories_segments":[],"categories_sizes":[],"default_left":[0,0,0,0,0,0,0,0,0,0,0,0,0,0,0,0,0,0,0],"id":13,"left_children":[1,3,5,7,-1,9,11,-1,13,-1,-1,15,17,-1,-1,-1,-1,-1,-1],"loss_changes":[5.128867E0,5.140245E-1,1.1174324E0,4.841414E-1,0E0,1.8241065E0,1.9081774E0,0E0,6.092782E-1,0E0,0E0,6.206794E-1,5.1809406E-1,0E0,0E0,0E0,0E0,0E0,0E0],"parents":[2147483647,0,0,1,1,2,2,3,3,5,5,6,6,8,8,11,11,12,12],"right_children":[2,4,6,8,-1,10,12,-1,14,-1,-1,16,18,-1,-1,-1,-1,-1,-1],"split_conditions":[2.1E1,1.4E1,4.0384614E-1,8.611111E-1,-8.3442956E-2,3.3333334E-1,6.2E-1,1.3303312E-2,7.09E2,5.891034E-2,-5.752654E-2,9.92E2,6.12E2,8.881425E-3,-7.612058E-2,9.945255E-2,1.0175576E-2,-4.063752E-2,2.5422735E-2],"split_indices":[0,7,6,4,0,6,6,0,14,0,0,14,14,0,0,0,0,0,0],"split_type":[0,0,0,0,0,0,0,0,0,0,0,0,0,0,0,0,0,0,0],"sum_hessian":[1.9766096E1,7.484314E0,1.2281782E1,3.9591331E0,3.525181E0,3.4493933E0,8.832389E0,1.6319343E0,2.3271987E0,1.4448754E0,2.004518E0,6.0255675E0,2.8068216E0,1.0364145E0,1.2907842E0,4.843513E0,1.1820542E0,1.3567396E0,1.4500818E0],"tree_param":{"num_deleted":"0","num_feature":"15","num_nodes":"19","size_leaf_vector":"1"}},{"base_weights":[1.6634902E-2,-4.8333347E-1,4.4180295E-1,-1.3657908E-1,-7.346051E-1,1.19007915E-1,6.958272E-1,4.547369E-2,-4.8069164E-1,-8.593958E-2,-2.449363E-2,-1.3204715E-1,6.874897E-2,9.566303E-2,-9.367942E-3,9.837787E-3,-7.6296926E-2,1.6814758E-1,-4.863368E-2,-2.4510248E-2,5.357778E-2],"categories":[],"categories_nodes":[],"categories_segments":[],"categories_sizes":[],"default_left":[0,0,0,0,0,0,0,0,0,0,0,0,0,0,0,0,0,0,0,0,0],"id":14,"left_children":[1,3,5,7,9,11,13,-1,15,-1,-1,17,-1,-1,-1,-1,-1,19,-1,-1,-1],"loss_changes":[4.545287E0,7.5725913E-1,8.630533E-1,1.3100467E0,1.2428665E-1,9.8796207E-1,1.3763082E0,0E0,7.087674E-1,0E0,0E0,6.347673E-1,0E0,0E0,0E0,0E0,0E0,6.7181426E-1,0E0,0E0,0E0],"parents":[2147483647,0,0,1,1,2,2,3,3,4,4,5,5,6,6,8,8,11,11,17,17],"right_children":[2,4,6,8,10,12,14,-1,16,-1,-1,18,-1,-1,-1,-1,-1,20,-1,-1,-1],"split_conditions":[1.4E1,1.2E1,2.2E1,8.181818E-1,2.5E1,3.7E1,6.2E-1,4.547369E-2,7.02E2,-8.593958E-2,-2.449363E-2,2.7E1,6.874897E-2,9.566303E-2,-9.367942E-3,9.837787E-3,-7.6296926E-2,1.6E1,-4.863368E-2,-2.4510248E-2,5.357778E-2],"split_indices":[2,7,11,4,11,1,6,0,14,0,0,1,0,0,0,0,0,7,0,0,0],"split_type":[0,0,0,0,0,0,0,0,0,0,0,0,0,0,0,0,0,0,0,0,0],"sum_hessian":[1.9377935E1,8.8427105E0,1.0535225E1,4.3639784E0,4.478732E0,5.2862916E0,5.248934E0,1.4870998E0,2.8768787E0,2.9674346E0,1.5112975E0,4.199439E0,1.0868523E0,3.786449E0,1.4624848E0,1.156303E0,1.7205758E0,2.5576775E0,1.6417617E0,1.3610375E0,1.19664E0],"tree_param":{"num_deleted":"0","num_feature":"15","num_nodes":"21","size_leaf_vector":"1"}},{"base_weights":[1.5545983E-2,-5.378145E-1,3.6330613E-1,-2.1632104E-1,-7.7723753E-1,1.2623662E-1,7.3373295E-2,-4.5869064E-2,1.3737648E-2,-2.2731993E-2,-8.79025E-2,3.2760945E-1,-4.6961363E-2,-1.23312496E-1,6.151015E-1,5.2654803E-2,-7.134483E-2,9.029861E-2,-2.040137E-2],"categories":[],"categories_nodes":[],"categories_segments":[],"categories_sizes":[],"default_left":[0,0,0,0,0,0,0,0,0,0,0,0,0,0,0,0,0,0,0],"id":15,"left_children":[1,3,5,7,9,11,-1,-1,-1,-1,-1,13,-1,15,17,-1,-1,-1,-1],"loss_changes":[4.0353384E0,4.5565152E-1,1.0358579E0,4.783333E-1,3.858614E-2,1.238956E0,0E0,0E0,0E0,0E0,0E0,1.028445E0,0E0,1.7923099E0,1.2817473E0,0E0,0E0,0E0,0E0],"parents":[2147483647,0,0,1,1,2,2,3,3,4,4,5,5,11,11,13,13,14,14],"right_children":[2,4,6,8,10,12,-1,-1,-1,-1,-1,14,-1,16,18,-1,-1,-1,-1],"split_conditions":[2.1E1,1.4E1,6E1,5E0,2.46E2,2.8E1,7.3373295E-2,-4.5869064E-2,1.3737648E-2,-2.2731993E-2,-8.79025E-2,4.0384614E-1,-4.6961363E-2,3.3333334E-1,6.2E-1,5.2654803E-2,-7.134483E-2,9.029861E-2,-2.040137E-2],"split_indices":[0,7,0,8,14,1,0,0,0,0,0,6,0,6,6,0,0,0,0],"split_type":[0,0,0,0,0,0,0,0,0,0,0,0,0,0,0,0,0,0,0],"sum_hessian":[1.8954338E1,7.103942E0,1.1850395E1,3.8447638E0,3.2591782E0,8.043452E0,3.8069432E0,2.1052835E0,1.7394804E0,1.0140334E0,2.2451448E0,6.3482027E0,1.6952494E0,2.6939325E0,3.6542702E0,1.33337E0,1.3605626E0,2.6281826E0,1.0260875E0],"tree_param":{"num_deleted":"0","num_feature":"15","num_nodes":"19","size_leaf_vector":"1"}},{"base_weights":[1.1062488E-2,-4.4152182E-1,3.959032E-1,-1.4274856E-1,-7.1080875E-1,9.920228E-2,6.36069E-1,3.119852E-2,-4.0502355E-1,-8.4317505E-2,-2.9591143E-2,3.2821062E-1,-4.335473E-2,8.927287E-2,-8.921847E-3,2.5180636E-2,-7.752551E-2,-9.563348E-2,8.036792E-2,-3.3611525E-2,2.4260832E-2],"categories":[],"categories_nodes":[],"categories_segments":[],"categories_sizes":[],"default_left":[0,0,0,0,0,0,0,0,0,0,0,0,0,0,0,0,0,0,0,0,0],"id":16,"left_children":[1,3,5,7,9,11,13,-1,15,-1,-1,17,-1,-1,-1,-1,-1,19,-1,-1,-1],"loss_changes":[3.5827234E0,6.6000736E-1,7.279867E-1,8.1069505E-1,1.0072947E-2,8.9275944E-1,1.187377E0,0E0,1.1859648E0,0E0,0E0,1.0584964E0,0E0,0E0,0E0,0E0,0E0,3.6371607E-1,0E0,0E0,0E0],"parents":[2147483647,0,0,1,1,2,2,3,3,4,4,5,5,6,6,8,8,11,11,17,17],"right_children":[2,4,6,8,10,12,14,-1,16,-1,-1,18,-1,-1,-1,-1,-1,20,-1,-1,-1],"split_conditions":[1.4E1,1.4E1,2.2E1,8.181818E-1,9E0,8.46E2,6.2E-1,3.119852E-2,4.87E2,-8.4317505E-2,-2.9591143E-2,2E0,-4.335473E-2,8.927287E-2,-8.921847E-3,2.5180636E-2,-7.752551E-2,2.54E2,8.036792E-2,-3.3611525E-2,2.4260832E-2],"split_indices":[2,7,11,4,2,14,6,0,14,0,0,3,0,0,0,0,0,14,0,0,0],"split_type":[0,0,0,0,0,0,0,0,0,0,0,0,0,0,0,0,0,0,0,0,0],"sum_hessian":[1.8566326E1,8.464516E0,1.010181E1,4.7379117E0,3.7266042E0,5.1511436E0,4.9506674E0,1.663753E0,3.0741587E0,2.0426722E0,1.6839321E0,3.8710573E0,1.2800862E0,3.486151E0,1.4645166E0,1.2234669E0,1.8506918E0,2.4689982E0,1.4020591E0,1.4467096E0,1.0222886E0],"tree_param":{"num_deleted":"0","num_feature":"15","num_nodes":"21","size_leaf_vector":"1"}},{"base_weights":[8.8390345E-3,-4.9356157E-1,3.242388E-1,-1.937311E-1,-7.2605926E-1,1.2903006E-1,7.329806E-2,-4.2996597E-2,1.4129953E-2,-8.446062E-2,-1.861077E-2,3.303758E-1,-3.7513834E-1,-5.3189844E-2,6.355562E-1,-8.089767E-3,-4.733777E-2,3.3910587E-1,-6.301592E-2,1.021451E-2,9.253814E-2,1.7256154E-3,4.9713325E-2],"categories":[],"categories_nodes":[],"categories_segments":[],"categories_sizes":[],"default_left":[0,0,0,0,0,0,0,0,0,0,0,0,0,0,0,0,0,0,0,0,0,0,0],"id":17,"left_children":[1,3,5,7,9,11,-1,-1,-1,-1,-1,13,15,17,19,-1,-1,21,-1,-1,-1,-1,-1],"loss_changes":[3.1965342E0,4.0217173E-1,8.928982E-1,4.3788117E-1,1.0026288E-1,1.0973796E0,0E0,0E0,0E0,0E0,0E0,8.98203E-1,5.434829E-2,1.1631489E0,5.531796E-1,0E0,0E0,1.5148878E-1,0E0,0E0,0E0,0E0,0E0],"parents":[2147483647,0,0,1,1,2,2,3,3,4,4,5,5,11,11,12,12,13,13,14,14,17,17],"right_children":[2,4,6,8,10,12,-1,-1,-1,-1,-1,14,16,18,20,-1,-1,22,-1,-1,-1,-1,-1],"split_conditions":[2.1E1,1.4E1,6.4E1,5E0,1.9E1,2.8E1,7.329806E-2,-4.2996597E-2,1.4129953E-2,-8.446062E-2,-1.861077E-2,1.7E1,5.4E1,1.4E1,4.0384614E-1,-8.089767E-3,-4.733777E-2,3.34E2,-6.301592E-2,1.021451E-2,9.253814E-2,1.7256154E-3,4.9713325E-2],"split_indices":[0,7,0,8,7,1,0,0,0,0,0,7,0,7,6,0,0,14,0,0,0,0,0],"split_type":[0,0,0,0,0,0,0,0,0,0,0,0,0,0,0,0,0,0,0,0,0,0,0],"sum_hessian":[1.816294E1,6.7870173E0,1.1375922E1,3.7649608E0,3.0220563E0,8.589423E0,2.786499E0,2.041856E0,1.7231047E0,2.0153568E0,1.0066996E0,6.3844337E0,2.2049892E0,3.1947837E0,3.1896498E0,1.0083411E0,1.1966481E0,2.1471481E0,1.0476356E0,1.5990682E0,1.5905817E0,1.0723407E0,1.0748075E0],"tree_param":{"num_deleted":"0","num_feature":"15","num_nodes":"23","size_leaf_vector":"1"}},{"base_weights":[6.961988E-3,-4.073048E-1,3.6057347E-1,-5.395176E-1,6.415835E-3,1.8680663E-1,7.936638E-2,-6.6991344E-2,6.8133483E-3,5.256804E-1,-7.6280996E-2,-3.3021872E-3,8.936207E-2,4.4116616E-2,-3.0845216E-1,3.8474784E-3,-6.8574384E-2,3.9848734E-2,-3.789904E-2],"categories":[],"categories_nodes":[],"categories_segments":[],"categories_sizes":[],"default_left":[0,0,0,0,0,0,0,0,0,0,0,0,0,0,0,0,0,0,0],"id":18,"left_children":[1,3,5,7,-1,9,-1,-1,-1,11,13,-1,-1,-1,15,17,-1,-1,-1],"loss_changes":[2.9062302E0,6.0458696E-1,6.5643597E-1,6.199055E-1,0E0,8.370236E-1,0E0,0E0,0E0,8.586564E-1,8.455273E-1,0E0,0E0,0E0,5.522921E-1,6.8686724E-1,0E0,0E0,0E0],"parents":[2147483647,0,0,1,1,2,2,3,3,5,5,9,9,10,10,14,14,15,15],"right_children":[2,4,6,8,-1,10,-1,-1,-1,12,14,-1,-1,-1,16,18,-1,-1,-1],"split_conditions":[1.4E1,1E0,7.6E1,3.1E1,6.415835E-3,2.8E1,7.936638E-2,-6.6991344E-2,6.8133483E-3,1.7E1,1.5E1,-3.3021872E-3,8.936207E-2,4.4116616E-2,5.9825325E-1,8.44E2,-6.8574384E-2,3.9848734E-2,-3.789904E-2],"split_indices":[2,3,0,11,0,2,0,0,0,7,7,0,0,0,6,14,0,0,0],"split_type":[0,0,0,0,0,0,0,0,0,0,0,0,0,0,0,0,0,0,0],"sum_hessian":[1.783662E1,8.143922E0,9.6926985E0,6.247565E0,1.8963569E0,7.938789E0,1.7539097E0,5.0594034E0,1.1881611E0,3.0334244E0,4.9053645E0,1.5659084E0,1.4675161E0,1.2404834E0,3.664881E0,2.5466871E0,1.1181939E0,1.2338859E0,1.3128011E0],"tree_param":{"num_deleted":"0","num_feature":"15","num_nodes":"19","size_leaf_vector":"1"}},{"base_weights":[1.1244533E-2,-3.7983927E-1,3.4442744E-1,-1.06794626E-1,-6.4117056E-1,6.825919E-2,5.770072E-1,3.1511445E-2,-3.621219E-1,-7.753865E-2,-2.5028555E-2,2.7535954E-1,-3.9524075E-2,8.223089E-2,-7.790106E-3,2.6869727E-2,-7.379352E-2,-1.2448146E-1,7.493807E-2,-3.6436047E-2,1.6215827E-2],"categories":[],"categories_nodes":[],"categories_segments":[],"categories_sizes":[],"default_left":[0,0,0,0,0,0,0,0,0,0,0,0,0,0,0,0,0,0,0,0,0],"id":19,"left_children":[1,3,5,7,9,11,13,-1,15,-1,-1,17,-1,-1,-1,-1,-1,19,-1,-1,-1],"loss_changes":[2.5399592E0,5.723599E-1,6.355461E-1,7.1649367E-1,3.619361E-2,6.788237E-1,9.5886517E-1,0E0,1.1344609E0,0E0,0E0,9.8286355E-1,0E0,0E0,0E0,0E0,0E0,2.931067E-1,0E0,0E0,0E0],"parents":[2147483647,0,0,1,1,2,2,3,3,4,4,5,5,6,6,8,8,11,11,17,17],"right_children":[2,4,6,8,10,12,14,-1,16,-1,-1,18,-1,-1,-1,-1,-1,20,-1,-1,-1],"split_conditions":[1.4E1,1.4E1,2.2E1,8.181818E-1,9E0,8.46E2,6.2E-1,3.1511445E-2,4.87E2,-7.753865E-2,-2.5028555E-2,2E0,-3.9524075E-2,8.223089E-2,-7.790106E-3,2.6869727E-2,-7.379352E-2,1.5E1,7.493807E-2,-3.6436047E-2,1.6215827E-2],"split_indices":[2,7,11,4,2,14,6,0,14,0,0,3,0,0,0,0,0,7,0,0,0],"split_type":[0,0,0,0,0,0,0,0,0,0,0,0,0,0,0,0,0,0,0,0,0],"sum_hessian":[1.7488771E1,7.980905E0,9.507867E0,4.5918727E0,3.3890324E0,4.9379573E0,4.5699096E0,1.6429172E0,2.9489555E0,1.7905524E0,1.5984801E0,3.6935315E0,1.2444259E0,3.1386802E0,1.4312296E0,1.207365E0,1.7415904E0,2.4035275E0,1.290004E0,1.1608813E0,1.2426463E0],"tree_param":{"num_deleted":"0","num_feature":"15","num_nodes":"21","size_leaf_vector":"1"}},{"base_weights":[8.828906E-3,-4.3089783E-1,2.8261346E-1,-6.044364E-1,-9.254314E-2,-1.1160601E-1,4.407661E-1,-7.1658164E-2,-2.1754429E-2,4.3298457E-2,-4.9004123E-2,4.879507E-2,-5.54304E-2,6.92057E-1,-8.392687E-2,8.733325E-2,1.4208565E-2,-3.9658513E-2,2.4549989E-2],"categories":[],"categories_nodes":[],"categories_segments":[],"categories_sizes":[],"default_left":[0,0,0,0,0,0,0,0,0,0,0,0,0,0,0,0,0,0,0],"id":20,"left_children":[1,3,5,7,9,11,13,-1,-1,-1,-1,-1,-1,15,17,-1,-1,-1,-1],"loss_changes":[2.3054223E0,3.759849E-1,7.837701E-1,4.722786E-2,9.7977734E-1,1.3776443E0,1.1934165E0,0E0,0E0,0E0,0E0,0E0,0E0,4.6715593E-1,4.764265E-1,0E0,0E0,0E0,0E0],"parents":[2147483647,0,0,1,1,2,2,3,3,4,4,5,5,6,6,13,13,14,14],"right_children":[2,4,6,8,10,12,14,-1,-1,-1,-1,-1,-1,16,18,-1,-1,-1,-1],"split_conditions":[2.1E1,5E0,4.0384614E-1,4.730392E-1,6.39E2,3.3333334E-1,6.2E-1,-7.1658164E-2,-2.1754429E-2,4.3298457E-2,-4.9004123E-2,4.879507E-2,-5.54304E-2,8.46E2,6.12E2,8.733325E-2,1.4208565E-2,-3.9658513E-2,2.4549989E-2],"split_indices":[0,8,6,6,14,6,6,0,0,0,0,0,0,14,14,0,0,0,0],"split_type":[0,0,0,0,0,0,0,0,0,0,0,0,0,0,0,0,0,0,0],"sum_hessian":[1.7138031E1,6.3559117E0,1.0782119E1,3.6813745E0,2.674537E0,3.1713533E0,7.6107655E0,2.1934335E0,1.4879409E0,1.1133349E0,1.561202E0,1.3036151E0,1.8677382E0,4.930452E0,2.6803138E0,3.2659922E0,1.6644596E0,1.2705618E0,1.4097519E0],"tree_param":{"num_deleted":"0","num_feature":"15","num_nodes":"19","size_leaf_vector":"1"}},{"base_weights":[7.14569E-3,-3.7178192E-1,2.9255128E-1,-5.443401E-1,-2.75125E-2,6.950046E-2,8.046629E-2,-6.6320616E-1,-1.4777507E-2,5.066147E-2,-4.0525425E-2,2.7407286E-1,-4.2543855E-2,-8.573173E-2,-1.30208805E-2,-1.0593272E-1,6.07999E-1,2.611564E-2,-4.8518598E-2,1.0789612E-2,8.1125885E-2],"categories":[],"categories_nodes":[],"categories_segments":[],"categories_sizes":[],"default_left":[0,0,0,0,0,0,0,0,0,0,0,0,0,0,0,0,0,0,0,0,0],"id":21,"left_children":[1,3,5,7,9,-1,11,13,-1,-1,-1,15,-1,-1,-1,17,19,-1,-1,-1,-1],"loss_changes":[2.0392938E0,4.6676815E-1,8.609096E-1,1.5411425E-1,9.6408635E-1,0E0,9.1637486E-1,2.8445613E-1,0E0,0E0,0E0,8.909467E-1,0E0,0E0,0E0,6.6942036E-1,2.7997696E-1,0E0,0E0,0E0,0E0],"parents":[2147483647,0,0,1,1,2,2,3,3,4,4,6,6,7,7,11,11,15,15,16,16],"right_children":[2,4,6,8,10,-1,12,14,-1,-1,-1,16,-1,-1,-1,18,20,-1,-1,-1,-1],"split_conditions":[2.3E1,5E0,1.4E1,8.02E2,6.2E2,6.950046E-2,5E0,3E0,-1.4777507E-2,5.066147E-2,-4.0525425E-2,9.5454544E-1,-4.2543855E-2,-8.573173E-2,-1.30208805E-2,3E0,1E0,2.611564E-2,-4.8518598E-2,1.0789612E-2,8.1125885E-2],"split_indices":[0,8,7,14,14,0,8,2,0,0,0,4,0,0,0,8,8,0,0,0,0],"split_type":[0,0,0,0,0,0,0,0,0,0,0,0,0,0,0,0,0,0,0,0,0],"sum_hessian":[1.6850792E1,7.1092854E0,9.741508E0,4.348527E0,2.7607582E0,2.576093E0,7.1654143E0,2.828375E0,1.5201521E0,1.0023158E0,1.7584424E0,5.5136337E0,1.6517805E0,1.6272628E0,1.2011122E0,2.8982325E0,2.6154015E0,1.6309686E0,1.2672638E0,1.1981897E0,1.4172118E0],"tree_param":{"num_deleted":"0","num_feature":"15","num_nodes":"21","size_leaf_vector":"1"}},{"base_weights":[6.2290826E-3,-3.332077E-1,2.9593396E-1,-4.6057332E-1,1.4584295E-2,3.276368E-2,5.2684957E-1,-5.97285E-2,4.767479E-3,4.1992497E-2,-1.903229E-1,7.694983E-2,-8.254891E-3,-5.8069635E-2,1.2382861E-1,4.5619726E-2,-2.5345972E-2],"categories":[],"categories_nodes":[],"categories_segments":[],"categories_sizes":[],"default_left":[0,0,0,0,0,0,0,0,0,0,0,0,0,0,0,0,0],"id":22,"left_children":[1,3,5,7,-1,9,11,-1,-1,-1,13,-1,-1,-1,15,-1,-1],"loss_changes":[1.8266554E0,5.8959275E-1,5.910818E-1,5.1516616E-1,0E0,5.7610613E-1,8.4216285E-1,0E0,0E0,0E0,6.032706E-1,0E0,0E0,0E0,5.2004385E-1,0E0,0E0],"parents":[2147483647,0,0,1,1,2,2,3,3,5,5,6,6,10,10,14,14],"right_children":[2,4,6,8,-1,10,12,-1,-1,-1,14,-1,-1,-1,16,-1,-1],"split_conditions":[1.4E1,3.1E1,2.2E1,1E0,1.4584295E-2,1.4E1,6.2E-1,-5.97285E-2,4.767479E-3,4.1992497E-2,1.7E1,7.694983E-2,-8.254891E-3,-5.8069635E-2,3.4E1,4.5619726E-2,-2.5345972E-2],"split_indices":[2,11,11,3,0,7,6,0,0,0,7,0,0,0,2,0,0],"split_type":[0,0,0,0,0,0,0,0,0,0,0,0,0,0,0,0,0],"sum_hessian":[1.6572803E1,7.5622387E0,9.010566E0,6.004411E0,1.5578274E0,4.744842E0,4.265723E0,4.5936103E0,1.4108008E0,1.4120038E0,3.3328385E0,2.8630168E0,1.4027065E0,1.1077982E0,2.2250402E0,1.0717471E0,1.1532931E0],"tree_param":{"num_deleted":"0","num_feature":"15","num_nodes":"17","size_leaf_vector":"1"}},{"base_weights":[7.655292E-3,-1.514964E-1,5.709479E-1,-3.7034756E-1,5.325384E-2,2.1195695E-2,7.096439E-2,-9.1665566E-2,-6.221925E-1,2.3465875E-1,-4.2892687E-2,-3.578067E-2,1.6118355E-2,-2.0178372E-2,-7.2268985E-2,-1.4154112E-1,4.942663E-1,4.294855E-2,-6.276473E-2,7.395711E-2,-1.1452397E-2],"categories":[],"categories_nodes":[],"categories_segments":[],"categories_sizes":[],"default_left":[0,0,0,0,0,0,0,0,0,0,0,0,0,0,0,0,0,0,0,0,0],"id":23,"left_children":[1,3,5,7,9,-1,-1,11,13,15,-1,-1,-1,-1,-1,17,19,-1,-1,-1,-1],"loss_changes":[1.6346632E0,6.584941E-1,4.9447536E-2,4.3538433E-1,8.213278E-1,0E0,0E0,3.607186E-1,2.5838614E-3,7.1778333E-1,0E0,0E0,0E0,0E0,0E0,1.2371477E0,7.040658E-1,0E0,0E0,0E0,0E0],"parents":[2147483647,0,0,1,1,2,2,3,3,4,4,7,7,8,8,9,9,15,15,16,16],"right_children":[2,4,6,8,10,-1,-1,12,14,16,-1,-1,-1,-1,-1,18,20,-1,-1,-1,-1],"split_conditions":[6E1,2.1E1,7.6E1,1.4E1,2.8E1,2.1195695E-2,7.096439E-2,3E0,2.1E1,4.0384614E-1,-4.2892687E-2,-3.578067E-2,1.6118355E-2,-2.0178372E-2,-7.2268985E-2,3.3333334E-1,5.9825325E-1,4.294855E-2,-6.276473E-2,7.395711E-2,-1.1452397E-2],"split_indices":[0,0,0,7,1,0,0,8,11,6,0,0,0,0,0,6,6,0,0,0,0],"split_type":[0,0,0,0,0,0,0,0,0,0,0,0,0,0,0,0,0,0,0,0,0],"sum_hessian":[1.6269209E1,1.3255169E1,3.0140398E0,6.016037E0,7.239132E0,1.5445211E0,1.4695187E0,3.503345E0,2.512692E0,5.6331716E0,1.6059602E0,1.5045758E0,1.9987693E0,1.0650669E0,1.447625E0,2.4857845E0,3.147387E0,1.1966101E0,1.2891746E0,2.0903034E0,1.0570835E0],"tree_param":{"num_deleted":"0","num_feature":"15","num_nodes":"21","size_leaf_vector":"1"}},{"base_weights":[5.9227324E-3,-1.4619417E-1,5.487713E-1,-3.543635E-1,4.8741374E-2,2.0010125E-2,6.8806544E-2,-8.716804E-2,-6.009874E-1,2.9632828E-1,-2.7513063E-1,2.1533636E-2,-3.1851105E-2,-1.9278413E-2,-7.001876E-2,-2.0413525E-2,6.5351236E-1,1.31934555E-2,-6.360961E-2,7.7622525E-2,2.0185016E-2],"categories":[],"categories_nodes":[],"categories_segments":[],"categories_sizes":[],"default_left":[0,0,0,0,0,0,0,0,0,0,0,0,0,0,0,0,0,0,0,0,0],"id":24,"left_children":[1,3,5,7,9,-1,-1,11,13,15,17,-1,-1,-1,-1,-1,19,-1,-1,-1,-1],"loss_changes":[1.4840211E0,5.881683E-1,5.325508E-2,4.0389955E-1,7.345912E-1,0E0,0E0,3.8302892E-1,3.9530993E-3,1.0445678E0,6.785889E-1,0E0,0E0,0E0,0E0,0E0,2.1364689E-2,0E0,0E0,0E0,0E0],"parents":[2147483647,0,0,1,1,2,2,3,3,4,4,7,7,8,8,9,9,10,10,16,16],"right_children":[2,4,6,8,10,-1,-1,12,14,16,18,-1,-1,-1,-1,-1,20,-1,-1,-1,-1],"split_conditions":[6E1,2.1E1,7.6E1,1.4E1,2.8E1,2.0010125E-2,6.8806544E-2,8.611111E-1,2.1E1,4E-1,2.8E1,2.1533636E-2,-3.1851105E-2,-1.9278413E-2,-7.001876E-2,-2.0413525E-2,6.2E-1,1.31934555E-2,-6.360961E-2,7.7622525E-2,2.0185016E-2],"split_indices":[0,0,0,7,2,0,0,4,11,6,1,0,0,0,0,0,6,0,0,0,0],"split_type":[0,0,0,0,0,0,0,0,0,0,0,0,0,0,0,0,0,0,0,0,0],"sum_hessian":[1.5999928E1,1.3068553E1,2.931376E0,5.924259E0,7.1442933E0,1.5323228E0,1.3990533E0,3.493165E0,2.4310942E0,4.097198E0,3.0470953E0,1.543748E0,1.9494169E0,1.0507407E0,1.3803533E0,1.88481E0,2.2123883E0,1.7303046E0,1.3167907E0,1.1746491E0,1.037739E0],"tree_param":{"num_deleted":"0","num_feature":"15","num_nodes":"21","size_leaf_vector":"1"}},{"base_weights":[6.417442E-3,-3.1249887E-1,2.4836585E-1,-4.8310527E-1,1.0145585E-2,6.285551E-2,5.3815942E-2,-6.447716E-2,-1.50786685E-2,4.1460127E-2,-3.3249423E-2,2.3579463E-1,-4.0654212E-2,-1.1863099E-1,5.5694E-1,2.304059E-2,-4.6544433E-2,8.0192825E-3,7.5900696E-2],"categories":[],"categories_nodes":[],"categories_segments":[],"categories_sizes":[],"default_left":[0,0,0,0,0,0,0,0,0,0,0,0,0,0,0,0,0,0,0],"id":25,"left_children":[1,3,5,7,9,-1,11,-1,-1,-1,-1,13,-1,15,17,-1,-1,-1,-1],"loss_changes":[1.3710986E0,4.2733455E-1,7.1242154E-1,1.7357457E-1,6.4143795E-1,0E0,7.4659044E-1,0E0,0E0,0E0,0E0,7.717521E-1,0E0,5.637982E-1,2.6939225E-1,0E0,0E0,0E0,0E0],"parents":[2147483647,0,0,1,1,2,2,3,3,4,4,6,6,11,11,13,13,14,14],"right_children":[2,4,6,8,10,-1,12,-1,-1,-1,-1,14,-1,16,18,-1,-1,-1,-1],"split_conditions":[2.3E1,5E0,1.4E1,4.730392E-1,6.39E2,6.285551E-2,5E0,-6.447716E-2,-1.50786685E-2,4.1460127E-2,-3.3249423E-2,9.5454544E-1,-4.0654212E-2,3E0,1E0,2.304059E-2,-4.6544433E-2,8.0192825E-3,7.5900696E-2],"split_indices":[0,8,7,6,14,0,8,0,0,0,0,4,0,8,8,0,0,0,0],"split_type":[0,0,0,0,0,0,0,0,0,0,0,0,0,0,0,0,0,0,0],"sum_hessian":[1.5763386E1,6.6742935E0,9.089093E0,4.0404654E0,2.6338282E0,2.3215346E0,6.767558E0,2.0856283E0,1.9548371E0,1.1116289E0,1.5221992E0,5.1998634E0,1.5676948E0,2.7716205E0,2.428243E0,1.5486699E0,1.2229505E0,1.1386435E0,1.2895994E0],"tree_param":{"num_deleted":"0","num_feature":"15","num_nodes":"19","size_leaf_vector":"1"}},{"base_weights":[6.6361236E-3,-1.3599536E-1,5.208044E-1,2.1640953E-1,-2.3426847E-1,1.8715842E-2,6.56702E-2,-4.614435E-2,8.413161E-2,7.379025E-2,-5.8493054E-1,2.9664817E-1,-4.2506456E-2,-8.0208324E-2,-2.1975808E-1,-1.1180512E-2,4.4871733E-1,1.5852472E-2,-5.138287E-2,6.8321355E-2,3.6040319E-3],"categories":[],"categories_nodes":[],"categories_segments":[],"categories_sizes":[],"default_left":[0,0,0,0,0,0,0,0,0,0,0,0,0,0,0,0,0,0,0,0,0],"id":26,"left_children":[1,3,5,7,9,-1,-1,-1,-1,11,13,15,-1,-1,17,-1,19,-1,-1,-1,-1],"loss_changes":[1.282284E0,5.2601284E-1,4.9136043E-2,1.8761315E0,1.2543523E0,0E0,0E0,0E0,0E0,8.88374E-1,2.484194E-1,3.811294E-1,0E0,0E0,4.568392E-1,0E0,3.704198E-1,0E0,0E0,0E0,0E0],"parents":[2147483647,0,0,1,1,2,2,3,3,4,4,9,9,10,10,11,11,14,14,16,16],"right_children":[2,4,6,8,10,-1,-1,-1,-1,12,14,16,-1,-1,18,-1,20,-1,-1,-1,-1],"split_conditions":[6E1,8.2857144E-1,7.6E1,3.59E2,8.46E2,1.8715842E-2,6.56702E-2,-4.614435E-2,8.413161E-2,1E0,2.1E1,1.1E1,-4.2506456E-2,-8.0208324E-2,2E0,-1.1180512E-2,5E0,1.5852472E-2,-5.138287E-2,6.8321355E-2,3.6040319E-3],"split_indices":[0,4,0,14,14,0,0,0,0,13,0,7,0,0,3,0,8,0,0,0,0],"split_type":[0,0,0,0,0,0,0,0,0,0,0,0,0,0,0,0,0,0,0,0,0],"sum_hessian":[1.5519135E1,1.2724761E1,2.7943745E0,2.512582E0,1.0212179E1,1.4967829E0,1.2975916E0,1.3307076E0,1.1818744E0,5.856648E0,4.355531E0,4.3283477E0,1.5283003E0,1.9810399E0,2.3744912E0,1.2461091E0,3.0822384E0,1.2401425E0,1.1343488E0,1.5473948E0,1.5348437E0],"tree_param":{"num_deleted":"0","num_feature":"15","num_nodes":"21","size_leaf_vector":"1"}},{"base_weights":[7.4559455E-3,-1.2867059E-1,5.0095516E-1,9.433654E-2,-2.8718856E-1,1.7672455E-2,6.373897E-2,-1.940299E-1,4.237709E-1,-6.931531E-2,3.7684944E-3,-4.985809E-2,1.8323982E-2,6.375614E-2,1.75313E-3,-3.610481E-2,3.0778006E-1,-2.6738424E-2,6.284272E-2],"categories":[],"categories_nodes":[],"categories_segments":[],"categories_sizes":[],"default_left":[0,0,0,0,0,0,0,0,0,0,0,0,0,0,0,0,0,0,0],"id":27,"left_children":[1,3,5,7,9,-1,-1,11,13,-1,15,-1,-1,-1,-1,-1,17,-1,-1],"loss_changes":[1.1577399E0,5.061435E-1,5.2045047E-2,6.8860924E-1,9.674331E-1,0E0,0E0,5.6125385E-1,2.748621E-1,0E0,7.4914616E-1,0E0,0E0,0E0,0E0,0E0,8.4628445E-1,0E0,0E0],"parents":[2147483647,0,0,1,1,2,2,3,3,4,4,7,7,8,8,10,10,16,16],"right_children":[2,4,6,8,10,-1,-1,12,14,-1,16,-1,-1,-1,-1,-1,18,-1,-1],"split_conditions":[6E1,1.4E1,7.6E1,5E0,1.7E1,1.7672455E-2,6.373897E-2,3.35E2,6.2E2,-6.931531E-2,1E0,-4.985809E-2,1.8323982E-2,6.375614E-2,1.75313E-3,-3.610481E-2,1.4E1,-2.6738424E-2,6.284272E-2],"split_indices":[0,7,0,8,7,0,0,14,14,0,8,0,0,0,0,0,2,0,0],"split_type":[0,0,0,0,0,0,0,0,0,0,0,0,0,0,0,0,0,0,0],"sum_hessian":[1.5274319E1,1.2551414E1,2.7229059E0,5.3831477E0,7.1682653E0,1.486237E0,1.2366688E0,3.0896661E0,2.2934816E0,2.4155684E0,4.752697E0,1.531673E0,1.5579933E0,1.1295924E0,1.1638892E0,2.0750299E0,2.6776674E0,1.0179031E0,1.6597643E0],"tree_param":{"num_deleted":"0","num_feature":"15","num_nodes":"19","size_leaf_vector":"1"}},{"base_weights":[9.689698E-3,-2.6279017E-1,2.442324E-1,-3.8446745E-1,1.5142729E-2,-3.6546325E-3,4.7059596E-1,-5.088414E-1,4.7579654E-3,3.3980858E-2,-1.9029875E-1,7.108285E-2,-7.7008097E-3,-7.179946E-2,-2.4629155E-1,-5.014799E-2,7.569329E-3,-8.397255E-5,-3.874063E-2],"categories":[],"categories_nodes":[],"categories_segments":[],"categories_sizes":[],"default_left":[0,0,0,0,0,0,0,0,0,0,0,0,0,0,0,0,0,0,0],"id":28,"left_children":[1,3,5,7,-1,9,11,13,-1,-1,15,-1,-1,-1,17,-1,-1,-1,-1],"loss_changes":[1.0906339E0,4.5696485E-1,5.1514226E-1,3.6799484E-1,0E0,4.0824413E-1,6.849103E-1,1.0065031E-1,0E0,0E0,3.784457E-1,0E0,0E0,0E0,1.3000335E-1,0E0,0E0,0E0,0E0],"parents":[2147483647,0,0,1,1,2,2,3,3,5,5,6,6,7,7,10,10,14,14],"right_children":[2,4,6,8,-1,10,12,14,-1,-1,16,-1,-1,-1,18,-1,-1,-1,-1],"split_conditions":[1.4E1,3.1E1,2.2E1,1E0,1.5142729E-2,1.4E1,6.2E-1,2E0,4.7579654E-3,3.3980858E-2,1.7E1,7.108285E-2,-7.7008097E-3,-7.179946E-2,1.4E1,-5.014799E-2,7.569329E-3,-8.397255E-5,-3.874063E-2],"split_indices":[2,11,11,3,0,7,6,8,0,0,7,0,0,0,7,0,0,0,0],"split_type":[0,0,0,0,0,0,0,0,0,0,0,0,0,0,0,0,0,0,0],"sum_hessian":[1.5061357E1,6.9114947E0,8.149862E0,5.397724E0,1.5137705E0,4.359596E0,3.7902668E0,4.0531836E0,1.3445406E0,1.2460277E0,3.113568E0,2.427332E0,1.362935E0,1.2904687E0,2.7627146E0,1.0268952E0,2.0866728E0,1.3757379E0,1.3869768E0],"tree_param":{"num_deleted":"0","num_feature":"15","num_nodes":"19","size_leaf_vector":"1"}},{"base_weights":[6.6412096E-3,-2.5100905E-1,2.295661E-1,9.5467545E-2,-3.9165032E-1,-4.897641E-3,4.4698912E-1,-6.0681224E-2,7.496991E-2,2.2349894E-2,-7.2604895E-2,1.7007628E-1,-3.4605365E-2,6.819238E-2,-7.2532864E-3,-1.7509885E-1,6.279456E-2,-3.6583122E-2,8.904866E-3],"categories":[],"categories_nodes":[],"categories_segments":[],"categories_sizes":[],"default_left":[0,0,0,0,0,0,0,0,0,0,0,0,0,0,0,0,0,0,0],"id":29,"left_children":[1,3,5,7,9,11,13,-1,-1,-1,-1,15,-1,-1,-1,17,-1,-1,-1],"loss_changes":[9.6758753E-1,4.1877952E-1,4.6181324E-1,1.8625855E0,1.3477483E0,3.7685663E-1,6.2176156E-1,0E0,0E0,0E0,0E0,7.724339E-1,0E0,0E0,0E0,1.9238368E-1,0E0,0E0,0E0],"parents":[2147483647,0,0,1,1,2,2,3,3,4,4,5,5,6,6,11,11,15,15],"right_children":[2,4,6,8,10,12,14,-1,-1,-1,-1,16,-1,-1,-1,18,-1,-1,-1],"split_conditions":[1.4E1,8.181818E-1,2.2E1,3.59E2,4.87E2,8.46E2,6.2E-1,-6.0681224E-2,7.496991E-2,2.2349894E-2,-7.2604895E-2,2E0,-3.4605365E-2,6.819238E-2,-7.2532864E-3,1.5E1,6.279456E-2,-3.6583122E-2,8.904866E-3],"split_indices":[2,4,11,14,14,14,6,0,0,0,0,3,0,0,0,7,0,0,0],"split_type":[0,0,0,0,0,0,0,0,0,0,0,0,0,0,0,0,0,0,0],"sum_hessian":[1.484292E1,6.826762E0,8.016158E0,2.063768E0,4.762994E0,4.327241E0,3.6889174E0,1.030291E0,1.033477E0,1.7941573E0,2.9688368E0,3.1917233E0,1.1355175E0,2.3249476E0,1.3639699E0,2.1719377E0,1.0197856E0,1.0376987E0,1.134239E0],"tree_param":{"num_deleted":"0","num_feature":"15","num_nodes":"19","size_leaf_vector":"1"}},{"base_weights":[7.65558E-3,-2.5724882E-1,2.0944865E-1,-4.1907692E-1,3.6390875E-2,3.6335078E-1,-1.8453756E-1,-5.7638645E-2,-1.1089797E-2,4.5384225E-2,-3.161995E-2,-1.0112144E-2,5.449899E-1,1.7267203E-2,-4.2357177E-2,7.364732E-2,-1.619799E-3],"categories":[],"categories_nodes":[],"categories_segments":[],"categories_sizes":[],"default_left":[0,0,0,0,0,0,0,0,0,0,0,0,0,0,0,0,0],"id":30,"left_children":[1,3,5,7,9,11,13,-1,-1,-1,-1,-1,15,-1,-1,-1,-1],"loss_changes":[8.8632286E-1,3.5653853E-1,6.364419E-1,1.64428E-1,6.545334E-1,6.53221E-1,3.549919E-1,0E0,0E0,0E0,0E0,0E0,5.763986E-1,0E0,0E0,0E0,0E0],"parents":[2147483647,0,0,1,1,2,2,3,3,4,4,5,5,6,6,12,12],"right_children":[2,4,6,8,10,12,14,-1,-1,-1,-1,-1,16,-1,-1,-1,-1],"split_conditions":[2.3E1,5E0,2.1E1,4.730392E-1,6.2E2,2.48E2,4.3E1,-5.7638645E-2,-1.1089797E-2,4.5384225E-2,-3.161995E-2,-1.0112144E-2,5E0,1.7267203E-2,-4.2357177E-2,7.364732E-2,-1.619799E-3],"split_indices":[0,8,7,6,14,14,0,0,0,0,0,0,3,0,0,0,0],"split_type":[0,0,0,0,0,0,0,0,0,0,0,0,0,0,0,0,0],"sum_hessian":[1.4572516E1,6.182114E0,8.390403E0,3.7102005E0,2.4719136E0,6.0894494E0,2.3009531E0,1.8801717E0,1.830029E0,1.0003628E0,1.4715508E0,1.8365252E0,4.252924E0,1.0337529E0,1.2672002E0,2.9380746E0,1.3148494E0],"tree_param":{"num_deleted":"0","num_feature":"15","num_nodes":"17","size_leaf_vector":"1"}},{"base_weights":[5.953014E-3,-1.1207972E-1,4.4115123E-1,2.333606E-1,-2.1138173E-1,1.237172E-2,5.9253186E-2,-3.828504E-2,7.5132355E-2,4.6849605E-2,-3.355109E-1,-5.056576E-1,2.9768553E-3,-1.0498367E-2,-6.384587E-1,3.1702557E-1,-4.703298E-2,-8.105526E-2,-1.34391235E-2,4.1029684E-2,6.0502347E-3],"categories":[],"categories_nodes":[],"categories_segments":[],"categories_sizes":[],"default_left":[0,0,0,0,0,0,0,0,0,0,0,0,0,0,0,0,0,0,0,0,0],"id":31,"left_children":[1,3,5,7,9,-1,-1,-1,-1,-1,11,13,15,-1,17,19,-1,-1,-1,-1,-1],"loss_changes":[8.386599E-1,4.9127078E-1,9.3945384E-2,1.3574928E0,1.0459756E0,0E0,0E0,0E0,0E0,0E0,5.47964E-1,2.6926935E-1,7.6866734E-1,0E0,2.85774E-1,4.9418718E-2,0E0,0E0,0E0,0E0,0E0],"parents":[2147483647,0,0,1,1,2,2,3,3,4,4,10,10,11,11,12,12,14,14,15,15],"right_children":[2,4,6,8,10,-1,-1,-1,-1,-1,12,14,16,-1,18,20,-1,-1,-1,-1,-1],"split_conditions":[6E1,8.2857144E-1,7.6E1,3.59E2,2.09E2,1.237172E-2,5.9253186E-2,-3.828504E-2,7.5132355E-2,4.6849605E-2,2.1E1,4.87E2,2.9E1,-1.0498367E-2,2.1E1,2E0,-4.703298E-2,-8.105526E-2,-1.34391235E-2,4.1029684E-2,6.0502347E-3],"split_indices":[0,4,0,14,14,0,0,0,0,0,2,14,1,0,0,8,0,0,0,0,0],"split_type":[0,0,0,0,0,0,0,0,0,0,0,0,0,0,0,0,0,0,0,0,0],"sum_hessian":[1.4364068E1,1.1883528E1,2.4805403E0,2.351923E0,9.531605E0,1.3877628E0,1.0927774E0,1.1932222E0,1.1587007E0,1.0432538E0,8.488351E0,5.3201914E0,3.1681592E0,1.7701147E0,3.550077E0,2.102979E0,1.0651803E0,2.1932538E0,1.3568233E0,1.1026171E0,1.0003619E0],"tree_param":{"num_deleted":"0","num_feature":"15","num_nodes":"21","size_leaf_vector":"1"}},{"base_weights":[8.532009E-3,-1.0428956E-1,4.2480886E-1,1.0868404E-1,-2.609965E-1,1.1686192E-2,5.7574477E-2,3.959814E-1,-1.8942417E-1,-6.368636E-2,1.1174233E-2,-2.0183185E-3,6.9598906E-2,-5.5655222E-2,3.2147314E-2,-3.231184E-2,2.9111913E-1,5.3448122E-2,-1.3109987E-2],"categories":[],"categories_nodes":[],"categories_segments":[],"categories_sizes":[],"default_left":[0,0,0,0,0,0,0,0,0,0,0,0,0,0,0,0,0,0,0],"id":32,"left_children":[1,3,5,7,9,-1,-1,11,13,-1,15,-1,-1,-1,-1,-1,17,-1,-1],"loss_changes":[7.5527763E-1,4.5266426E-1,9.191781E-2,5.970307E-1,7.864513E-1,0E0,0E0,4.419701E-1,8.668497E-1,0E0,5.995416E-1,0E0,0E0,0E0,0E0,0E0,4.261752E-1,0E0,0E0],"parents":[2147483647,0,0,1,1,2,2,3,3,4,4,7,7,8,8,10,10,16,16],"right_children":[2,4,6,8,10,-1,-1,12,14,-1,16,-1,-1,-1,-1,-1,18,-1,-1],"split_conditions":[6E1,1.4E1,7.6E1,8.717949E-1,1.7E1,1.1686192E-2,5.7574477E-2,7.02E2,1E1,-6.368636E-2,1E0,-2.0183185E-3,6.9598906E-2,-5.5655222E-2,3.2147314E-2,-3.231184E-2,5E0,5.3448122E-2,-1.3109987E-2],"split_indices":[0,7,0,4,7,0,0,14,7,0,8,0,0,0,0,0,8,0,0],"split_type":[0,0,0,0,0,0,0,0,0,0,0,0,0,0,0,0,0,0,0],"sum_hessian":[1.4138387E1,1.1713266E1,2.425121E0,5.0951366E0,6.6181293E0,1.3812581E0,1.043863E0,2.4274263E0,2.6677105E0,2.2167969E0,4.4013324E0,1.4075817E0,1.0198447E0,1.5002656E0,1.167445E0,1.9356631E0,2.4656692E0,1.3954575E0,1.0702116E0],"tree_param":{"num_deleted":"0","num_feature":"15","num_nodes":"19","size_leaf_vector":"1"}},{"base_weights":[1.1557963E-2,-2.1295974E-1,2.0445293E-1,-3.4696197E-3,-4.5282057E-1,-1.959332E-2,4.172867E-1,3.4177076E-2,-2.467395E-1,-6.200741E-2,-8.8334875E-3,3.0468518E-2,-1.9077656E-1,6.499837E-2,-7.129243E-3,2.418415E-2,-5.9589487E-2,7.88818E-3,-3.9507132E-2],"categories":[],"categories_nodes":[],"categories_segments":[],"categories_sizes":[],"default_left":[0,0,0,0,0,0,0,0,0,0,0,0,0,0,0,0,0,0,0],"id":33,"left_children":[1,3,5,7,9,11,13,-1,15,-1,-1,-1,17,-1,-1,-1,-1,-1,-1],"loss_changes":[6.918761E-1,3.706627E-1,4.164693E-1,5.010693E-1,1.5529126E-1,3.4270197E-1,5.5066156E-1,0E0,7.397491E-1,0E0,0E0,0E0,2.4988185E-1,0E0,0E0,0E0,0E0,0E0,0E0],"parents":[2147483647,0,0,1,1,2,2,3,3,4,4,5,5,6,6,8,8,12,12],"right_children":[2,4,6,8,10,12,14,-1,16,-1,-1,-1,18,-1,-1,-1,-1,-1,-1],"split_conditions":[1.4E1,1.4E1,2.2E1,8.181818E-1,9E0,1.4E1,6.2E-1,3.4177076E-2,4.87E2,-6.200741E-2,-8.8334875E-3,3.0468518E-2,5.66E2,6.499837E-2,-7.129243E-3,2.418415E-2,-5.9589487E-2,7.88818E-3,-3.9507132E-2],"split_indices":[2,7,11,4,2,7,6,0,14,0,0,0,14,0,0,0,0,0,0],"split_type":[0,0,0,0,0,0,0,0,0,0,0,0,0,0,0,0,0,0,0],"sum_hessian":[1.3970234E1,6.4078627E0,7.5623713E0,3.961994E0,2.4458687E0,4.126461E0,3.43591E0,1.4703786E0,2.4916153E0,1.1958791E0,1.2499896E0,1.1562527E0,2.9702084E0,2.1036456E0,1.3322645E0,1.1665659E0,1.3250494E0,1.5449016E0,1.4253067E0],"tree_param":{"num_deleted":"0","num_feature":"15","num_nodes":"19","size_leaf_vector":"1"}},{"base_weights":[9.483171E-3,-2.197555E-1,1.8280044E-1,-3.9348904E-2,-5.5160046E-2,5.3517807E-2,8.4201E-3,-1.8299663E-1,2.9540598E-2,1.915856E-1,-4.0918875E-2,-3.9682052E-1,2.0486882E-2,-1.2735905E-1,4.890469E-1,-6.343144E-2,2.697504E-3,1.9973127E-2,-4.42834E-2,5.606611E-3,6.715692E-2],"categories":[],"categories_nodes":[],"categories_segments":[],"categories_sizes":[],"default_left":[0,0,0,0,0,0,0,0,0,0,0,0,0,0,0,0,0,0,0,0,0],"id":34,"left_children":[1,3,5,7,-1,-1,9,11,-1,13,-1,15,-1,17,19,-1,-1,-1,-1,-1,-1],"loss_changes":[6.267092E-1,3.8599372E-1,5.456135E-1,3.179821E-1,0E0,0E0,6.1421067E-1,4.5101753E-1,0E0,5.888654E-1,0E0,3.4061825E-1,0E0,4.4670188E-1,2.0563787E-1,0E0,0E0,0E0,0E0,0E0,0E0],"parents":[2147483647,0,0,1,1,2,2,3,3,6,6,7,7,9,9,11,11,13,13,14,14],"right_children":[2,4,6,8,-1,-1,10,12,-1,14,-1,16,-1,18,20,-1,-1,-1,-1,-1,-1],"split_conditions":[2.3E1,6.2E-1,1.4E1,3.1E1,-5.5160046E-2,5.3517807E-2,5E0,4.473684E-1,2.9540598E-2,9.5454544E-1,-4.0918875E-2,5E0,2.0486882E-2,3E0,1E0,-6.343144E-2,2.697504E-3,1.9973127E-2,-4.42834E-2,5.606611E-3,6.715692E-2],"split_indices":[0,6,7,11,0,0,8,6,0,4,0,8,0,8,8,0,0,0,0,0,0],"split_type":[0,0,0,0,0,0,0,0,0,0,0,0,0,0,0,0,0,0,0,0,0],"sum_hessian":[1.3762716E1,5.81007E0,7.9526463E0,4.4884906E0,1.3215793E0,1.9477401E0,6.0049067E0,3.4579713E0,1.0305195E0,4.5503364E0,1.4545702E0,2.2142198E0,1.2437514E0,2.4718308E0,2.0785055E0,1.1006641E0,1.1135557E0,1.3937017E0,1.078129E0,1.003995E0,1.0745106E0],"tree_param":{"num_deleted":"0","num_feature":"15","num_nodes":"21","size_leaf_vector":"1"}},{"base_weights":[8.323956E-3,-9.4433315E-2,3.9134607E-2,1.3906438E-2,-3.6032718E-1,-1.9313075E-1,2.6559716E-1,-5.3037476E-2,-3.7498493E-3,5.6913234E-2,-6.9282115E-2,-2.735675E-2,5.1545676E-2,-1.8851809E-1,4.4945993E-2,1.4355152E-2,-1.962809E-2,2.0746473E-2,-5.989043E-2],"categories":[],"categories_nodes":[],"categories_segments":[],"categories_sizes":[],"default_left":[0,0,0,0,0,0,0,0,0,0,0,0,0,0,0,0,0,0,0],"id":35,"left_children":[1,3,-1,5,7,9,11,-1,-1,13,-1,15,-1,17,-1,-1,-1,-1,-1],"loss_changes":[6.1038107E-1,3.591363E-1,0E0,5.5660486E-1,1.775175E-1,7.7654225E-1,3.6527267E-1,0E0,0E0,5.5257916E-1,0E0,1.19348384E-1,0E0,7.2429264E-1,0E0,0E0,0E0,0E0,0E0],"parents":[2147483647,0,0,1,1,3,3,4,4,5,5,6,6,9,9,11,11,13,13],"right_children":[2,4,-1,6,8,10,12,-1,-1,14,-1,16,-1,18,-1,-1,-1,-1,-1],"split_conditions":[6E1,6.2E-1,3.9134607E-2,4.0384614E-1,2.3E1,3.8235295E-1,2.2E1,-5.3037476E-2,-3.7498493E-3,1.3E1,-6.9282115E-2,4.6E2,5.1545676E-2,1.1E1,4.4945993E-2,1.4355152E-2,-1.962809E-2,2.0746473E-2,-5.989043E-2],"split_indices":[0,6,0,6,0,6,11,0,0,2,0,14,0,7,0,0,0,0,0],"split_type":[0,0,0,0,0,0,0,0,0,0,0,0,0,0,0,0,0,0,0],"sum_hessian":[1.3569349E1,1.1293089E1,2.2762606E0,8.697108E0,2.5959802E0,4.899509E0,3.7975993E0,1.2792476E0,1.3167324E0,3.8560522E0,1.0434569E0,2.1579592E0,1.6396402E0,2.6924267E0,1.1636255E0,1.1473422E0,1.0106169E0,1.6219078E0,1.0705189E0],"tree_param":{"num_deleted":"0","num_feature":"15","num_nodes":"19","size_leaf_vector":"1"}},{"base_weights":[5.0420766E-3,-1.977369E-1,1.8067196E-1,9.570808E-5,-4.2792022E-1,-2.6387485E-2,3.820542E-1,3.0775476E-2,-2.2141829E-1,-5.8436967E-2,-8.930628E-3,-2.3445597E-1,2.4291648E-2,6.1501194E-2,-7.6916176E-3,2.3745975E-2,-5.6246188E-2,7.4166874E-3,-4.4239223E-2],"categories":[],"categories_nodes":[],"categories_segments":[],"categories_sizes":[],"default_left":[0,0,0,0,0,0,0,0,0,0,0,0,0,0,0,0,0,0,0],"id":36,"left_children":[1,3,5,7,9,11,13,-1,15,-1,-1,17,-1,-1,-1,-1,-1,-1,-1],"loss_changes":[5.483842E-1,3.2602268E-1,3.5352173E-1,3.9864334E-1,1.2310642E-1,3.369159E-1,5.006505E-1,0E0,6.6582334E-1,0E0,0E0,2.4634826E-1,0E0,0E0,0E0,0E0,0E0,0E0,0E0],"parents":[2147483647,0,0,1,1,2,2,3,3,4,4,5,5,6,6,8,8,11,11],"right_children":[2,4,6,8,10,12,14,-1,16,-1,-1,18,-1,-1,-1,-1,-1,-1,-1],"split_conditions":[1.4E1,1.4E1,2.2E1,8.181818E-1,9E0,2E0,6.2E-1,3.0775476E-2,4.87E2,-5.8436967E-2,-8.930628E-3,2.5E1,2.4291648E-2,6.1501194E-2,-7.6916176E-3,2.3745975E-2,-5.6246188E-2,7.4166874E-3,-4.4239223E-2],"split_indices":[2,7,11,4,2,3,6,0,14,0,0,1,0,0,0,0,0,0,0],"split_type":[0,0,0,0,0,0,0,0,0,0,0,0,0,0,0,0,0,0,0],"sum_hessian":[1.3394845E1,6.158492E0,7.2363524E0,3.8495526E0,2.3089397E0,3.99633E0,3.2400227E0,1.4484657E0,2.4010868E0,1.0828582E0,1.2260815E0,2.3274815E0,1.6688486E0,1.9236579E0,1.3163648E0,1.1531868E0,1.2479E0,1.1958693E0,1.1316121E0],"tree_param":{"num_deleted":"0","num_feature":"15","num_nodes":"19","size_leaf_vector":"1"}},{"base_weights":[2.6094047E-3,-8.175115E-2,4.145862E-2,4.0812857E-2,-3.7520954E-1,-1.6954678E-1,2.8363803E-1,-3.9137634E-3,-5.7948153E-2,6.6659495E-2,-6.3882045E-2,-4.35358E-4,5.1366467E-2,-1.8375601E-1,4.4848923E-2,1.8161727E-2,-1.6979324E-2,1.8721689E-2,-5.7564538E-2],"categories":[],"categories_nodes":[],"categories_segments":[],"categories_sizes":[],"default_left":[0,0,0,0,0,0,0,0,0,0,0,0,0,0,0,0,0,0,0],"id":37,"left_children":[1,3,-1,5,7,9,11,-1,-1,13,-1,15,-1,17,-1,-1,-1,-1,-1],"loss_changes":[5.2795637E-1,4.6975708E-1,0E0,5.494163E-1,2.395947E-1,6.9486755E-1,3.223577E-1,0E0,0E0,5.432699E-1,0E0,1.2965146E-1,0E0,6.3407755E-1,0E0,0E0,0E0,0E0,0E0],"parents":[2147483647,0,0,1,1,3,3,4,4,5,5,6,6,9,9,11,11,13,13],"right_children":[2,4,-1,6,8,10,12,-1,-1,14,-1,16,-1,18,-1,-1,-1,-1,-1],"split_conditions":[6.4E1,6.2E-1,4.145862E-2,4.0384614E-1,2.5E1,3.8235295E-1,2.2E1,-3.9137634E-3,-5.7948153E-2,1.3E1,-6.3882045E-2,3.12E2,5.1366467E-2,1.1E1,4.4848923E-2,1.8161727E-2,-1.6979324E-2,1.8721689E-2,-5.7564538E-2],"split_indices":[0,6,0,6,11,6,11,0,0,2,0,14,0,7,0,0,0,0,0],"split_type":[0,0,0,0,0,0,0,0,0,0,0,0,0,0,0,0,0,0,0],"sum_hessian":[1.32157755E1,1.1634866E1,1.5809095E0,8.814416E0,2.8204498E0,4.88463E0,3.9297855E0,1.5167166E0,1.3037331E0,3.819871E0,1.0647594E0,2.2049146E0,1.7248709E0,2.620208E0,1.199663E0,1.0277447E0,1.1771698E0,1.6143204E0,1.0058876E0],"tree_param":{"num_deleted":"0","num_feature":"15","num_nodes":"19","size_leaf_vector":"1"}},{"base_weights":[4.717362E-4,-1.2405638E-1,2.6396918E-1,-3.608182E-1,5.5129606E-2,4.8311493E-1,-1.8066786E-2,-5.568406E-2,1.0692887E-2,-1.8833262E-1,5.384053E-2,7.31933E-2,-5.5023963E-3,4.1352384E-2,-4.7178236E-1,-6.183548E-2,-3.8274352E-3],"categories":[],"categories_nodes":[],"categories_segments":[],"categories_sizes":[],"default_left":[0,0,0,0,0,0,0,0,0,0,0,0,0,0,0,0,0],"id":38,"left_children":[1,3,5,7,9,11,-1,-1,-1,13,-1,-1,-1,-1,15,-1,-1],"loss_changes":[4.9406585E-1,4.5378435E-1,5.58082E-1,4.7566408E-1,8.884252E-1,5.100819E-1,0E0,0E0,0E0,1.0803168E0,0E0,0E0,0E0,0E0,2.3015928E-1,0E0,0E0],"parents":[2147483647,0,0,1,1,2,2,3,3,4,4,5,5,9,9,14,14],"right_children":[2,4,6,8,10,12,-1,-1,-1,14,-1,-1,-1,-1,16,-1,-1],"split_conditions":[2E0,2.54E2,2.5E1,1.9E1,2.1E1,9.9E2,-1.8066786E-2,-5.568406E-2,1.0692887E-2,8.611111E-1,5.384053E-2,7.31933E-2,-5.5023963E-3,4.1352384E-2,2.1E1,-6.183548E-2,-3.8274352E-3],"split_indices":[3,14,11,7,2,14,0,0,0,4,0,0,0,0,0,0,0],"split_type":[0,0,0,0,0,0,0,0,0,0,0,0,0,0,0,0,0],"sum_hessian":[1.30590925E1,9.227429E0,3.8316627E0,3.5384097E0,5.68902E0,2.5086842E0,1.3229785E0,2.3592339E0,1.179176E0,4.1890044E0,1.5000157E0,1.4692372E0,1.0394468E0,1.194274E0,2.9947302E0,1.9193764E0,1.0753539E0],"tree_param":{"num_deleted":"0","num_feature":"15","num_nodes":"17","size_leaf_vector":"1"}},{"base_weights":[2.8731986E-3,-2.0781675E-1,1.4852487E-1,6.465944E-2,-6.115775E-2,3.89459E-1,-2.177124E-1,-2.0997815E-2,3.1675823E-2,5.547296E-1,-3.1457373E-4,1.2648395E-2,-5.5431224E-2,7.153141E-2,5.4777157E-3],"categories":[],"categories_nodes":[],"categories_segments":[],"categories_sizes":[],"default_left":[0,0,0,0,0,0,0,0,0,0,0,0,0,0,0],"id":39,"left_children":[1,3,5,7,-1,9,11,-1,-1,13,-1,-1,-1,-1,-1],"loss_changes":[4.554395E-1,7.0754933E-1,8.5807544E-1,3.8013336E-1,0E0,3.680008E-1,5.4731524E-1,0E0,0E0,2.8019166E-1,0E0,0E0,0E0,0E0,0E0],"parents":[2147483647,0,0,1,1,2,2,3,3,5,5,6,6,9,9],"right_children":[2,4,6,8,-1,10,12,-1,-1,14,-1,-1,-1,-1,-1],"split_conditions":[4.0384614E-1,3.6363637E-1,6.2E-1,4E0,-6.115775E-2,8.46E2,2.5E1,-2.0997815E-2,3.1675823E-2,5E0,-3.1457373E-4,1.2648395E-2,-5.5431224E-2,7.153141E-2,5.4777157E-3],"split_indices":[6,6,6,8,0,14,11,0,0,8,0,0,0,0,0],"split_type":[0,0,0,0,0,0,0,0,0,0,0,0,0,0,0],"sum_hessian":[1.2835462E1,5.071934E0,7.763527E0,3.529753E0,1.5421813E0,4.6446047E0,3.1189225E0,1.7693235E0,1.7604295E0,2.9780295E0,1.6665752E0,1.8506929E0,1.2682296E0,1.9279943E0,1.0500351E0],"tree_param":{"num_deleted":"0","num_feature":"15","num_nodes":"15","size_leaf_vector":"1"}},{"base_weights":[1.4365477E-3,-8.74342E-2,3.4047317E-2,1.0495531E-1,-2.3244338E-1,-1.3881622E-1,4.3784633E-2,-5.5893283E-2,8.281665E-3,3.5920344E-2,-5.1708825E-2,-3.1470824E-2,2.8889993E-1,5.0865363E-2,-6.60316E-3],"categories":[],"categories_nodes":[],"categories_segments":[],"categories_sizes":[],"default_left":[0,0,0,0,0,0,0,0,0,0,0,0,0,0,0],"id":40,"left_children":[1,3,-1,5,7,9,-1,-1,11,-1,-1,-1,13,-1,-1],"loss_changes":[4.436977E-1,3.5025832E-1,0E0,5.240611E-1,5.525398E-1,9.4963276E-1,0E0,0E0,5.439351E-1,0E0,0E0,0E0,2.8285778E-1,0E0,0E0],"parents":[2147483647,0,0,1,1,3,3,4,4,5,5,8,8,12,12],"right_children":[2,4,-1,6,8,10,-1,-1,12,-1,-1,-1,14,-1,-1],"split_conditions":[6E1,1.4E1,3.4047317E-2,1E1,1.7E1,8.4210527E-1,4.3784633E-2,-5.5893283E-2,1E0,3.5920344E-2,-5.1708825E-2,-3.1470824E-2,2.1E1,5.0865363E-2,-6.60316E-3],"split_indices":[0,7,0,7,7,4,0,0,8,0,0,0,7,0,0],"split_type":[0,0,0,0,0,0,0,0,0,0,0,0,0,0,0],"sum_hessian":[1.2737892E1,1.0680383E1,2.0575101E0,4.7089906E0,5.9713917E0,3.0549157E0,1.654075E0,1.9732493E0,3.9981422E0,1.340487E0,1.7144287E0,1.8022649E0,2.1958773E0,1.0887072E0,1.1071702E0],"tree_param":{"num_deleted":"0","num_feature":"15","num_nodes":"15","size_leaf_vector":"1"}},{"base_weights":[2.5933334E-3,-1.13371536E-1,2.5062528E-1,-3.274817E-1,9.0648204E-2,4.5971382E-1,-1.6512064E-2,-5.5402255E-4,-5.302578E-1,-1.3430083E-1,4.8939016E-2,6.9246374E-2,-3.9390125E-3,-1.4954612E-2,-6.5453075E-2,2.2841992E-2,-4.5692157E-2],"categories":[],"categories_nodes":[],"categories_segments":[],"categories_sizes":[],"default_left":[0,0,0,0,0,0,0,0,0,0,0,0,0,0,0,0,0],"id":41,"left_children":[1,3,5,7,9,11,-1,-1,13,15,-1,-1,-1,-1,-1,-1,-1],"loss_changes":[4.194269E-1,4.6441016E-1,4.7946513E-1,3.2821518E-1,5.930717E-1,4.1680592E-1,0E0,0E0,4.8869133E-2,6.360452E-1,0E0,0E0,0E0,0E0,0E0,0E0,0E0],"parents":[2147483647,0,0,1,1,2,2,3,3,4,4,5,5,8,8,9,9],"right_children":[2,4,6,8,10,12,-1,-1,14,16,-1,-1,-1,-1,-1,-1,-1],"split_conditions":[2E0,3.74E2,2.5E1,8E0,2.1E1,9.9E2,-1.6512064E-2,-5.5402255E-4,5E0,1.4E1,4.8939016E-2,6.9246374E-2,-3.9390125E-3,-1.4954612E-2,-6.5453075E-2,2.2841992E-2,-4.5692157E-2],"split_indices":[3,14,11,1,2,14,0,0,8,7,0,0,0,0,0,0,0],"split_type":[0,0,0,0,0,0,0,0,0,0,0,0,0,0,0,0,0],"sum_hessian":[1.2594313E1,8.951871E0,3.6424425E0,4.0726495E0,4.879221E0,2.3532035E0,1.2892388E0,1.9708743E0,2.101775E0,3.5434072E0,1.3358139E0,1.3406136E0,1.0125899E0,1.0594634E0,1.0423117E0,1.8054905E0,1.7379168E0],"tree_param":{"num_deleted":"0","num_feature":"15","num_nodes":"17","size_leaf_vector":"1"}},{"base_weights":[2.0036732E-3,-1.9565015E-1,1.4085549E-1,5.1596407E-2,-5.6492068E-2,3.7172264E-1,-2.0825475E-1,-1.5870185E-1,3.78072E-2,5.2778E-1,4.294212E-4,1.1918223E-2,-5.252474E-2,1.755653E-2,-4.5207705E-2,6.747236E-2,6.1554834E-3],"categories":[],"categories_nodes":[],"categories_segments":[],"categories_sizes":[],"default_left":[0,0,0,0,0,0,0,0,0,0,0,0,0,0,0,0,0],"id":42,"left_children":[1,3,5,7,-1,9,11,13,-1,15,-1,-1,-1,-1,-1,-1,-1],"loss_changes":[3.9692917E-1,5.74402E-1,7.614265E-1,3.685017E-1,0E0,3.1124258E-1,4.7977048E-1,4.16448E-1,0E0,2.2081542E-1,0E0,0E0,0E0,0E0,0E0,0E0,0E0],"parents":[2147483647,0,0,1,1,2,2,3,3,5,5,6,6,7,7,9,9],"right_children":[2,4,6,8,-1,10,12,14,-1,16,-1,-1,-1,-1,-1,-1,-1],"split_conditions":[4.0384614E-1,3.6363637E-1,6.2E-1,1.1E1,-5.6492068E-2,8.46E2,2.5E1,9E0,3.78072E-2,5E0,4.294212E-4,1.1918223E-2,-5.252474E-2,1.755653E-2,-4.5207705E-2,6.747236E-2,6.1554834E-3],"split_indices":[6,6,6,2,0,14,11,7,0,8,0,0,0,0,0,0,0],"split_type":[0,0,0,0,0,0,0,0,0,0,0,0,0,0,0,0,0],"sum_hessian":[1.2458781E1,4.9720597E0,7.486722E0,3.4933486E0,1.4787109E0,4.4675517E0,3.0191703E0,2.4372776E0,1.0560712E0,2.829406E0,1.6381457E0,1.7920734E0,1.2270968E0,1.3269446E0,1.1103328E0,1.8113151E0,1.018091E0],"tree_param":{"num_deleted":"0","num_feature":"15","num_nodes":"17","size_leaf_vector":"1"}},{"base_weights":[8.4969314E-4,-1.725173E-1,1.5664725E-1,-2.8622797E-1,1.460288E-2,-5.2746076E-2,3.6638495E-1,-4.0358317E-1,1.040872E-2,-2.2435768E-1,1.8902626E-2,5.754387E-2,-4.875149E-3,-6.306871E-2,-1.3925426E-1,8.736186E-3,-4.327114E-2,-2.1581199E-2,1.7373929E-3],"categories":[],"categories_nodes":[],"categories_segments":[],"categories_sizes":[],"default_left":[0,0,0,0,0,0,0,0,0,0,0,0,0,0,0,0,0,0,0],"id":43,"left_children":[1,3,5,7,-1,9,11,13,-1,15,-1,-1,-1,-1,17,-1,-1,-1,-1],"loss_changes":[3.8694677E-1,2.874915E-1,3.505726E-1,2.8644744E-1,0E0,2.3527935E-1,3.6599553E-1,1.7077768E-1,0E0,2.4407598E-1,0E0,0E0,0E0,0E0,4.3010205E-2,0E0,0E0,0E0,0E0],"parents":[2147483647,0,0,1,1,2,2,3,3,5,5,6,6,7,7,9,9,14,14],"right_children":[2,4,6,8,-1,10,12,14,-1,16,-1,-1,-1,-1,18,-1,-1,-1,-1],"split_conditions":[1.4E1,1E0,2.2E1,3.1E1,1.460288E-2,2E0,2.6E1,2E0,1.040872E-2,2.5E1,1.8902626E-2,5.754387E-2,-4.875149E-3,-6.306871E-2,1.1E1,8.736186E-3,-4.327114E-2,-2.1581199E-2,1.7373929E-3],"split_indices":[2,3,11,11,0,3,11,8,0,1,0,0,0,0,0,0,0,0,0],"split_type":[0,0,0,0,0,0,0,0,0,0,0,0,0,0,0,0,0,0,0],"sum_hessian":[1.2325447E1,5.7829885E0,6.5424585E0,4.336466E0,1.4465231E0,3.6484814E0,2.8939772E0,3.3078952E0,1.0285705E0,2.1759832E0,1.4724982E0,1.6679101E0,1.226067E0,1.0337405E0,2.2741547E0,1.1043944E0,1.0715886E0,1.2737174E0,1.0004373E0],"tree_param":{"num_deleted":"0","num_feature":"15","num_nodes":"19","size_leaf_vector":"1"}},{"base_weights":[-8.06263E-4,-8.226724E-2,3.1485185E-2,9.045303E-2,-2.1379283E-1,-1.7656097E-1,3.8189404E-2,-5.240726E-2,1.4527163E-2,-4.6383575E-2,2.028579E-2,-2.9416582E-2,2.8318563E-1,4.8423503E-2,-5.359394E-3],"categories":[],"categories_nodes":[],"categories_segments":[],"categories_sizes":[],"default_left":[0,0,0,0,0,0,0,0,0,0,0,0,0,0,0],"id":44,"left_children":[1,3,-1,5,7,9,-1,-1,11,-1,-1,-1,13,-1,-1],"loss_changes":[3.6554778E-1,2.7586085E-1,0E0,5.019871E-1,4.828134E-1,4.8627573E-1,0E0,0E0,4.8447436E-1,0E0,0E0,0E0,2.3557113E-1,0E0,0E0],"parents":[2147483647,0,0,1,1,3,3,4,4,5,5,8,8,12,12],"right_children":[2,4,-1,6,8,10,-1,-1,12,-1,-1,-1,14,-1,-1],"split_conditions":[6E1,1.4E1,3.1485185E-2,5E0,1.7E1,3.35E2,3.8189404E-2,-5.240726E-2,1E0,-4.6383575E-2,2.028579E-2,-2.9416582E-2,2.1E1,4.8423503E-2,-5.359394E-3],"split_indices":[0,7,0,8,7,14,0,0,8,0,0,0,7,0,0],"split_type":[0,0,0,0,0,0,0,0,0,0,0,0,0,0,0],"sum_hessian":[1.2208689E1,1.0292032E1,1.9166564E0,4.584247E0,5.707785E0,2.598092E0,1.9861548E0,1.8704964E0,3.8372889E0,1.3519678E0,1.2461244E0,1.7414224E0,2.0958664E0,1.0382289E0,1.0576376E0],"tree_param":{"num_deleted":"0","num_feature":"15","num_nodes":"15","size_leaf_vector":"1"}},{"base_weights":[-4.4300046E-4,-1.6692378E-1,1.5062308E-1,-2.7375245E-1,1.2954337E-2,-4.900268E-2,3.5098764E-1,-3.8419577E-1,9.03086E-3,2.2080174E-2,-1.8932973E-1,5.6652363E-2,-5.6300103E-3,-8.057407E-3,-4.8140362E-2,-3.3276405E-2,3.2304313E-3],"categories":[],"categories_nodes":[],"categories_segments":[],"categories_sizes":[],"default_left":[0,0,0,0,0,0,0,0,0,0,0,0,0,0,0,0,0],"id":45,"left_children":[1,3,5,7,-1,9,11,13,-1,-1,15,-1,-1,-1,-1,-1,-1],"loss_changes":[3.5464746E-1,2.4788882E-1,3.129666E-1,2.4585992E-1,0E0,2.1526767E-1,3.666169E-1,8.575374E-2,0E0,0E0,1.23679236E-1,0E0,0E0,0E0,0E0,0E0,0E0],"parents":[2147483647,0,0,1,1,2,2,3,3,5,5,6,6,7,7,10,10],"right_children":[2,4,6,8,-1,10,12,14,-1,-1,16,-1,-1,-1,-1,-1,-1],"split_conditions":[1.4E1,1E0,2.2E1,3.1E1,1.2954337E-2,9.444444E-1,6.2E-1,1.9E1,9.03086E-3,2.2080174E-2,9.849624E-1,5.6652363E-2,-5.6300103E-3,-8.057407E-3,-4.8140362E-2,-3.3276405E-2,3.2304313E-3],"split_indices":[2,3,11,11,0,4,6,11,0,0,4,0,0,0,0,0,0],"split_type":[0,0,0,0,0,0,0,0,0,0,0,0,0,0,0,0,0],"sum_hessian":[1.2101794E1,5.70723E0,6.394564E0,4.2517695E0,1.4554605E0,3.5816016E0,2.8129628E0,3.219715E0,1.0320544E0,1.0292332E0,2.5523684E0,1.583834E0,1.2291287E0,1.2243695E0,1.9953457E0,1.2451415E0,1.3072268E0],"tree_param":{"num_deleted":"0","num_feature":"15","num_nodes":"17","size_leaf_vector":"1"}},{"base_weights":[3.0135788E-4,7.3610455E-2,-3.1327832E-2,-1.7988065E-1,2.856655E-1,5.9384402E-2,-5.3424545E-2,4.2624983E-1,-2.0702733E-2,-1.4152075E-1,3.649519E-2,4.0481417E-3,5.486262E-1,1.7227E-2,-4.2616826E-2,6.3907415E-2,1.4267984E-2],"categories":[],"categories_nodes":[],"categories_segments":[],"categories_sizes":[],"default_left":[0,0,0,0,0,0,0,0,0,0,0,0,0,0,0,0,0],"id":46,"left_children":[1,3,-1,5,7,9,-1,11,-1,13,-1,-1,15,-1,-1,-1,-1],"loss_changes":[3.2148635E-1,6.605049E-1,0E0,5.213819E-1,5.423785E-1,3.1853542E-1,0E0,2.3403513E-1,0E0,3.720539E-1,0E0,0E0,5.7191372E-2,0E0,0E0,0E0,0E0],"parents":[2147483647,0,0,1,1,3,3,4,4,5,5,7,7,9,9,12,12],"right_children":[2,4,-1,6,8,10,-1,12,-1,14,-1,-1,16,-1,-1,-1,-1],"split_conditions":[6.825397E-1,4.0384614E-1,-3.1327832E-2,3.6363637E-1,1E0,1.1E1,-5.3424545E-2,8.75E-1,-2.0702733E-2,9E0,3.649519E-2,4.0481417E-3,8.46E2,1.7227E-2,-4.2616826E-2,6.3907415E-2,1.4267984E-2],"split_indices":[6,6,0,6,13,2,0,4,0,7,0,0,14,0,0,0,0],"split_type":[0,0,0,0,0,0,0,0,0,0,0,0,0,0,0,0,0],"sum_hessian":[1.1981669E1,1.0331593E1,1.6500766E0,4.775124E0,5.5564685E0,3.3473995E0,1.4277247E0,4.42788E0,1.1285887E0,2.3434694E0,1.0039301E0,1.3868594E0,3.0410202E0,1.3024573E0,1.041012E0,2.0172737E0,1.0237465E0],"tree_param":{"num_deleted":"0","num_feature":"15","num_nodes":"17","size_leaf_vector":"1"}},{"base_weights":[-6.5518677E-4,1.7114426E-1,-1.3129514E-1,-5.6350946E-2,6.1030544E-2,-3.9321524E-1,5.442371E-2,-3.328279E-1,2.8458102E-2,-6.485947E-2,4.8871166E-3,2.522519E-1,-2.2662757E-2,-4.974228E-2,-4.969125E-4,4.815773E-2,-1.6293956E-2],"categories":[],"categories_nodes":[],"categories_segments":[],"categories_sizes":[],"default_left":[0,0,0,0,0,0,0,0,0,0,0,0,0,0,0,0,0],"id":47,"left_children":[1,3,5,7,-1,9,11,13,-1,-1,-1,15,-1,-1,-1,-1,-1],"loss_changes":[3.1110203E-1,6.327463E-1,4.0427488E-1,5.528961E-1,0E0,4.1410685E-1,3.620701E-1,1.6724786E-1,0E0,0E0,0E0,4.2996916E-1,0E0,0E0,0E0,0E0,0E0],"parents":[2147483647,0,0,1,1,2,2,3,3,5,5,6,6,7,7,11,11],"right_children":[2,4,6,8,-1,10,12,14,-1,-1,-1,16,-1,-1,-1,-1,-1],"split_conditions":[1.4E1,3.4E1,1.7E1,5E0,6.1030544E-2,4.3E1,8.46E2,3.13E2,2.8458102E-2,-6.485947E-2,4.8871166E-3,5E0,-2.2662757E-2,-4.974228E-2,-4.969125E-4,4.815773E-2,-1.6293956E-2],"split_indices":[7,0,7,8,0,0,14,14,0,0,0,8,0,0,0,0,0],"split_type":[0,0,0,0,0,0,0,0,0,0,0,0,0,0,0,0,0],"sum_hessian":[1.1860151E1,4.989116E0,6.8710346E0,3.860814E0,1.1283021E0,2.3871567E0,4.483878E0,2.1450596E0,1.7157545E0,1.2170078E0,1.170149E0,2.6916983E0,1.7921798E0,1.0837823E0,1.0612774E0,1.6309649E0,1.0607336E0],"tree_param":{"num_deleted":"0","num_feature":"15","num_nodes":"17","size_leaf_vector":"1"}},{"base_weights":[-1.5234711E-3,-1.5548183E-1,1.4044283E-1,-2.583076E-1,1.2439374E-2,3.7979773E-1,-3.0953644E-2,-3.0368455E-2,-4.680273E-2,7.3457877E-3,4.9592268E-2,2.192487E-1,-3.8174894E-2,-3.2402057E-2,2.9806856E-2,5.757931E-2,-1.4149104E-2],"categories":[],"categories_nodes":[],"categories_segments":[],"categories_sizes":[],"default_left":[0,0,0,0,0,0,0,0,0,0,0,0,0,0,0,0,0],"id":48,"left_children":[1,3,5,7,-1,9,11,13,-1,-1,-1,15,-1,-1,-1,-1,-1],"loss_changes":[3.0002663E-1,2.2151116E-1,3.0496716E-1,2.3137817E-1,0E0,7.234469E-2,5.304017E-1,4.3715325E-1,0E0,0E0,0E0,5.4525536E-1,0E0,0E0,0E0,0E0,0E0],"parents":[2147483647,0,0,1,1,2,2,3,3,5,5,6,6,7,7,11,11],"right_children":[2,4,6,8,-1,10,12,14,-1,-1,-1,16,-1,-1,-1,-1,-1],"split_conditions":[1.4E1,1E0,2.8E1,1.4E1,1.2439374E-2,2.2E1,1.9E1,3.35E2,-4.680273E-2,7.3457877E-3,4.9592268E-2,3E0,-3.8174894E-2,-3.2402057E-2,2.9806856E-2,5.757931E-2,-1.4149104E-2],"split_indices":[2,3,2,7,0,11,7,14,0,0,0,8,0,0,0,0,0],"split_type":[0,0,0,0,0,0,0,0,0,0,0,0,0,0,0,0,0],"sum_hessian":[1.1727803E1,5.5806007E0,6.147203E0,4.137539E0,1.4430617E0,2.0577111E0,4.089492E0,2.5312216E0,1.6063174E0,1.0143673E0,1.0433439E0,2.6058688E0,1.4836229E0,1.3434784E0,1.1877431E0,1.0107391E0,1.5951298E0],"tree_param":{"num_deleted":"0","num_feature":"15","num_nodes":"17","size_leaf_vector":"1"}},{"base_weights":[6.30448E-4,7.081732E-2,-2.9599583E-2,-1.654644E-1,2.6801744E-1,5.8743943E-2,-4.9624454E-2,4.0040097E-1,-1.941039E-2,-1.7863324E-2,2.738576E-2,3.8151972E-3,5.151006E-1,5.9757788E-2,1.3777173E-2],"categories":[],"categories_nodes":[],"categories_segments":[],"categories_sizes":[],"default_left":[0,0,0,0,0,0,0,0,0,0,0,0,0,0,0],"id":49,"left_children":[1,3,-1,5,7,9,-1,11,-1,-1,-1,-1,13,-1,-1],"loss_changes":[2.833805E-1,5.568787E-1,0E0,4.4612268E-1,4.6787387E-1,2.6568907E-1,0E0,1.998896E-1,0E0,0E0,0E0,0E0,4.007423E-2,0E0,0E0],"parents":[2147483647,0,0,1,1,3,3,4,4,5,5,7,7,12,12],"right_children":[2,4,-1,6,8,10,-1,12,-1,-1,-1,-1,14,-1,-1],"split_conditions":[6.825397E-1,4.0384614E-1,-2.9599583E-2,3.6363637E-1,1E0,4E0,-4.9624454E-2,8.75E-1,-1.941039E-2,-1.7863324E-2,2.738576E-2,3.8151972E-3,8.46E2,5.9757788E-2,1.3777173E-2],"split_indices":[6,6,0,6,13,8,0,4,0,0,0,0,14,0,0],"split_type":[0,0,0,0,0,0,0,0,0,0,0,0,0,0,0],"sum_hessian":[1.1604613E1,9.999757E0,1.6048568E0,4.6223135E0,5.3774433E0,3.2451227E0,1.377191E0,4.2838197E0,1.0936236E0,1.6233492E0,1.6217735E0,1.350678E0,2.9331417E0,1.9280082E0,1.0051336E0],"tree_param":{"num_deleted":"0","num_feature":"15","num_nodes":"15","size_leaf_vector":"1"}},{"base_weights":[-3.407544E-4,-1.6178323E-1,1.3031434E-1,2.1826105E-2,-4.2092156E-2,4.532011E-2,-2.5980921E-2,-2.382787E-2,2.5522554E-2,3.0339269E-2,-2.3077878E-1,1.0684492E-2,-4.5473527E-2],"categories":[],"categories_nodes":[],"categories_segments":[],"categories_sizes":[],"default_left":[0,0,0,0,0,0,0,0,0,0,0,0,0],"id":50,"left_children":[1,3,5,7,-1,-1,9,-1,-1,-1,11,-1,-1],"loss_changes":[2.8534472E-1,2.9704812E-1,3.8916904E-1,3.3350146E-1,0E0,0E0,4.7372377E-1,0E0,0E0,0E0,3.705659E-1,0E0,0E0],"parents":[2147483647,0,0,1,1,2,2,3,3,6,6,10,10],"right_children":[2,4,6,8,-1,-1,10,-1,-1,-1,12,-1,-1],"split_conditions":[2.3E1,1.6E1,1.4E1,4E0,-4.2092156E-2,4.532011E-2,2.8E1,-2.382787E-2,2.5522554E-2,3.0339269E-2,3E0,1.0684492E-2,-4.5473527E-2],"split_indices":[0,0,7,8,0,0,2,0,0,0,8,0,0],"split_type":[0,0,0,0,0,0,0,0,0,0,0,0,0],"sum_hessian":[1.1528257E1,5.0500154E0,6.4782414E0,3.4917514E0,1.5582641E0,1.4934045E0,4.984837E0,1.641513E0,1.8502386E0,1.7265788E0,3.258258E0,1.5079228E0,1.7503353E0],"tree_param":{"num_deleted":"0","num_feature":"15","num_nodes":"13","size_leaf_vector":"1"}},{"base_weights":[-2.9441298E-4,-6.3977845E-2,3.245526E-2,4.384821E-2,-3.1704482E-1,-1.1794519E-1,2.2435236E-1,4.7754012E-5,-5.074464E-2,-2.9084614E-1,1.912568E-2,-1.591306E-2,4.517717E-2,-5.4837532E-2,8.64304E-3,1.6358955E-2,-1.974579E-2],"categories":[],"categories_nodes":[],"categories_segments":[],"categories_sizes":[],"default_left":[0,0,0,0,0,0,0,0,0,0,0,0,0,0,0,0,0],"id":51,"left_children":[1,3,-1,5,7,9,11,-1,-1,13,-1,15,-1,-1,-1,-1,-1],"loss_changes":[2.777316E-1,3.200866E-1,0E0,2.8190643E-1,2.1026948E-1,3.3725494E-1,2.519213E-1,0E0,0E0,4.142069E-1,0E0,1.3475536E-1,0E0,0E0,0E0,0E0,0E0],"parents":[2147483647,0,0,1,1,3,3,4,4,5,5,6,6,9,9,11,11],"right_children":[2,4,-1,6,8,10,12,-1,-1,14,-1,16,-1,-1,-1,-1,-1],"split_conditions":[6.4E1,6.2E-1,3.245526E-2,4.0384614E-1,2.5E1,5E0,2.3E1,4.7754012E-5,-5.074464E-2,5.82E2,1.912568E-2,4.6E2,4.517717E-2,-5.4837532E-2,8.64304E-3,1.6358955E-2,-1.974579E-2],"split_indices":[0,6,0,6,11,8,11,0,0,14,0,14,0,0,0,0,0],"split_type":[0,0,0,0,0,0,0,0,0,0,0,0,0,0,0,0,0],"sum_hessian":[1.1421463E1,1.0220814E1,1.2006494E0,7.7468085E0,2.4740052E0,4.267895E0,3.4789133E0,1.3013338E0,1.1726716E0,2.7753356E0,1.4925596E0,2.1439195E0,1.334994E0,1.379903E0,1.3954327E0,1.1277542E0,1.0161651E0],"tree_param":{"num_deleted":"0","num_feature":"15","num_nodes":"17","size_leaf_vector":"1"}},{"base_weights":[-6.198444E-4,-9.678676E-2,2.0965058E-1,-2.9694638E-1,6.15301E-2,4.059654E-2,-1.5806736E-2,-4.699684E-2,1.0987397E-2,-1.4339685E-1,4.6130713E-2,3.8641717E-2,-4.1360334E-1,-5.2984007E-2,-7.5269155E-3],"categories":[],"categories_nodes":[],"categories_segments":[],"categories_sizes":[],"default_left":[0,0,0,0,0,0,0,0,0,0,0,0,0,0,0],"id":52,"left_children":[1,3,5,7,9,-1,-1,-1,-1,11,-1,-1,13,-1,-1],"loss_changes":[2.6990962E-1,3.0836967E-1,3.6662638E-1,3.4830424E-1,5.5278224E-1,0E0,0E0,0E0,0E0,8.312182E-1,0E0,0E0,1.0125804E-1,0E0,0E0],"parents":[2147483647,0,0,1,1,2,2,3,3,4,4,9,9,12,12],"right_children":[2,4,6,8,10,-1,-1,-1,-1,12,-1,-1,14,-1,-1],"split_conditions":[2E0,2.54E2,2.5E1,1.9E1,2.1E1,4.059654E-2,-1.5806736E-2,-4.699684E-2,1.0987397E-2,8.611111E-1,4.6130713E-2,3.8641717E-2,4.0384614E-1,-5.2984007E-2,-7.5269155E-3],"split_indices":[3,14,11,7,2,0,0,0,0,4,0,0,6,0,0],"split_type":[0,0,0,0,0,0,0,0,0,0,0,0,0,0,0],"sum_hessian":[1.1344469E1,8.154653E0,3.189817E0,3.2146862E0,4.939966E0,2.0117722E0,1.1780448E0,2.146535E0,1.0681515E0,3.689847E0,1.2501193E0,1.1009841E0,2.588863E0,1.5055844E0,1.0832785E0],"tree_param":{"num_deleted":"0","num_feature":"15","num_nodes":"15","size_leaf_vector":"1"}},{"base_weights":[4.444783E-4,1.6545591E-1,-1.2550342E-1,-8.261576E-2,4.750901E-2,-3.7384507E-1,4.907992E-2,3.2779716E-2,-3.8037196E-2,-6.0499873E-2,3.4803671E-3,2.1885054E-1,-2.5346208E-2,-2.043256E-2,5.5851694E-2],"categories":[],"categories_nodes":[],"categories_segments":[],"categories_sizes":[],"default_left":[0,0,0,0,0,0,0,0,0,0,0,0,0,0,0],"id":53,"left_children":[1,3,5,7,-1,9,11,-1,-1,-1,-1,13,-1,-1,-1],"loss_changes":[2.7453193E-1,4.7837117E-1,3.4323978E-1,6.1665326E-1,0E0,3.242156E-1,3.2687873E-1,0E0,0E0,0E0,0E0,6.7778015E-1,0E0,0E0,0E0],"parents":[2147483647,0,0,1,1,2,2,3,3,5,5,6,6,11,11],"right_children":[2,4,6,8,-1,10,12,-1,-1,-1,-1,14,-1,-1,-1],"split_conditions":[1.4E1,1E1,1.7E1,8.4210527E-1,4.750901E-2,4.3E1,2.7E1,3.2779716E-2,-3.8037196E-2,-6.0499873E-2,3.4803671E-3,1.4E1,-2.5346208E-2,-2.043256E-2,5.5851694E-2],"split_indices":[7,7,7,4,0,0,1,0,0,0,0,2,0,0,0],"split_type":[0,0,0,0,0,0,0,0,0,0,0,0,0,0,0],"sum_hessian":[1.1210392E1,4.7168703E0,6.493522E0,3.0258293E0,1.6910408E0,2.209373E0,4.2841496E0,1.2298172E0,1.7960123E0,1.1042589E0,1.1051141E0,2.9214265E0,1.3627229E0,1.4782227E0,1.4432038E0],"tree_param":{"num_deleted":"0","num_feature":"15","num_nodes":"15","size_leaf_vector":"1"}},{"base_weights":[-2.0772179E-5,-7.0070975E-2,2.7281681E-2,8.3576635E-2,-1.9043212E-1,-1.3259785E-1,3.8627602E-2,-4.5829825E-2,8.205763E-3,3.1028906E-2,-4.618966E-2,-2.7670396E-2,2.623615E-2],"categories":[],"categories_nodes":[],"categories_segments":[],"categories_sizes":[],"default_left":[0,0,0,0,0,0,0,0,0,0,0,0,0],"id":54,"left_children":[1,3,-1,5,7,9,-1,-1,11,-1,-1,-1,-1],"loss_changes":[2.499979E-1,2.0839198E-1,0E0,3.9585602E-1,3.3052197E-1,6.999969E-1,0E0,0E0,3.9907506E-1,0E0,0E0,0E0,0E0],"parents":[2147483647,0,0,1,1,3,3,4,4,5,5,8,8],"right_children":[2,4,-1,6,8,10,-1,-1,12,-1,-1,-1,-1],"split_conditions":[6E1,1.4E1,2.7281681E-2,1E1,1.7E1,8.4210527E-1,3.8627602E-2,-4.5829825E-2,1E0,3.1028906E-2,-4.618966E-2,-2.7670396E-2,2.623615E-2],"split_indices":[0,7,0,7,7,4,0,0,8,0,0,0,0],"split_type":[0,0,0,0,0,0,0,0,0,0,0,0,0],"sum_hessian":[1.1080234E1,9.4079485E0,1.6722847E0,4.266783E0,5.1411653E0,2.816974E0,1.4498093E0,1.6325043E0,3.508661E0,1.2259171E0,1.591057E0,1.6124166E0,1.8962443E0],"tree_param":{"num_deleted":"0","num_feature":"15","num_nodes":"13","size_leaf_vector":"1"}},{"base_weights":[1.6863021E-4,6.726358E-2,-2.7774055E-2,-1.6106899E-1,2.6039323E-1,4.6717957E-2,-4.642141E-2,3.7770894E-1,-1.557253E-2,-1.9661453E-2,2.2296207E-2,7.095501E-3,5.1373315E-1,1.0691575E-2,6.567624E-2],"categories":[],"categories_nodes":[],"categories_segments":[],"categories_sizes":[],"default_left":[0,0,0,0,0,0,0,0,0,0,0,0,0,0,0],"id":55,"left_children":[1,3,-1,5,7,9,-1,11,-1,-1,-1,-1,13,-1,-1],"loss_changes":[2.4195836E-1,5.02791E-1,0E0,3.62253E-1,3.5386682E-1,2.2037551E-1,0E0,1.7245531E-1,0E0,0E0,0E0,0E0,1.22282326E-1,0E0,0E0],"parents":[2147483647,0,0,1,1,3,3,4,4,5,5,7,7,12,12],"right_children":[2,4,-1,6,8,10,-1,12,-1,-1,-1,-1,14,-1,-1],"split_conditions":[6.825397E-1,4.0384614E-1,-2.7774055E-2,3.6363637E-1,1E0,2E0,-4.642141E-2,2.2E1,-1.557253E-2,-1.9661453E-2,2.2296207E-2,7.095501E-3,2.3E1,1.0691575E-2,6.567624E-2],"split_indices":[6,6,0,6,13,8,0,11,0,0,0,0,0,0,0],"split_type":[0,0,0,0,0,0,0,0,0,0,0,0,0,0,0],"sum_hessian":[1.0974309E1,9.450631E0,1.5236777E0,4.4067E0,5.0439305E0,3.1164548E0,1.2902452E0,4.0066466E0,1.0372839E0,1.2605242E0,1.8559308E0,1.6983229E0,2.3083239E0,1.0550264E0,1.2532974E0],"tree_param":{"num_deleted":"0","num_feature":"15","num_nodes":"15","size_leaf_vector":"1"}},{"base_weights":[-4.869972E-5,1.5441068E-1,-1.1944429E-1,-6.850663E-2,4.2532098E-2,3.8263373E-2,-4.0447786E-2,-4.3380413E-2,2.1152383E-2,-3.4810606E-2,2.656996E-1,5.0093602E-2,-1.1517098E-2],"categories":[],"categories_nodes":[],"categories_segments":[],"categories_sizes":[],"default_left":[0,0,0,0,0,0,0,0,0,0,0,0,0],"id":56,"left_children":[1,3,5,7,-1,9,-1,-1,-1,-1,11,-1,-1],"loss_changes":[2.375838E-1,3.6834204E-1,3.4209687E-1,4.9506956E-1,0E0,5.8382916E-1,0E0,0E0,0E0,0E0,4.238394E-1,0E0,0E0],"parents":[2147483647,0,0,1,1,2,2,3,3,5,5,10,10],"right_children":[2,4,6,8,-1,10,-1,-1,-1,-1,12,-1,-1],"split_conditions":[1.4E1,1E1,5E0,2.5E2,4.2532098E-2,9.064748E-1,-4.0447786E-2,-4.3380413E-2,2.1152383E-2,-3.4810606E-2,8.57E2,5.0093602E-2,-1.1517098E-2],"split_indices":[7,7,8,14,0,4,0,0,0,0,14,0,0],"split_type":[0,0,0,0,0,0,0,0,0,0,0,0,0],"sum_hessian":[1.0882827E1,4.616847E0,6.2659802E0,2.9426363E0,1.6742105E0,4.591361E0,1.6746188E0,1.0386256E0,1.9040107E0,1.5046653E0,3.086696E0,1.7132839E0,1.3734121E0],"tree_param":{"num_deleted":"0","num_feature":"15","num_nodes":"13","size_leaf_vector":"1"}},{"base_weights":[-1.4512985E-3,-1.3746916E-1,1.2936991E-1,-2.3033488E-1,1.228249E-2,3.619779E-2,-3.730138E-2,-5.1461704E-2,-5.304073E-3,2.0023258E-1,-3.475944E-2,3.1034572E-2,-3.0780906E-2,-6.3228975E-3,3.6450703E-2],"categories":[],"categories_nodes":[],"categories_segments":[],"categories_sizes":[],"default_left":[0,0,0,0,0,0,0,0,0,0,0,0,0,0,0],"id":57,"left_children":[1,3,5,7,-1,-1,9,-1,11,13,-1,-1,-1,-1,-1],"loss_changes":[2.280184E-1,1.800261E-1,2.6696116E-1,3.154918E-1,0E0,0E0,4.171355E-1,0E0,4.5712614E-1,1.6609772E-1,0E0,0E0,0E0,0E0,0E0],"parents":[2147483647,0,0,1,1,2,2,3,3,6,6,8,8,9,9],"right_children":[2,4,6,8,-1,-1,10,-1,12,14,-1,-1,-1,-1,-1],"split_conditions":[1.4E1,3.1E1,2.8E1,3.043478E-1,1.228249E-2,3.619779E-2,1.9E1,-5.1461704E-2,8E0,6E1,-3.475944E-2,3.1034572E-2,-3.0780906E-2,-6.3228975E-3,3.6450703E-2],"split_indices":[2,11,2,6,0,0,7,0,1,0,0,0,0,0,0],"split_type":[0,0,0,0,0,0,0,0,0,0,0,0,0,0,0],"sum_hessian":[1.081487E1,5.2772126E0,5.5376573E0,3.974366E0,1.3028466E0,1.8224387E0,3.7152185E0,1.1874201E0,2.7869458E0,2.3052292E0,1.4099894E0,1.3511572E0,1.4357885E0,1.1215696E0,1.1836594E0],"tree_param":{"num_deleted":"0","num_feature":"15","num_nodes":"15","size_leaf_vector":"1"}},{"base_weights":[-2.0061699E-3,6.425839E-2,-2.7223721E-2,-1.5011379E-1,2.4634126E-1,4.9601402E-2,-4.3971386E-2,3.5840794E-1,-1.4850162E-2,-1.7479321E-2,2.094598E-2,2.4329366E-3,4.620305E-2],"categories":[],"categories_nodes":[],"categories_segments":[],"categories_sizes":[],"default_left":[0,0,0,0,0,0,0,0,0,0,0,0,0],"id":58,"left_children":[1,3,-1,5,7,9,-1,11,-1,-1,-1,-1,-1],"loss_changes":[2.2740397E-1,4.360194E-1,0E0,3.2930714E-1,3.1457734E-1,1.8171988E-1,0E0,1.5816694E-1,0E0,0E0,0E0,0E0,0E0],"parents":[2147483647,0,0,1,1,3,3,4,4,5,5,7,7],"right_children":[2,4,-1,6,8,10,-1,12,-1,-1,-1,-1,-1],"split_conditions":[6.825397E-1,4.0384614E-1,-2.7223721E-2,3.6363637E-1,1E0,2E0,-4.3971386E-2,8.75E-1,-1.4850162E-2,-1.7479321E-2,2.094598E-2,2.4329366E-3,4.620305E-2],"split_indices":[6,6,0,6,13,8,0,4,0,0,0,0,0],"split_type":[0,0,0,0,0,0,0,0,0,0,0,0,0],"sum_hessian":[1.0722425E1,9.223018E0,1.4994078E0,4.3165617E0,4.906456E0,3.0452251E0,1.2713364E0,3.8936222E0,1.0128341E0,1.2280189E0,1.8172063E0,1.2141141E0,2.679508E0],"tree_param":{"num_deleted":"0","num_feature":"15","num_nodes":"13","size_leaf_vector":"1"}},{"base_weights":[-4.7215074E-3,-1.4765784E-1,1.1525782E-1,3.156134E-2,-4.019153E-2,4.2381614E-2,-3.2957233E-2,-2.1132648E-2,2.430285E-2,2.697209E-2,-2.1878481E-1,9.067636E-3,-4.193839E-2],"categories":[],"categories_nodes":[],"categories_segments":[],"categories_sizes":[],"default_left":[0,0,0,0,0,0,0,0,0,0,0,0,0],"id":59,"left_children":[1,3,5,7,-1,-1,9,-1,-1,-1,11,-1,-1],"loss_changes":[2.1696746E-1,2.751087E-1,3.29537E-1,2.7248228E-1,0E0,0E0,3.7337437E-1,0E0,0E0,0E0,2.8727818E-1,0E0,0E0],"parents":[2147483647,0,0,1,1,2,2,3,3,6,6,10,10],"right_children":[2,4,6,8,-1,-1,10,-1,-1,-1,12,-1,-1],"split_conditions":[2.3E1,1.6E1,1.4E1,4E0,-4.019153E-2,4.2381614E-2,2.8E1,-2.1132648E-2,2.430285E-2,2.697209E-2,3E0,9.067636E-3,-4.193839E-2],"split_indices":[0,0,7,8,0,0,2,0,0,0,8,0,0],"split_type":[0,0,0,0,0,0,0,0,0,0,0,0,0],"sum_hessian":[1.0659224E1,4.758971E0,5.900253E0,3.3051379E0,1.4538332E0,1.3111649E0,4.589088E0,1.538596E0,1.7665417E0,1.5739545E0,3.0151334E0,1.4013162E0,1.6138172E0],"tree_param":{"num_deleted":"0","num_feature":"15","num_nodes":"13","size_leaf_vector":"1"}},{"base_weights":[-4.3606046E-3,-6.987087E-2,2.562662E-2,1.52787715E-2,-1.3767733E-1,1.4373848E-1,-3.961911E-1,3.5435718E-1,-2.8178463E-2,-6.1401684E-2,-7.3929424E-3,6.045697E-2,-2.8151637E-3],"categories":[],"categories_nodes":[],"categories_segments":[],"categories_sizes":[],"default_left":[0,0,0,0,0,0,0,0,0,0,0,0,0],"id":60,"left_children":[1,3,-1,-1,5,7,9,11,-1,-1,-1,-1,-1],"loss_changes":[2.1540467E-1,1.724603E-1,0E0,0E0,6.5454036E-1,5.1810044E-1,2.7383357E-1,3.5818213E-1,0E0,0E0,0E0,0E0,0E0],"parents":[2147483647,0,0,1,1,4,4,5,5,6,6,7,7],"right_children":[2,4,-1,-1,6,8,10,12,-1,-1,-1,-1,-1],"split_conditions":[6E1,8.2857144E-1,2.562662E-2,1.52787715E-2,6.54E2,1E0,2.3E1,1.3E1,-2.8178463E-2,-6.1401684E-2,-7.3929424E-3,6.045697E-2,-2.8151637E-3],"split_indices":[0,4,0,0,14,13,0,1,0,0,0,0,0],"split_type":[0,0,0,0,0,0,0,0,0,0,0,0,0],"sum_hessian":[1.0567427E1,9.029672E0,1.537755E0,1.8153265E0,7.2143455E0,3.6667428E0,3.5476027E0,2.5646007E0,1.1021422E0,1.5765989E0,1.9710039E0,1.1994562E0,1.3651444E0],"tree_param":{"num_deleted":"0","num_feature":"15","num_nodes":"13","size_leaf_vector":"1"}},{"base_weights":[-3.9973236E-3,-9.0911314E-2,1.8833478E-1,-2.607286E-1,7.7040784E-2,3.6808457E-2,-1.4260908E-2,3.8067703E-3,-4.5962878E-2,-1.0312351E-1,3.893202E-2,2.1091346E-2,-3.2564625E-2],"categories":[],"categories_nodes":[],"categories_segments":[],"categories_sizes":[],"default_left":[0,0,0,0,0,0,0,0,0,0,0,0,0],"id":61,"left_children":[1,3,5,7,9,-1,-1,-1,-1,11,-1,-1,-1],"loss_changes":[2.0878834E-1,2.6455808E-1,2.841492E-1,2.8435296E-1,3.2603392E-1,0E0,0E0,0E0,0E0,3.4910604E-1,0E0,0E0,0E0],"parents":[2147483647,0,0,1,1,2,2,3,3,4,4,9,9],"right_children":[2,4,6,8,10,-1,-1,-1,-1,12,-1,-1,-1],"split_conditions":[2E0,3.74E2,2.5E1,8E0,2.1E1,3.6808457E-2,-1.4260908E-2,3.8067703E-3,-4.5962878E-2,9.4285715E-1,3.893202E-2,2.1091346E-2,-3.2564625E-2],"split_indices":[3,14,11,1,2,0,0,0,0,4,0,0,0],"split_type":[0,0,0,0,0,0,0,0,0,0,0,0,0],"sum_hessian":[1.0465815E1,7.5715756E0,2.8942392E0,3.4902084E0,4.081367E0,1.8028222E0,1.091417E0,1.7179859E0,1.7722225E0,3.0128984E0,1.0684686E0,1.2711498E0,1.7417487E0],"tree_param":{"num_deleted":"0","num_feature":"15","num_nodes":"13","size_leaf_vector":"1"}},{"base_weights":[-2.9500872E-3,1.4114174E-1,-1.14181235E-1,-6.550583E-2,3.9239828E-2,-3.5577435E-2,5.326248E-2,-4.2197287E-2,2.1309612E-2,2.3537104E-1,-2.037347E-2,-6.3672955E-3,4.1078072E-2],"categories":[],"categories_nodes":[],"categories_segments":[],"categories_sizes":[],"default_left":[0,0,0,0,0,0,0,0,0,0,0,0,0],"id":62,"left_children":[1,3,5,7,-1,-1,9,-1,-1,11,-1,-1,-1],"loss_changes":[1.9845037E-1,3.0625212E-1,3.0103233E-1,4.694719E-1,0E0,0E0,2.814148E-1,0E0,0E0,2.036392E-1,0E0,0E0,0E0],"parents":[2147483647,0,0,1,1,2,2,3,3,6,6,9,9],"right_children":[2,4,6,8,-1,-1,10,-1,-1,12,-1,-1,-1],"split_conditions":[1.4E1,1E1,1.7E1,2.5E2,3.9239828E-2,-3.5577435E-2,8.46E2,-4.2197287E-2,2.1309612E-2,4.730392E-1,-2.037347E-2,-6.3672955E-3,4.1078072E-2],"split_indices":[7,7,7,14,0,0,14,0,0,6,0,0,0],"split_type":[0,0,0,0,0,0,0,0,0,0,0,0,0],"sum_hessian":[1.0376361E1,4.403301E0,5.97306E0,2.8217888E0,1.581512E0,1.9847131E0,3.9883468E0,1.0121498E0,1.809639E0,2.383526E0,1.6048207E0,1.1167165E0,1.2668097E0],"tree_param":{"num_deleted":"0","num_feature":"15","num_nodes":"13","size_leaf_vector":"1"}},{"base_weights":[-2.9467107E-3,6.2443E-2,-2.670737E-2,-1.4330551E-1,2.3782554E-1,4.1051716E-2,-4.0853973E-2,3.8617557E-1,-4.069639E-3,-1.6028427E-2,1.8694008E-2,5.6661148E-2,-4.361073E-3],"categories":[],"categories_nodes":[],"categories_segments":[],"categories_sizes":[],"default_left":[0,0,0,0,0,0,0,0,0,0,0,0,0],"id":63,"left_children":[1,3,-1,5,7,9,-1,11,-1,-1,-1,-1,-1],"loss_changes":[2.122955E-1,3.909303E-1,0E0,2.698002E-1,2.5183392E-1,1.4632145E-1,0E0,3.2125103E-1,0E0,0E0,0E0,0E0,0E0],"parents":[2147483647,0,0,1,1,3,3,4,4,5,5,7,7],"right_children":[2,4,-1,6,8,10,-1,12,-1,-1,-1,-1,-1],"split_conditions":[6.825397E-1,4.0384614E-1,-2.670737E-2,3.6363637E-1,8.46E2,2E0,-4.0853973E-2,5E0,-4.069639E-3,-1.6028427E-2,1.8694008E-2,5.6661148E-2,-4.361073E-3],"split_indices":[6,6,0,6,14,8,0,8,0,0,0,0,0],"split_type":[0,0,0,0,0,0,0,0,0,0,0,0,0],"sum_hessian":[1.0326299E1,8.8891945E0,1.4371037E0,4.1746445E0,4.7145505E0,2.9614465E0,1.2131978E0,2.8239195E0,1.8906308E0,1.2028093E0,1.7586371E0,1.7646961E0,1.0592233E0],"tree_param":{"num_deleted":"0","num_feature":"15","num_nodes":"13","size_leaf_vector":"1"}},{"base_weights":[-4.116398E-3,-1.6017522E-1,1.04743116E-1,1.2003004E-2,-2.7916712E-1,-1.2198866E-1,3.0391118E-1,1.0092808E-2,-5.2899834E-2,-2.6319442E-2,1.2600821E-2,4.7365684E-2,-4.7667623E-3],"categories":[],"categories_nodes":[],"categories_segments":[],"categories_sizes":[],"default_left":[0,0,0,0,0,0,0,0,0,0,0,0,0],"id":64,"left_children":[1,3,5,-1,7,9,11,-1,-1,-1,-1,-1,-1],"loss_changes":[2.0817778E-1,2.010518E-1,3.6408398E-1,0E0,4.168789E-1,1.7674084E-1,2.6973936E-1,0E0,0E0,0E0,0E0,0E0,0E0],"parents":[2147483647,0,0,1,1,2,2,4,4,5,5,6,6],"right_children":[2,4,6,-1,8,10,12,-1,-1,-1,-1,-1,-1],"split_conditions":[2.1E1,2.46E2,2.2E1,1.2003004E-2,8.611111E-1,2E0,6.2E-1,1.0092808E-2,-5.2899834E-2,-2.6319442E-2,1.2600821E-2,4.7365684E-2,-4.7667623E-3],"split_indices":[0,14,11,0,4,3,6,0,0,0,0,0,0],"split_type":[0,0,0,0,0,0,0,0,0,0,0,0,0],"sum_hessian":[1.0266484E1,4.0249715E0,6.241513E0,1.1971551E0,2.8278165E0,3.0999997E0,3.1415129E0,1.3579046E0,1.4699119E0,1.9362477E0,1.1637521E0,1.8844527E0,1.2570603E0],"tree_param":{"num_deleted":"0","num_feature":"15","num_nodes":"13","size_leaf_vector":"1"}},{"base_weights":[-3.9659734E-3,-1.3196461E-1,1.2284173E-1,-2.1945009E-1,1.1024074E-2,3.523859E-2,-4.2647317E-2,-4.8864212E-2,-4.563928E-3,1.7995359E-1,-3.1944808E-2,2.8552195E-2,-2.901339E-2,-5.680788E-3,3.286796E-2],"categories":[],"categories_nodes":[],"categories_segments":[],"categories_sizes":[],"default_left":[0,0,0,0,0,0,0,0,0,0,0,0,0,0,0],"id":65,"left_children":[1,3,5,7,-1,-1,9,-1,11,13,-1,-1,-1,-1,-1],"loss_changes":[1.9752118E-1,1.5220276E-1,2.4786022E-1,2.7383995E-1,0E0,0E0,3.31899E-1,0E0,3.8631457E-1,1.28117E-1,0E0,0E0,0E0,0E0,0E0],"parents":[2147483647,0,0,1,1,2,2,3,3,6,6,8,8,9,9],"right_children":[2,4,6,8,-1,-1,10,-1,12,14,-1,-1,-1,-1,-1],"split_conditions":[1.4E1,3.1E1,2.8E1,3.043478E-1,1.1024074E-2,3.523859E-2,1.9E1,-4.8864212E-2,8E0,6E1,-3.1944808E-2,2.8552195E-2,-2.901339E-2,-5.680788E-3,3.286796E-2],"split_indices":[2,11,2,6,0,0,7,0,1,0,0,0,0,0,0],"split_type":[0,0,0,0,0,0,0,0,0,0,0,0,0,0,0],"sum_hessian":[1.0170479E1,5.0412335E0,5.1292458E0,3.7725313E0,1.2687021E0,1.6756494E0,3.4535964E0,1.1091365E0,2.6633947E0,2.108133E0,1.3454632E0,1.3213338E0,1.3420608E0,1.0517912E0,1.0563419E0],"tree_param":{"num_deleted":"0","num_feature":"15","num_nodes":"15","size_leaf_vector":"1"}},{"base_weights":[-4.360131E-3,5.7580043E-2,-2.5152752E-2,-1.3277301E-1,2.199348E-1,4.4193875E-2,-3.870181E-2,3.5807565E-1,-3.958616E-3,-1.5302901E-2,1.864526E-2,5.327592E-2,-4.822305E-3],"categories":[],"categories_nodes":[],"categories_segments":[],"categories_sizes":[],"default_left":[0,0,0,0,0,0,0,0,0,0,0,0,0],"id":66,"left_children":[1,3,-1,5,7,9,-1,11,-1,-1,-1,-1,-1],"loss_changes":[1.8422845E-1,3.2834327E-1,0E0,2.4562845E-1,2.1495044E-1,1.3773459E-1,0E0,2.9215792E-1,0E0,0E0,0E0,0E0,0E0],"parents":[2147483647,0,0,1,1,3,3,4,4,5,5,7,7],"right_children":[2,4,-1,6,8,10,-1,12,-1,-1,-1,-1,-1],"split_conditions":[6.825397E-1,4.0384614E-1,-2.5152752E-2,3.6363637E-1,8.46E2,2E0,-3.870181E-2,5E0,-3.958616E-3,-1.5302901E-2,1.864526E-2,5.327592E-2,-4.822305E-3],"split_indices":[6,6,0,6,14,8,0,8,0,0,0,0,0],"split_type":[0,0,0,0,0,0,0,0,0,0,0,0,0],"sum_hessian":[1.0087525E1,8.679485E0,1.4080397E0,4.07912E0,4.600365E0,2.892191E0,1.186929E0,2.7544422E0,1.8459231E0,1.180238E0,1.7119529E0,1.7085993E0,1.045843E0],"tree_param":{"num_deleted":"0","num_feature":"15","num_nodes":"13","size_leaf_vector":"1"}},{"base_weights":[-5.374509E-3,-1.5403388E-1,9.9233784E-2,1.01273805E-2,-2.6321948E-1,-1.1032623E-1,2.8310162E-1,1.001416E-2,-5.0797384E-2,-2.4305942E-2,1.2078803E-2,4.4851463E-2,-4.9339114E-3],"categories":[],"categories_nodes":[],"categories_segments":[],"categories_sizes":[],"default_left":[0,0,0,0,0,0,0,0,0,0,0,0,0],"id":67,"left_children":[1,3,5,-1,7,9,11,-1,-1,-1,-1,-1,-1],"loss_changes":[1.8686405E-1,1.6461353E-1,3.0420285E-1,0E0,3.8386673E-1,1.5299836E-1,2.45054E-1,0E0,0E0,0E0,0E0,0E0,0E0],"parents":[2147483647,0,0,1,1,2,2,4,4,5,5,6,6],"right_children":[2,4,6,-1,8,10,12,-1,-1,-1,-1,-1,-1],"split_conditions":[2.1E1,2.46E2,2.2E1,1.01273805E-2,8.611111E-1,2E0,6.2E-1,1.001416E-2,-5.0797384E-2,-2.4305942E-2,1.2078803E-2,4.4851463E-2,-4.9339114E-3],"split_indices":[0,14,11,0,4,3,6,0,0,0,0,0,0],"split_type":[0,0,0,0,0,0,0,0,0,0,0,0,0],"sum_hessian":[1.0033286E1,3.9489417E0,6.0843444E0,1.2046292E0,2.7443125E0,3.0304332E0,3.0539112E0,1.342336E0,1.4019765E0,1.8920875E0,1.1383457E0,1.8060937E0,1.2478174E0],"tree_param":{"num_deleted":"0","num_feature":"15","num_nodes":"13","size_leaf_vector":"1"}},{"base_weights":[-5.201675E-3,1.3903354E-1,-1.16758235E-1,-5.834094E-2,3.775009E-2,-3.4294244E-2,4.2829186E-2,2.845727E-2,-3.1961463E-2,1.9453251E-1,-2.3111878E-2,-1.9698795E-2,5.1723786E-2],"categories":[],"categories_nodes":[],"categories_segments":[],"categories_sizes":[],"default_left":[0,0,0,0,0,0,0,0,0,0,0,0,0],"id":68,"left_children":[1,3,5,7,-1,-1,9,-1,-1,11,-1,-1,-1],"loss_changes":[1.923416E-1,2.6817638E-1,2.5707892E-1,4.2492366E-1,0E0,0E0,2.4553037E-1,0E0,0E0,5.629368E-1,0E0,0E0,0E0],"parents":[2147483647,0,0,1,1,2,2,3,3,6,6,9,9],"right_children":[2,4,6,8,-1,-1,10,-1,-1,12,-1,-1,-1],"split_conditions":[1.4E1,1E1,1.7E1,8.4210527E-1,3.775009E-2,-3.4294244E-2,2.7E1,2.845727E-2,-3.1961463E-2,1.4E1,-2.3111878E-2,-1.9698795E-2,5.1723786E-2],"split_indices":[7,7,7,4,0,0,1,0,0,2,0,0,0],"split_type":[0,0,0,0,0,0,0,0,0,0,0,0,0],"sum_hessian":[9.94494E0,4.229793E0,5.7151465E0,2.7275813E0,1.5022119E0,1.8889685E0,3.826178E0,1.1409478E0,1.5866334E0,2.6490915E0,1.1770868E0,1.3729459E0,1.2761455E0],"tree_param":{"num_deleted":"0","num_feature":"15","num_nodes":"13","size_leaf_vector":"1"}},{"base_weights":[-3.875702E-3,-1.2712498E-1,1.2005242E-1,1.3198015E-2,-2.9889975E-2,3.3669647E-2,-3.6997426E-2,-1.9053914E-2,1.7867861E-2,1.7446744E-1,-2.9939288E-2,-5.185145E-3,3.151816E-2],"categories":[],"categories_nodes":[],"categories_segments":[],"categories_sizes":[],"default_left":[0,0,0,0,0,0,0,0,0,0,0,0,0],"id":69,"left_children":[1,3,5,7,-1,-1,9,-1,-1,11,-1,-1,-1],"loss_changes":[1.8102077E-1,1.4680329E-1,2.1406806E-1,1.7631152E-1,0E0,0E0,2.9284257E-1,0E0,0E0,1.1293177E-1,0E0,0E0,0E0],"parents":[2147483647,0,0,1,1,2,2,3,3,6,6,9,9],"right_children":[2,4,6,8,-1,-1,10,-1,-1,12,-1,-1,-1],"split_conditions":[1.4E1,1.4E1,2.8E1,3.35E2,-2.9889975E-2,3.3669647E-2,1.9E1,-1.9053914E-2,1.7867861E-2,6E1,-2.9939288E-2,-5.185145E-3,3.151816E-2],"split_indices":[2,7,2,14,0,0,7,0,0,0,0,0,0],"split_type":[0,0,0,0,0,0,0,0,0,0,0,0,0],"sum_hessian":[9.852334E0,4.9267626E0,4.925572E0,3.2197292E0,1.7070336E0,1.5893052E0,3.3362665E0,1.375189E0,1.8445402E0,2.0329814E0,1.3032851E0,1.0215211E0,1.0114602E0],"tree_param":{"num_deleted":"0","num_feature":"15","num_nodes":"13","size_leaf_vector":"1"}},{"base_weights":[-3.6111954E-3,-1.4403984E-1,9.4955355E-2,1.07845655E-2,-2.5523463E-1,-1.023552E-1,2.690937E-1,8.720098E-3,-4.8765704E-2,-2.2593986E-2,1.1248193E-2,4.280555E-2,-4.680756E-3],"categories":[],"categories_nodes":[],"categories_segments":[],"categories_sizes":[],"default_left":[0,0,0,0,0,0,0,0,0,0,0,0,0],"id":70,"left_children":[1,3,5,-1,7,9,11,-1,-1,-1,-1,-1,-1],"loss_changes":[1.6288014E-1,1.631684E-1,2.658732E-1,0E0,3.335671E-1,1.3098681E-1,2.188982E-1,0E0,0E0,0E0,0E0,0E0,0E0],"parents":[2147483647,0,0,1,1,2,2,4,4,5,5,6,6],"right_children":[2,4,6,-1,8,10,12,-1,-1,-1,-1,-1,-1],"split_conditions":[2.1E1,2.46E2,2.2E1,1.07845655E-2,8.611111E-1,2E0,6.2E-1,8.720098E-3,-4.8765704E-2,-2.2593986E-2,1.1248193E-2,4.280555E-2,-4.680756E-3],"split_indices":[0,14,11,0,4,3,6,0,0,0,0,0,0],"split_type":[0,0,0,0,0,0,0,0,0,0,0,0,0],"sum_hessian":[9.779328E0,3.8429277E0,5.9364E0,1.1861362E0,2.6567917E0,2.976286E0,2.9601142E0,1.3267959E0,1.3299956E0,1.8566002E0,1.1196856E0,1.7330252E0,1.227089E0],"tree_param":{"num_deleted":"0","num_feature":"15","num_nodes":"13","size_leaf_vector":"1"}},{"base_weights":[-3.556844E-3,1.3168608E-1,-1.0934504E-1,-1.4816955E-2,2.8859162E-1,-3.2892376E-2,4.634644E-2,4.7749266E-2,-3.3622254E-3,2.5045488E-2,-1.5002817E-1,1.1079385E-3,-2.3655033E-2],"categories":[],"categories_nodes":[],"categories_segments":[],"categories_sizes":[],"default_left":[0,0,0,0,0,0,0,0,0,0,0,0,0],"id":71,"left_children":[1,3,5,-1,7,-1,9,-1,-1,-1,11,-1,-1],"loss_changes":[1.6747172E-1,2.6887769E-1,2.3915258E-1,0E0,2.3753363E-1,0E0,2.2631249E-1,0E0,0E0,0E0,4.479099E-2,0E0,0E0],"parents":[2147483647,0,0,1,1,2,2,4,4,6,6,10,10],"right_children":[2,4,6,-1,8,-1,10,-1,-1,-1,12,-1,-1],"split_conditions":[1.4E1,2.5E2,1.7E1,-1.4816955E-2,8.717949E-1,-3.2892376E-2,2.1E1,4.7749266E-2,-3.3622254E-3,2.5045488E-2,3.8E1,1.1079385E-3,-2.3655033E-2],"split_indices":[7,14,7,0,4,0,7,0,0,0,0,0,0],"split_type":[0,0,0,0,0,0,0,0,0,0,0,0,0],"sum_hessian":[9.699055E0,4.149454E0,5.5496006E0,1.5106846E0,2.6387696E0,1.8407891E0,3.7088118E0,1.3597127E0,1.2790569E0,1.6835574E0,2.0252542E0,1.0122863E0,1.012968E0],"tree_param":{"num_deleted":"0","num_feature":"15","num_nodes":"13","size_leaf_vector":"1"}},{"base_weights":[-3.2929848E-3,-1.2724543E-1,1.2197477E-1,8.479363E-3,-2.9176494E-2,3.2491684E-2,-2.7784584E-2,-1.5749257E-2,1.9012684E-2,1.7198509E-2,-2.7673101E-2],"categories":[],"categories_nodes":[],"categories_segments":[],"categories_sizes":[],"default_left":[0,0,0,0,0,0,0,0,0,0,0],"id":72,"left_children":[1,3,5,7,-1,-1,9,-1,-1,-1,-1],"loss_changes":[1.8100052E-1,1.3301688E-1,1.8564266E-1,1.5581962E-1,0E0,0E0,2.596962E-1,0E0,0E0,0E0,0E0],"parents":[2147483647,0,0,1,1,2,2,3,3,6,6],"right_children":[2,4,6,8,-1,-1,10,-1,-1,-1,-1],"split_conditions":[1.4E1,1.4E1,2.8E1,5E0,-2.9176494E-2,3.2491684E-2,1.9E1,-1.5749257E-2,1.9012684E-2,1.7198509E-2,-2.7673101E-2],"split_indices":[2,7,2,8,0,0,7,0,0,0,0],"split_type":[0,0,0,0,0,0,0,0,0,0,0],"sum_hessian":[9.657383E0,4.8462405E0,4.8111424E0,3.1752186E0,1.6710218E0,1.546226E0,3.2649164E0,1.7286876E0,1.4465309E0,1.9828811E0,1.2820354E0],"tree_param":{"num_deleted":"0","num_feature":"15","num_nodes":"11","size_leaf_vector":"1"}},{"base_weights":[-3.3713826E-3,-1.4026815E-1,9.741847E-2,2.1975523E-2,-3.6265578E-2,2.712336E-1,-1.6174982E-1,-1.6339105E-2,1.7891431E-2,3.924352E-2,-9.1597944E-4,1.6431648E-2,-4.5532554E-2],"categories":[],"categories_nodes":[],"categories_segments":[],"categories_sizes":[],"default_left":[0,0,0,0,0,0,0,0,0,0,0,0,0],"id":73,"left_children":[1,3,5,7,-1,9,11,-1,-1,-1,-1,-1,-1],"loss_changes":[1.5981461E-1,1.8481891E-1,3.4527504E-1,1.3910492E-1,0E0,1.5239218E-1,3.9189342E-1,0E0,0E0,0E0,0E0,0E0,0E0],"parents":[2147483647,0,0,1,1,2,2,3,3,5,5,6,6],"right_children":[2,4,6,8,-1,10,12,-1,-1,-1,-1,-1,-1],"split_conditions":[4.0384614E-1,3.6363637E-1,6.2E-1,3.59E2,-3.6265578E-2,8.46E2,2.5E1,-1.6339105E-2,1.7891431E-2,3.924352E-2,-9.1597944E-4,1.6431648E-2,-4.5532554E-2],"split_indices":[6,6,6,14,0,14,11,0,0,0,0,0,0],"split_type":[0,0,0,0,0,0,0,0,0,0,0,0,0],"sum_hessian":[9.5922575E0,3.9014559E0,5.690801E0,2.776809E0,1.1246469E0,3.3784432E0,2.312358E0,1.2542509E0,1.5225581E0,2.0798352E0,1.2986081E0,1.3041584E0,1.0081995E0],"tree_param":{"num_deleted":"0","num_feature":"15",