{"learner":{"attributes":{"scikit_learn":"{\"_estimator_type\": \"classifier\"}"},"feature_names":[],"feature_types":[],"gradient_booster":{"model":{"cats":{"enc":[],"feature_segments":[],"sorted_idx":[]},"gbtree_model_param":{"num_parallel_tree":"1","num_trees":"100"},"iteration_indptr":[0,1,2,3,4,5,6,7,8,9,10,11,12,13,14,15,16,17,18,19,20,21,22,23,24,25,26,27,28,29,30,31,32,33,34,35,36,37,38,39,40,41,42,43,44,45,46,47,48,49,50,51,52,53,54,55,56,57,58,59,60,61,62,63,64,65,66,67,68,69,70,71,72,73,74,75,76,77,78,79,80,81,82,83,84,85,86,87,88,89,90,91,92,93,94,95,96,97,98,99,100],"tree_info":[0,0,0,0,0,0,0,0,0,0,0,0,0,0,0,0,0,0,0,0,0,0,0,0,0,0,0,0,0,0,0,0,0,0,0,0,0,0,0,0,0,0,0,0,0,0,0,0,0,0,0,0,0,0,0,0,0,0,0,0,0,0,0,0,0,0,0,0,0,0,0,0,0,0,0,0,0,0,0,0,0,0,0,0,0,0,0,0,0,0,0,0,0,0,0,0,0,0,0,0],"trees":[{"base_weights":[2.7861725E-8,-1.0031785E0,1.2843422E0,-1.1988884E-1,-1.2754465E0,7.9731303E-1,1.7868699E0,8.4913146E-1,-5.5668277E-1,-1.5975263E0,-4.965133E-1,1.29465E0,4.9786013E-1,8.801859E-1,2.0811386E-1,1.3576196E-1,3.7023071E-3,-5.0823588E-2,-1.0143033E0,-1.6737375E-1,-6.222313E-1,1.0972927E-1,-7.566856E-1,1.5730522E0,4.6281254E-1,2.3424444E-1,1.6472451E-1,1.1289288E0,-6.9011946E-4,-3.8757494E-1,8.281428E-2,-1.1981215E-1,-2.3769636E-2,3.7898064E-2,-1.16467975E-1,-1.2125062E-1,-3.1642884E-1,1.7324932E-1,5.7148278E-2,7.292281E-2,-7.0181577E-3,-5.900586E-1,6.9791716E-1,1.6472451E-1,3.3970994E-1,-6.850739E-2,3.7898064E-2,-8.609771E-2,1.4244209E-2,-1.0312597E-1,5.7148278E-2,1.2926196E-1,-2.5751267E-2,9.760723E-2,-5.193438E-2],"categories":[],"categories_nodes":[],"categories_segments":[],"categories_sizes":[],"default_left":[0,0,0,0,0,0,0,0,0,0,0,0,0,0,0,0,0,0,0,0,0,0,0,0,0,0,0,0,0,0,0,0,0,0,0,0,0,0,0,0,0,0,0,0,0,0,0,0,0,0,0,0,0,0,0],"id":0,"left_children":[1,3,5,7,9,11,13,15,17,19,21,23,25,27,-1,-1,-1,29,31,-1,33,-1,35,37,39,41,-1,43,-1,45,-1,-1,-1,-1,-1,-1,47,-1,-1,-1,-1,49,51,-1,53,-1,-1,-1,-1,-1,-1,-1,-1,-1,-1],"loss_changes":[1.5426468E2,1.6013847E1,1.142627E1,7.643932E0,1.2072136E1,3.5955467E0,4.8482513E0,2.2871008E0,2.791763E0,1.6216431E0,7.6524568E0,1.6052208E0,5.4909034E0,1.7438412E0,0E0,0E0,0E0,2.3593426E0,6.282706E-1,0E0,2.71622E0,0E0,2.5733824E0,1.488018E-1,6.1111605E-1,6.887456E0,0E0,1.9564686E0,0E0,1.5504344E0,0E0,0E0,0E0,0E0,0E0,0E0,2.3337421E0,0E0,0E0,0E0,0E0,3.992831E0,6.7543273E0,0E0,2.528505E0,0E0,0E0,0E0,0E0,0E0,0E0,0E0,0E0,0E0,0E0],"parents":[2147483647,0,0,1,1,2,2,3,3,4,4,5,5,6,6,7,7,8,8,9,9,10,10,11,11,12,12,13,13,17,17,18,18,20,20,22,22,23,23,24,24,25,25,27,27,29,29,36,36,41,41,42,42,44,44],"right_children":[2,4,6,8,10,12,14,16,18,20,22,24,26,28,-1,-1,-1,30,32,-1,34,-1,36,38,40,42,-1,44,-1,46,-1,-1,-1,-1,-1,-1,48,-1,-1,-1,-1,50,52,-1,54,-1,-1,-1,-1,-1,-1,-1,-1,-1,-1],"split_conditions":[3.6E1,1.2E1,3.4E1,8.684211E-1,2.2E1,2E0,6.4E1,8E0,4.73E2,4E0,1E0,2.4E1,5E0,1.031E3,2.0811386E-1,1.3576196E-1,3.7023071E-3,2.2E1,2.1E1,-1.6737375E-1,6.01E2,1.0972927E-1,1.6E1,2E1,3E0,4.4E1,1.6472451E-1,3E0,-6.9011946E-4,2.64E2,8.281428E-2,-1.1981215E-1,-2.3769636E-2,3.7898064E-2,-1.16467975E-1,-1.2125062E-1,9.6E-1,1.7324932E-1,5.7148278E-2,7.292281E-2,-7.0181577E-3,1.9E1,5.5E1,1.6472451E-1,3.7E1,-6.850739E-2,3.7898064E-2,-8.609771E-2,1.4244209E-2,-1.0312597E-1,5.7148278E-2,1.2926196E-1,-2.5751267E-2,9.760723E-2,-5.193438E-2],"split_indices":[0,5,1,3,0,6,0,5,12,6,6,9,6,12,0,0,0,9,0,0,12,0,5,5,2,0,0,6,0,12,0,0,0,0,0,0,3,0,0,0,0,5,0,0,1,0,0,0,0,0,0,0,0,0,0],"split_type":[0,0,0,0,0,0,0,0,0,0,0,0,0,0,0,0,0,0,0,0,0,0,0,0,0,0,0,0,0,0,0,0,0,0,0,0,0,0,0,0,0,0,0,0,0,0,0,0,0,0,0,0,0,0,0],"sum_hessian":[1.1773126E2,6.622383E1,5.1507427E1,1.5942775E1,5.028106E1,2.7470627E1,2.4036798E1,4.660196E0,1.1282579E1,3.482883E1,1.5452228E1,9.075118E0,1.839551E1,6.8676567E0,1.7169142E1,2.4527345E0,2.207461E0,5.886563E0,5.396016E0,3.1640276E1,3.188555E0,1.7169142E0,1.3735313E1,6.1318364E0,2.9432814E0,1.5942775E1,2.4527345E0,5.1507425E0,1.7169142E0,4.660196E0,1.2263672E0,3.9243753E0,1.4716407E0,1.2263672E0,1.9621876E0,5.886563E0,7.8487506E0,4.660196E0,1.4716407E0,1.7169142E0,1.2263672E0,5.6412897E0,1.0301485E1,2.4527345E0,2.698008E0,3.4338284E0,1.2263672E0,3.188555E0,4.660196E0,4.1696486E0,1.4716407E0,6.1318364E0,4.1696486E0,1.4716407E0,1.2263672E0],"tree_param":{"num_deleted":"0","num_feature":"13","num_nodes":"55","size_leaf_vector":"1"}},{"base_weights":[4.2032492E-3,-9.2434716E-1,1.1612761E0,-1.0599264E-1,-1.1811366E0,7.3114645E-1,1.6003551E0,7.834125E-1,-5.1317656E-1,-1.4866035E0,-4.5617208E-1,1.1818546E0,4.5766747E-1,8.134427E-1,1.8507476E-1,1.2478133E-1,3.4462311E-3,-3.852839E-2,-9.4826573E-1,-1.5580873E-1,-5.8368856E-1,1.0196366E-1,-7.019641E-1,1.3809524E0,3.2195013E-2,2.1350645E-1,1.5118894E-1,1.0416232E0,-6.4655574E-4,-3.5635313E-1,7.781133E-2,-1.1250754E-1,-2.1492826E-2,3.5709497E-2,-1.1022004E-1,-1.1291987E-1,-2.9425618E-1,1.516863E-1,4.7478076E-2,-5.43357E-1,6.328799E-1,1.5118894E-1,3.1720495E-1,-6.374764E-2,3.5709497E-2,-8.041593E-2,1.3049783E-2,-9.616427E-2,5.3507566E-2,1.16685085E-1,-2.3748858E-2,9.115659E-2,-4.9295455E-2],"categories":[],"categories_nodes":[],"categories_segments":[],"categories_sizes":[],"default_left":[0,0,0,0,0,0,0,0,0,0,0,0,0,0,0,0,0,0,0,0,0,0,0,0,0,0,0,0,0,0,0,0,0,0,0,0,0,0,0,0,0,0,0,0,0,0,0,0,0,0,0,0,0],"id":1,"left_children":[1,3,5,7,9,11,13,15,17,19,21,23,25,27,-1,-1,-1,29,31,-1,33,-1,35,37,-1,39,-1,41,-1,43,-1,-1,-1,-1,-1,-1,45,-1,-1,47,49,-1,51,-1,-1,-1,-1,-1,-1,-1,-1,-1,-1],"loss_changes":[1.2793957E2,1.3758305E1,8.842285E0,6.5144186E0,1.0436188E1,2.9869509E0,3.4979248E0,1.9382093E0,2.4791796E0,1.3410492E0,6.635989E0,1.2976675E0,4.6823134E0,1.4873033E0,0E0,0E0,0E0,2.059967E0,5.767927E-1,0E0,2.4213946E0,0E0,2.2078862E0,2.6006794E-1,0E0,5.7248144E0,0E0,1.6315627E0,0E0,1.3568455E0,0E0,0E0,0E0,0E0,0E0,0E0,2.014E0,0E0,0E0,3.4838018E0,5.5615087E0,0E0,2.2333548E0,0E0,0E0,0E0,0E0,0E0,0E0,0E0,0E0,0E0,0E0],"parents":[2147483647,0,0,1,1,2,2,3,3,4,4,5,5,6,6,7,7,8,8,9,9,10,10,11,11,12,12,13,13,17,17,18,18,20,20,22,22,23,23,25,25,27,27,29,29,36,36,39,39,40,40,42,42],"right_children":[2,4,6,8,10,12,14,16,18,20,22,24,26,28,-1,-1,-1,30,32,-1,34,-1,36,38,-1,40,-1,42,-1,44,-1,-1,-1,-1,-1,-1,46,-1,-1,48,50,-1,52,-1,-1,-1,-1,-1,-1,-1,-1,-1,-1],"split_conditions":[3.6E1,1.2E1,3.4E1,8.684211E-1,2.2E1,2E0,6.4E1,8E0,4.73E2,4E0,1E0,2.5E1,5E0,1.031E3,1.8507476E-1,1.2478133E-1,3.4462311E-3,2.2E1,1.4E1,-1.5580873E-1,6.01E2,1.0196366E-1,1.6E1,1E0,3.2195013E-2,4.4E1,1.5118894E-1,3E0,-6.4655574E-4,2.64E2,7.781133E-2,-1.1250754E-1,-2.1492826E-2,3.5709497E-2,-1.1022004E-1,-1.1291987E-1,9.6E-1,1.516863E-1,4.7478076E-2,1.9E1,5.5E1,1.5118894E-1,3.7E1,-6.374764E-2,3.5709497E-2,-8.041593E-2,1.3049783E-2,-9.616427E-2,5.3507566E-2,1.16685085E-1,-2.3748858E-2,9.115659E-2,-4.9295455E-2],"split_indices":[0,5,1,3,0,6,0,5,12,6,6,9,6,12,0,0,0,9,1,0,12,0,5,11,0,0,0,6,0,12,0,0,0,0,0,0,3,0,0,5,0,0,1,0,0,0,0,0,0,0,0,0,0],"split_type":[0,0,0,0,0,0,0,0,0,0,0,0,0,0,0,0,0,0,0,0,0,0,0,0,0,0,0,0,0,0,0,0,0,0,0,0,0,0,0,0,0,0,0,0,0,0,0,0,0,0,0,0,0],"sum_hessian":[1.1708087E2,6.5066315E1,5.201456E1,1.5877991E1,4.9188324E1,2.7621365E1,2.4393194E1,4.6961946E0,1.1181797E1,3.386752E1,1.53208065E1,9.176478E0,1.8444887E1,6.91379E0,1.7479403E1,2.487617E0,2.2085774E0,5.8683925E0,5.313404E0,3.071054E1,3.156978E0,1.7378516E0,1.3582954E1,6.9592366E0,2.2172418E0,1.5952715E1,2.4921725E0,5.197039E0,1.716751E0,4.630073E0,1.2383195E0,3.8507845E0,1.4626194E0,1.2323395E0,1.9246383E0,5.768525E0,7.8144293E0,5.4655685E0,1.4936681E0,5.5823464E0,1.0370368E1,2.4921725E0,2.704867E0,3.3977337E0,1.2323395E0,3.1453302E0,4.669099E0,4.100287E0,1.4820595E0,6.2161326E0,4.154236E0,1.4880291E0,1.2168378E0],"tree_param":{"num_deleted":"0","num_feature":"13","num_nodes":"53","size_leaf_vector":"1"}},{"base_weights":[7.457924E-3,-8.574064E-1,1.0610425E0,-9.387832E-2,-1.10226E0,6.730112E-1,1.4569883E0,7.257253E-1,-4.7427037E-1,-1.3967868E0,-4.205139E-1,9.410181E-1,2.8089756E-1,1.5707154E0,2.8917664E-1,1.1544893E-1,3.2079287E-3,-2.7781388E-2,-8.8943654E-1,-1.465316E-1,-5.493194E-1,9.5111825E-2,-6.531247E-1,1.2244608E0,3.0482382E-1,-2.1767907E-1,1.206074E0,1.7351757E-1,4.2955655E-1,-6.050063E-2,1.0484673E-1,-3.2798976E-1,7.3247835E-2,-1.0572974E-1,-2.0260332E-2,3.366105E-2,-1.04704574E-1,-1.0565428E-1,-2.740095E-1,3.192871E-1,1.4731817E-1,7.21271E-1,-6.5495096E-2,7.584593E-1,-8.505369E-1,3.5592154E-2,1.4009868E-1,-1.1395677E-2,8.537569E-2,-5.939265E-2,3.366105E-2,-7.167536E-2,1.8176613E-2,-2.2773208E-2,7.75708E-2,-4.324625E-3,1.141197E-1,1.3152122E-2,1.2526487E-1,9.213812E-3,-1.17049776E-1],"categories":[],"categories_nodes":[],"categories_segments":[],"categories_sizes":[],"default_left":[0,0,0,0,0,0,0,0,0,0,0,0,0,0,0,0,0,0,0,0,0,0,0,0,0,0,0,0,0,0,0,0,0,0,0,0,0,0,0,0,0,0,0,0,0,0,0,0,0,0,0,0,0,0,0,0,0,0,0,0,0],"id":2,"left_children":[1,3,5,7,9,11,13,15,17,19,21,23,25,27,29,-1,-1,31,33,-1,35,-1,37,39,41,43,45,-1,47,-1,-1,49,-1,-1,-1,-1,-1,-1,51,53,-1,55,-1,57,59,-1,-1,-1,-1,-1,-1,-1,-1,-1,-1,-1,-1,-1,-1,-1,-1],"loss_changes":[1.0707513E2,1.1962265E1,7.157955E0,5.5708284E0,9.206226E0,2.7424412E0,2.9138832E0,1.6610117E0,2.209878E0,1.14814E0,5.7724657E0,2.6147137E0,6.278327E0,3.549366E0,2.9944477E0,0E0,0E0,1.801518E0,5.0225353E-1,0E0,2.1672373E0,0E0,1.9124284E0,2.0357037E0,3.0458317E0,6.4037304E0,2.8347492E-1,0E0,1.0682945E0,0E0,0E0,1.1887562E0,0E0,0E0,0E0,0E0,0E0,0E0,1.9004619E0,1.0944599E0,0E0,1.6436713E0,0E0,1.135009E0,1.9557834E0,0E0,0E0,0E0,0E0,0E0,0E0,0E0,0E0,0E0,0E0,0E0,0E0,0E0,0E0,0E0,0E0],"parents":[2147483647,0,0,1,1,2,2,3,3,4,4,5,5,6,6,7,7,8,8,9,9,10,10,11,11,12,12,13,13,14,14,17,17,18,18,20,20,22,22,23,23,24,24,25,25,26,26,28,28,31,31,38,38,39,39,41,41,43,43,44,44],"right_children":[2,4,6,8,10,12,14,16,18,20,22,24,26,28,30,-1,-1,32,34,-1,36,-1,38,40,42,44,46,-1,48,-1,-1,50,-1,-1,-1,-1,-1,-1,52,54,-1,56,-1,58,60,-1,-1,-1,-1,-1,-1,-1,-1,-1,-1,-1,-1,-1,-1,-1,-1],"split_conditions":[3.6E1,1.2E1,3.4E1,8.684211E-1,2.2E1,3E0,5E0,8E0,4.73E2,4E0,1E0,2.4E1,4E0,1.146E3,3.9E1,1.1544893E-1,3.2079287E-3,2.2E1,1.4E1,-1.465316E-1,6.01E2,9.5111825E-2,1.6E1,4E1,5E1,8.974359E-1,5E0,1.7351757E-1,2.4E1,-6.050063E-2,1.0484673E-1,2.64E2,7.3247835E-2,-1.0572974E-1,-2.0260332E-2,3.366105E-2,-1.04704574E-1,-1.0565428E-1,3.99E2,1.6E1,1.4731817E-1,4.2E1,-6.5495096E-2,6E0,1.2E1,3.5592154E-2,1.4009868E-1,-1.1395677E-2,8.537569E-2,-5.939265E-2,3.366105E-2,-7.167536E-2,1.8176613E-2,-2.2773208E-2,7.75708E-2,-4.324625E-3,1.141197E-1,1.3152122E-2,1.2526487E-1,9.213812E-3,-1.17049776E-1],"split_indices":[0,5,1,3,0,6,6,5,12,6,6,9,6,12,1,0,0,9,1,0,12,0,5,0,0,3,6,0,9,0,0,12,0,0,0,0,0,0,12,5,0,0,0,2,5,0,0,0,0,0,0,0,0,0,0,0,0,0,0,0,0],"split_type":[0,0,0,0,0,0,0,0,0,0,0,0,0,0,0,0,0,0,0,0,0,0,0,0,0,0,0,0,0,0,0,0,0,0,0,0,0,0,0,0,0,0,0,0,0,0,0,0,0,0,0,0,0,0,0,0,0,0,0,0,0],"sum_hessian":[1.1551063E2,6.353904E1,5.197159E1,1.5764368E1,4.7774673E1,2.7611633E1,2.4359955E1,4.7094398E0,1.1054929E1,3.2629356E1,1.5145315E1,1.5569875E1,1.20417595E1,2.1883799E1,2.4761567E0,2.4998357E0,2.209604E0,5.8405967E0,5.214332E0,2.9513723E1,3.1156328E0,1.7481496E0,1.3397166E1,1.0131387E1,5.438488E0,8.321843E0,3.719916E0,1.8672274E1,3.2115254E0,1.2303839E0,1.245773E0,4.5948014E0,1.2457952E0,3.7567973E0,1.4575348E0,1.2371919E0,1.8784409E0,5.624862E0,7.7723036E0,2.676063E0,7.4553237E0,3.9660954E0,1.4723926E0,3.195124E0,5.1267195E0,1.2208744E0,2.4990418E0,1.7283767E0,1.4831486E0,3.3576095E0,1.2371919E0,3.6520607E0,4.120243E0,1.4451287E0,1.2309343E0,1.7241404E0,2.241955E0,1.9665085E0,1.2286154E0,1.4795811E0,3.6471384E0],"tree_param":{"num_deleted":"0","num_feature":"13","num_nodes":"61","size_leaf_vector":"1"}},{"base_weights":[1.03217745E-2,-7.9903716E-1,9.7578764E-1,-8.325105E-2,-1.0342201E0,2.3307148E-1,1.133611E0,6.7456275E-1,-4.392672E-1,-1.3223395E0,-3.8766128E-1,9.631998E-1,-1.454061E-1,9.319364E-1,1.6049865E-1,1.7152265E-1,1.2572429E-1,-1.8366003E-2,-8.3661693E-1,-1.3891482E-1,-5.1844656E-1,8.9009635E-2,-6.0771966E-1,2.888198E-2,1.17656045E-1,6.521138E-1,-7.581497E-1,2.449367E-1,1.1586195E0,8.4731594E-2,-6.47917E-2,4.359488E-1,-4.7428575E-1,-1.00030415E-1,-1.8358907E-2,3.1741574E-2,-9.9785924E-2,-9.92175E-2,-2.5383806E-1,8.8721685E-2,1.4681952E-2,-1.9994628E-2,-1.0705173E-1,7.245433E-1,-6.0783476E-1,2.366995E-2,1.2189734E0,9.663385E-2,-2.688591E-2,-9.542792E-2,1.9219257E-2,-7.427378E-2,1.4391226E-2,9.7735934E-2,-1.8707704E-2,-9.6662134E-2,-8.861025E-3,1.2669753E-1,2.1573374E-2],"categories":[],"categories_nodes":[],"categories_segments":[],"categories_sizes":[],"default_left":[0,0,0,0,0,0,0,0,0,0,0,0,0,0,0,0,0,0,0,0,0,0,0,0,0,0,0,0,0,0,0,0,0,0,0,0,0,0,0,0,0,0,0,0,0,0,0,0,0,0,0,0,0,0,0,0,0,0,0],"id":3,"left_children":[1,3,5,7,9,11,13,15,17,19,21,23,25,27,-1,29,-1,31,33,-1,35,-1,37,-1,-1,39,41,43,45,-1,-1,47,49,-1,-1,-1,-1,-1,51,-1,-1,-1,-1,53,55,-1,57,-1,-1,-1,-1,-1,-1,-1,-1,-1,-1,-1,-1],"loss_changes":[9.016765E1,1.0481873E1,5.903343E0,4.7783785E0,8.273449E0,3.0360694E0,2.6049614E0,1.4563804E0,1.9762743E0,1.0097618E0,5.0267305E0,1.9386387E-1,4.2918816E0,4.7923203E0,0E0,2.8855734E0,0E0,1.6163585E0,4.687395E-1,0E0,1.9464663E0,0E0,1.6805997E0,0E0,0E0,3.3470714E-1,6.3283944E-1,4.266516E0,1.0602379E0,0E0,0E0,1.7288285E0,1.4232314E0,0E0,0E0,0E0,0E0,0E0,1.8064272E0,0E0,0E0,0E0,0E0,1.6679354E0,6.429721E-1,0E0,8.1069183E-1,0E0,0E0,0E0,0E0,0E0,0E0,0E0,0E0,0E0,0E0,0E0,0E0],"parents":[2147483647,0,0,1,1,2,2,3,3,4,4,5,5,6,6,7,7,8,8,9,9,10,10,11,11,12,12,13,13,15,15,17,17,18,18,20,20,22,22,25,25,26,26,27,27,28,28,31,31,32,32,38,38,43,43,44,44,46,46],"right_children":[2,4,6,8,10,12,14,16,18,20,22,24,26,28,-1,30,-1,32,34,-1,36,-1,38,-1,-1,40,42,44,46,-1,-1,48,50,-1,-1,-1,-1,-1,52,-1,-1,-1,-1,54,56,-1,58,-1,-1,-1,-1,-1,-1,-1,-1,-1,-1,-1,-1],"split_conditions":[3.6E1,1.2E1,4.2E1,8.684211E-1,2.2E1,8.5365856E-1,4.6E1,4E0,4.73E2,4E0,1E0,1E1,2E1,2.1E1,1.6049865E-1,8E0,1.2572429E-1,1E1,2.1E1,-1.3891482E-1,6.01E2,8.9009635E-2,1.6E1,2.888198E-2,1.17656045E-1,3.8E1,3E0,9.722222E-1,2.1E1,8.4731594E-2,-6.47917E-2,2.43E2,2.1E2,-1.00030415E-1,-1.8358907E-2,3.1741574E-2,-9.9785924E-2,-9.92175E-2,9.6E-1,8.8721685E-2,1.4681952E-2,-1.9994628E-2,-1.0705173E-1,4E2,2.54E2,2.366995E-2,1E1,9.663385E-2,-2.688591E-2,-9.542792E-2,1.9219257E-2,-7.427378E-2,1.4391226E-2,9.7735934E-2,-1.8707704E-2,-9.6662134E-2,-8.861025E-3,1.2669753E-1,2.1573374E-2],"split_indices":[0,5,0,3,0,3,1,6,12,6,6,5,9,9,0,5,0,1,0,0,12,0,5,0,0,0,6,3,1,0,0,12,12,0,0,0,0,0,3,0,0,0,0,12,12,0,2,0,0,0,0,0,0,0,0,0,0,0,0],"split_type":[0,0,0,0,0,0,0,0,0,0,0,0,0,0,0,0,0,0,0,0,0,0,0,0,0,0,0,0,0,0,0,0,0,0,0,0,0,0,0,0,0,0,0,0,0,0,0,0,0,0,0,0,0,0,0,0,0,0,0],"sum_hessian":[1.1339339E2,6.1777298E1,5.1616093E1,1.5612921E1,4.6164375E1,9.480001E0,4.213609E1,4.7044034E0,1.0908518E1,3.1210962E1,1.4953413E1,2.7090294E0,6.7709723E0,3.1595322E1,1.0540769E1,3.2193973E0,1.4850059E0,5.805325E0,5.103193E0,2.8143988E1,3.0669746E0,1.749605E0,1.3203808E1,1.2167751E0,1.4922543E0,2.9139943E0,3.8569782E0,8.354919E0,2.3240402E1,1.7456983E0,1.473699E0,2.929721E0,2.875604E0,3.6551929E0,1.4480001E0,1.2410662E0,1.8259084E0,5.464026E0,7.7397823E0,1.4728607E0,1.4411336E0,1.972394E0,1.8845842E0,5.443699E0,2.9112203E0,1.7303756E0,2.1510027E1,1.4599768E0,1.4697443E0,1.4206429E0,1.4549612E0,3.0829675E0,4.6568146E0,4.205337E0,1.238362E0,1.2120351E0,1.6991853E0,2.0276958E1,1.2330688E0],"tree_param":{"num_deleted":"0","num_feature":"13","num_nodes":"59","size_leaf_vector":"1"}},{"base_weights":[1.0191563E-2,-7.479118E-1,8.9613634E-1,-9.0081364E-1,2.2945519E-1,5.60219E-1,1.2473059E0,-4.0308475E-1,-1.1880263E0,-2.504532E-1,1.4327328E-1,8.948934E-1,3.0347025E-1,5.9852666E-1,1.464278E0,-5.9027445E-1,8.108435E-2,-4.1667752E-2,-1.2753059E0,3.5865563E-1,-9.2062965E-2,1.1803261E0,2.5762138E-1,7.026561E-1,-2.647186E-1,7.7921534E-1,-2.0830676E-2,4.7995333E-2,1.5069695E0,-1.18708834E-1,-7.9296845E-1,3.8217735E-2,-4.5407504E-2,-1.3391877E0,-6.083005E-1,1.0733117E-1,-2.3300053E-1,2.8848583E-2,1.2997268E-1,-3.426465E-2,6.1140653E-2,9.1445285E-1,-3.5366613E-2,-8.130698E-1,9.368537E-2,3.5450086E-3,1.0802184E0,4.9430978E-2,1.5542632E-1,6.251981E-2,-4.941788E-2,-1.09836005E-1,-3.0076323E-2,-3.8166683E-2,-1.3716798E-1,1.1566379E-2,-1.0610616E-1,3.949597E-2,-7.811053E-2,1.2126086E-1,4.170164E-2,3.3161917E-3,-1.09504335E-1,3.371841E-2,1.3150135E-1],"categories":[],"categories_nodes":[],"categories_segments":[],"categories_sizes":[],"default_left":[0,0,0,0,0,0,0,0,0,0,0,0,0,0,0,0,0,0,0,0,0,0,0,0,0,0,0,0,0,0,0,0,0,0,0,0,0,0,0,0,0,0,0,0,0,0,0,0,0,0,0,0,0,0,0,0,0,0,0,0,0,0,0,0,0],"id":4,"left_children":[1,3,5,7,9,11,13,15,17,19,-1,21,23,25,27,29,-1,31,33,35,-1,37,39,41,43,45,-1,-1,47,49,51,-1,-1,53,55,-1,57,-1,-1,-1,-1,59,-1,61,-1,-1,63,-1,-1,-1,-1,-1,-1,-1,-1,-1,-1,-1,-1,-1,-1,-1,-1,-1,-1],"loss_changes":[7.585335E1,9.3027725E0,5.4439354E0,7.07428E0,5.5739408E0,2.1713085E0,2.592514E0,5.215666E0,3.2476082E0,3.3131218E0,0E0,1.8475561E0,4.178115E0,1.3092551E0,2.3700714E-2,1.687552E0,0E0,7.6221675E-1,4.901619E-1,2.1729996E0,0E0,4.6527004E-1,1.2582343E0,2.6974878E0,6.02577E0,1.447959E0,0E0,0E0,2.526474E-2,2.202598E0,1.6027851E0,0E0,0E0,3.2001877E-1,1.6006131E0,0E0,1.4476298E0,0E0,0E0,0E0,0E0,8.4666634E-1,0E0,1.4730589E0,0E0,0E0,3.7519598E-1,0E0,0E0,0E0,0E0,0E0,0E0,0E0,0E0,0E0,0E0,0E0,0E0,0E0,0E0,0E0,0E0,0E0,0E0],"parents":[2147483647,0,0,1,1,2,2,3,3,4,4,5,5,6,6,7,7,8,8,9,9,11,11,12,12,13,13,14,14,15,15,17,17,18,18,19,19,21,21,22,22,23,23,24,24,25,25,28,28,29,29,30,30,33,33,34,34,36,36,41,41,43,43,46,46],"right_children":[2,4,6,8,10,12,14,16,18,20,-1,22,24,26,28,30,-1,32,34,36,-1,38,40,42,44,46,-1,-1,48,50,52,-1,-1,54,56,-1,58,-1,-1,-1,-1,60,-1,62,-1,-1,64,-1,-1,-1,-1,-1,-1,-1,-1,-1,-1,-1,-1,-1,-1,-1,-1,-1,-1],"split_conditions":[3.6E1,4E0,3.4E1,3E0,1.3E1,8.974359E-1,6.4E1,3E1,8E0,1.4E1,1.4327328E-1,2.4E1,3E0,4E1,7.9310346E-1,9.375E-1,8.108435E-2,2.64E2,2.6E1,8.611111E-1,-9.2062965E-2,4E1,3E0,2E1,4E0,1E0,-2.0830676E-2,4.7995333E-2,1.42E2,1E1,1.7E1,3.8217735E-2,-4.5407504E-2,1.39E2,2.8E1,1.0733117E-1,4.87E2,2.8848583E-2,1.2997268E-1,-3.426465E-2,6.1140653E-2,6.71E2,-3.5366613E-2,1.2E1,9.368537E-2,3.5450086E-3,2.2E1,4.9430978E-2,1.5542632E-1,6.251981E-2,-4.941788E-2,-1.09836005E-1,-3.0076323E-2,-3.8166683E-2,-1.3716798E-1,1.1566379E-2,-1.0610616E-1,3.949597E-2,-7.811053E-2,1.2126086E-1,4.170164E-2,3.3161917E-3,-1.09504335E-1,3.371841E-2,1.3150135E-1],"split_indices":[0,6,1,6,1,3,0,9,5,5,0,9,6,1,3,3,0,12,0,3,0,0,6,5,6,2,0,0,12,5,5,0,0,12,0,0,12,0,0,0,0,12,0,5,0,0,9,0,0,0,0,0,0,0,0,0,0,0,0,0,0,0,0,0,0],"split_type":[0,0,0,0,0,0,0,0,0,0,0,0,0,0,0,0,0,0,0,0,0,0,0,0,0,0,0,0,0,0,0,0,0,0,0,0,0,0,0,0,0,0,0,0,0,0,0,0,0,0,0,0,0,0,0,0,0,0,0,0,0,0,0,0,0],"sum_hessian":[1.1093999E2,5.9867306E1,5.107268E1,5.183624E1,8.031069E0,2.7429659E1,2.364302E1,1.9846472E1,3.1989765E1,6.3073416E0,1.7237271E0,1.082877E1,1.660089E1,6.867299E0,1.6775723E1,1.7640089E1,2.206382E0,2.3677933E0,2.9621973E1,3.547725E0,2.7596166E0,6.8904147E0,3.9383554E0,9.611554E0,6.989336E0,5.638744E0,1.228555E0,1.2062374E0,1.5569485E1,5.779588E0,1.1860501E1,1.2038531E0,1.1639401E0,2.6113235E1,3.5087366E0,1.2381248E0,2.3096E0,1.2169278E0,5.6734867E0,1.4721092E0,2.4662461E0,8.118139E0,1.493414E0,5.0211883E0,1.968148E0,1.9465868E0,3.6921573E0,1.2056596E0,1.4363825E1,1.7155381E0,4.06405E0,6.559262E0,5.30124E0,1.2753696E0,2.4837866E1,1.636505E0,1.8722317E0,1.2066066E0,1.1029934E0,4.176872E0,3.9412677E0,1.4754881E0,3.5457E0,1.4715036E0,2.2206535E0],"tree_param":{"num_deleted":"0","num_feature":"13","num_nodes":"65","size_leaf_vector":"1"}},{"base_weights":[1.3260012E-2,-7.0005906E-1,8.3336496E-1,-6.1918333E-2,-9.2146724E-1,5.1860327E-1,1.1678778E0,-3.351627E-1,7.1195304E-1,-1.2075074E0,-3.231297E-1,8.826416E-1,3.004998E-1,5.5977213E-1,1.3767478E-1,-4.970373E-1,6.563815E-2,1.0717221E-1,2.5414482E-3,-1.2751974E-1,-4.5191523E-1,8.38064E-2,-5.3107584E-1,1.1170251E0,2.887413E-1,9.912493E-2,1.1995673E-1,7.727842E-1,-1.1961359E-2,1.671843E-1,-8.146537E-1,3.1021848E-2,-9.147755E-2,-8.871848E-1,-2.1664259E-1,1.4192331E-1,4.006039E-1,7.256355E-2,-2.1357924E-2,-5.161236E-1,4.4100946E-1,1.20643295E-1,1.604941E-1,8.363021E-2,-4.2229142E-2,-4.1518234E-2,-1.15643635E-1,-9.665935E-2,-2.6331818E-2,-6.387919E-2,2.046918E-2,5.598372E-2,6.119081E-3,-1.0238153E-1,3.3426635E-2,9.099551E-2,-2.9840846E-2,7.035183E-2,-5.2024644E-2],"categories":[],"categories_nodes":[],"categories_segments":[],"categories_sizes":[],"default_left":[0,0,0,0,0,0,0,0,0,0,0,0,0,0,0,0,0,0,0,0,0,0,0,0,0,0,0,0,0,0,0,0,0,0,0,0,0,0,0,0,0,0,0,0,0,0,0,0,0,0,0,0,0,0,0,0,0,0,0],"id":5,"left_children":[1,3,5,7,9,11,13,15,17,19,21,23,25,27,-1,29,-1,-1,-1,-1,31,-1,33,35,37,39,-1,41,-1,43,45,-1,-1,47,49,-1,51,-1,-1,53,55,-1,57,-1,-1,-1,-1,-1,-1,-1,-1,-1,-1,-1,-1,-1,-1,-1,-1],"loss_changes":[6.4508484E1,8.276979E0,4.794628E0,3.6781418E0,7.0923576E0,1.9756379E0,2.2860222E0,2.3648686E0,1.100213E0,9.1788864E-1,4.1892157E0,1.0775237E0,3.3509843E0,1.2267056E0,0E0,2.5597477E0,0E0,0E0,0E0,0E0,1.6774917E0,0E0,1.3488696E0,9.173727E-1,1.0755574E0,3.750525E0,0E0,1.4263072E0,0E0,2.146206E0,6.0418797E-1,0E0,0E0,4.9195766E-2,1.6661407E0,0E0,1.5108997E-1,0E0,0E0,3.1239893E0,4.191554E0,0E0,1.7274324E0,0E0,0E0,0E0,0E0,0E0,0E0,0E0,0E0,0E0,0E0,0E0,0E0,0E0,0E0,0E0,0E0],"parents":[2147483647,0,0,1,1,2,2,3,3,4,4,5,5,6,6,7,7,8,8,9,9,10,10,11,11,12,12,13,13,15,15,20,20,22,22,23,23,24,24,25,25,27,27,29,29,30,30,33,33,34,34,36,36,39,39,40,40,42,42],"right_children":[2,4,6,8,10,12,14,16,18,20,22,24,26,28,-1,30,-1,-1,-1,-1,32,-1,34,36,38,40,-1,42,-1,44,46,-1,-1,48,50,-1,52,-1,-1,54,56,-1,58,-1,-1,-1,-1,-1,-1,-1,-1,-1,-1,-1,-1,-1,-1,-1,-1],"split_conditions":[3.6E1,1.2E1,3.4E1,5E0,2.2E1,2E0,6.4E1,3E1,2.5E1,4E0,1E0,1.9E1,5E0,1.031E3,1.3767478E-1,2.48E2,6.563815E-2,1.0717221E-1,2.5414482E-3,-1.2751974E-1,6.01E2,8.38064E-2,1.6E1,5E1,8.947368E-1,4.4E1,1.1995673E-1,3E0,-1.1961359E-2,8E0,2.5E1,3.1021848E-2,-9.147755E-2,2.4E1,3.99E2,1.4192331E-1,6.31E2,7.256355E-2,-2.1357924E-2,1.7E1,5.5E1,1.20643295E-1,3.7E1,8.363021E-2,-4.2229142E-2,-4.1518234E-2,-1.15643635E-1,-9.665935E-2,-2.6331818E-2,-6.387919E-2,2.046918E-2,5.598372E-2,6.119081E-3,-1.0238153E-1,3.3426635E-2,9.099551E-2,-2.9840846E-2,7.035183E-2,-5.2024644E-2],"split_indices":[0,5,1,6,0,6,0,9,9,6,6,5,6,12,0,12,0,0,0,0,12,0,5,0,3,0,0,6,0,5,9,0,0,1,12,0,12,0,0,5,0,0,1,0,0,0,0,0,0,0,0,0,0,0,0,0,0,0,0],"split_type":[0,0,0,0,0,0,0,0,0,0,0,0,0,0,0,0,0,0,0,0,0,0,0,0,0,0,0,0,0,0,0,0,0,0,0,0,0,0,0,0,0,0,0,0,0,0,0,0,0,0,0,0,0,0,0,0,0,0,0],"sum_hessian":[1.08274284E2,5.7985477E1,5.028881E1,1.52659E1,4.2719578E1,2.7223257E1,2.3065552E1,1.1701239E1,3.5646608E0,2.8213694E1,1.4505885E1,9.05784E0,1.8165417E1,6.837832E0,1.622772E1,1.048778E1,1.2134591E0,1.970829E0,1.5938318E0,2.5262833E1,2.9508615E0,1.7429374E0,1.2762948E1,5.863123E0,3.1947176E0,1.5748328E1,2.417088E0,5.101007E0,1.7368252E0,3.5459242E0,6.941856E0,1.2395803E0,1.7112812E0,5.1306896E0,7.632258E0,3.433687E0,2.429436E0,1.4708642E0,1.7238535E0,5.4432044E0,1.0305124E1,2.4180696E0,2.6829371E0,1.4646585E0,2.0812654E0,4.221995E0,2.719861E0,4.06404E0,1.0666493E0,3.5546331E0,4.077625E0,1.2115966E0,1.2178392E0,3.2806726E0,2.1625319E0,6.1647477E0,4.1403766E0,1.4738178E0,1.2091194E0],"tree_param":{"num_deleted":"0","num_feature":"13","num_nodes":"59","size_leaf_vector":"1"}},{"base_weights":[1.5640711E-2,-6.5732694E-1,7.7877337E-1,-8.024364E-1,2.2019769E-1,4.8490274E-1,1.0971673E0,-3.394328E-1,-1.0861269E0,-2.2946185E-1,1.3105264E-1,7.907809E-1,2.5175613E-1,1.200019E0,1.1402625E-1,-5.0875276E-1,7.158685E-2,-3.7594136E-2,-1.1735272E0,3.165459E-1,-8.4421895E-2,1.0594366E0,2.0772123E-1,6.1867136E-1,-2.7337825E-1,1.3596459E-1,2.1631138E-1,-6.2430777E-2,8.159619E-2,-3.1686974E-1,-1.11358844E-1,3.273573E-2,-3.9900746E-2,-1.2387328E0,-5.501574E-1,9.843641E-2,-2.3224247E-1,5.1859796E-1,1.3514611E-1,6.50469E-2,-3.0431638E-2,1.0525187E0,6.032419E-2,-7.783419E-1,8.406966E-2,-2.3754513E-2,6.309197E-2,-4.95373E-2,3.821571E-2,-3.1126857E-2,-1.2733816E-1,1.3342949E-2,-9.9400245E-2,3.4834504E-2,-7.441809E-2,7.233883E-3,9.166257E-2,2.4466932E-2,1.21326186E-1,-6.2950335E-2,5.93633E-2,7.0741493E-4,-1.0384997E-1],"categories":[],"categories_nodes":[],"categories_segments":[],"categories_sizes":[],"default_left":[0,0,0,0,0,0,0,0,0,0,0,0,0,0,0,0,0,0,0,0,0,0,0,0,0,0,0,0,0,0,0,0,0,0,0,0,0,0,0,0,0,0,0,0,0,0,0,0,0,0,0,0,0,0,0,0,0,0,0,0,0,0,0],"id":6,"left_children":[1,3,5,7,9,11,13,15,17,19,-1,21,23,25,27,29,-1,31,33,35,-1,37,39,41,43,-1,45,-1,-1,47,-1,-1,-1,49,51,-1,53,55,-1,-1,-1,57,59,61,-1,-1,-1,-1,-1,-1,-1,-1,-1,-1,-1,-1,-1,-1,-1,-1,-1,-1,-1],"loss_changes":[5.5108604E1,7.4392834E0,4.172062E0,6.088047E0,4.653256E0,1.7931871E0,2.2231293E0,3.961206E0,2.707531E0,2.6626947E0,0E0,1.5995517E0,3.50635E0,3.0071144E0,2.2276363E0,1.7282658E0,0E0,5.71599E-1,4.4372177E-1,1.8803475E0,0E0,5.165787E-1,1.3106165E0,2.4805975E0,5.0522537E0,0E0,9.259674E-1,0E0,0E0,2.06234E0,0E0,0E0,0E0,3.8331604E-1,1.4738166E0,0E0,1.2350295E0,7.019906E-1,0E0,0E0,0E0,4.6272707E-1,2.4534225E0,1.2126174E0,0E0,0E0,0E0,0E0,0E0,0E0,0E0,0E0,0E0,0E0,0E0,0E0,0E0,0E0,0E0,0E0,0E0,0E0,0E0],"parents":[2147483647,0,0,1,1,2,2,3,3,4,4,5,5,6,6,7,7,8,8,9,9,11,11,12,12,13,13,14,14,15,15,17,17,18,18,19,19,21,21,22,22,23,23,24,24,26,26,29,29,33,33,34,34,36,36,37,37,41,41,42,42,43,43],"right_children":[2,4,6,8,10,12,14,16,18,20,-1,22,24,26,28,30,-1,32,34,36,-1,38,40,42,44,-1,46,-1,-1,48,-1,-1,-1,50,52,-1,54,56,-1,-1,-1,58,60,62,-1,-1,-1,-1,-1,-1,-1,-1,-1,-1,-1,-1,-1,-1,-1,-1,-1,-1,-1],"split_conditions":[3.6E1,4E0,3.4E1,3E0,1.3E1,8.974359E-1,5E0,3E1,8E0,1.4E1,1.3105264E-1,2.4E1,3E0,1.146E3,2.54E2,1.023E3,7.158685E-2,2.64E2,2.6E1,8.611111E-1,-8.4421895E-2,2.2E1,8.4615386E-1,6.71E2,4E0,1.3596459E-1,2.4E1,-6.2430777E-2,8.159619E-2,8.22E2,-1.11358844E-1,3.273573E-2,-3.9900746E-2,1.39E2,2.8E1,9.843641E-2,4.87E2,8.717949E-1,1.3514611E-1,6.50469E-2,-3.0431638E-2,3.8E1,9.25E2,1.2E1,8.406966E-2,-2.3754513E-2,6.309197E-2,-4.95373E-2,3.821571E-2,-3.1126857E-2,-1.2733816E-1,1.3342949E-2,-9.9400245E-2,3.4834504E-2,-7.441809E-2,7.233883E-3,9.166257E-2,2.4466932E-2,1.21326186E-1,-6.2950335E-2,5.93633E-2,7.0741493E-4,-1.0384997E-1],"split_indices":[0,6,1,6,1,3,6,9,5,5,0,9,6,12,12,12,0,12,0,3,0,9,3,12,6,0,9,0,0,12,0,0,0,12,0,0,12,3,0,0,0,0,12,5,0,0,0,0,0,0,0,0,0,0,0,0,0,0,0,0,0,0,0],"split_type":[0,0,0,0,0,0,0,0,0,0,0,0,0,0,0,0,0,0,0,0,0,0,0,0,0,0,0,0,0,0,0,0,0,0,0,0,0,0,0,0,0,0,0,0,0,0,0,0,0,0,0,0,0,0,0,0,0,0,0,0,0,0,0],"sum_hessian":[1.05309525E2,5.6034348E1,4.927518E1,4.8156628E1,7.8777223E0,2.6936422E1,2.2338758E1,1.9130594E1,2.9026031E1,6.1365232E0,1.7411991E0,1.0616397E1,1.6320024E1,2.0023403E1,2.315354E0,1.6931839E1,2.1987553E0,2.343341E0,2.6682692E1,3.5068967E0,2.6296265E0,6.7083635E0,3.9080336E0,9.502463E0,6.8175607E0,1.6899025E1,3.1243794E0,1.1823184E0,1.1330355E0,1.4010825E1,2.9210138E0,1.2128489E0,1.1304922E0,2.3262262E1,3.4204295E0,1.22387E0,2.2830265E0,3.3254309E0,3.382933E0,1.9508353E0,1.9571983E0,4.849354E0,4.6531096E0,4.89859E0,1.9189707E0,1.695471E0,1.4289083E0,1.1392881E1,2.6179435E0,1.1972883E0,2.2064974E1,1.6218772E0,1.7985523E0,1.2195246E0,1.0635018E0,2.124847E0,1.2005839E0,1.223335E0,3.6260188E0,1.9501913E0,2.7029185E0,1.4609106E0,3.4376795E0],"tree_param":{"num_deleted":"0","num_feature":"13","num_nodes":"63","size_leaf_vector":"1"}},{"base_weights":[1.7743737E-2,-6.176544E-1,7.2943014E-1,-4.3289192E-2,-8.296857E-1,4.557365E-1,1.0321964E0,5.776919E-1,-3.44336E-1,-1.1769166E0,-3.5443756E-1,7.8447545E-1,2.5863868E-1,4.609938E-1,1.2411791E0,9.184389E-1,-5.152669E-3,-9.997054E-2,-1.164076E-1,-1.23219445E-1,-4.478353E-1,5.4286707E-2,-5.032736E-1,1.0044229E0,2.3922965E-1,7.249166E-2,1.1030351E-1,6.4013517E-1,-2.6960606E-2,3.4117445E-2,1.2861995E0,2.9547757E-2,1.10404156E-1,6.761986E-2,-4.354788E-1,-8.054027E-2,1.2303319E-2,-6.321309E-1,4.08489E-2,1.2990497E-1,3.3088127E-1,6.440882E-2,-2.130687E-2,-4.900341E-1,3.854849E-1,-3.046753E-3,9.266369E-1,3.596749E-2,1.3358192E-1,-1.8075282E-3,-9.6928425E-2,2.5243824E-2,-7.173302E-2,4.7702637E-2,3.6450566E-3,-9.65121E-2,2.9645367E-2,8.209991E-2,-2.9212791E-2,2.3582237E-2,1.16454065E-1],"categories":[],"categories_nodes":[],"categories_segments":[],"categories_sizes":[],"default_left":[0,0,0,0,0,0,0,0,0,0,0,0,0,0,0,0,0,0,0,0,0,0,0,0,0,0,0,0,0,0,0,0,0,0,0,0,0,0,0,0,0,0,0,0,0,0,0,0,0,0,0,0,0,0,0,0,0,0,0,0,0],"id":7,"left_children":[1,3,5,7,9,11,13,15,17,19,21,23,25,27,29,31,-1,-1,33,-1,35,-1,37,39,41,43,-1,45,-1,-1,47,-1,-1,-1,49,-1,-1,51,-1,-1,53,-1,-1,55,57,-1,59,-1,-1,-1,-1,-1,-1,-1,-1,-1,-1,-1,-1,-1,-1],"loss_changes":[4.716881E1,6.6771564E0,3.605669E0,3.174615E0,6.2176037E0,1.587069E0,2.1212845E0,1.2416875E0,1.5786002E0,3.6709595E-1,2.731188E0,9.4253254E-1,2.869186E0,1.1718386E0,2.0659256E-1,9.774709E-2,0E0,0E0,2.7098274E0,0E0,7.477656E-1,0E0,2.173871E0,9.027767E-1,8.967402E-1,3.0841227E0,0E0,1.2631967E0,0E0,0E0,2.0036507E-1,0E0,0E0,0E0,1.6352494E0,0E0,0E0,1.2873363E0,0E0,0E0,1.2828103E-1,0E0,0E0,2.647168E0,3.522934E0,0E0,4.7077584E-1,0E0,0E0,0E0,0E0,0E0,0E0,0E0,0E0,0E0,0E0,0E0,0E0,0E0,0E0],"parents":[2147483647,0,0,1,1,2,2,3,3,4,4,5,5,6,6,7,7,8,8,9,9,10,10,11,11,12,12,13,13,14,14,15,15,18,18,20,20,22,22,23,23,24,24,25,25,27,27,30,30,34,34,37,37,40,40,43,43,44,44,46,46],"right_children":[2,4,6,8,10,12,14,16,18,20,22,24,26,28,30,32,-1,-1,34,-1,36,-1,38,40,42,44,-1,46,-1,-1,48,-1,-1,-1,50,-1,-1,52,-1,-1,54,-1,-1,56,58,-1,60,-1,-1,-1,-1,-1,-1,-1,-1,-1,-1,-1,-1,-1,-1],"split_conditions":[3.6E1,1.2E1,3.4E1,8.684211E-1,1E1,2E0,6.4E1,2.5E1,3E0,4E0,1E0,1.9E1,5E0,4E1,7.9310346E-1,7.8723407E-1,-5.152669E-3,-9.997054E-2,4E0,-1.23219445E-1,5E0,5.4286707E-2,4E0,5E1,8.947368E-1,4.4E1,1.1030351E-1,1E0,-2.6960606E-2,3.4117445E-2,1.42E2,2.9547757E-2,1.10404156E-1,6.761986E-2,2.5E1,-8.054027E-2,1.2303319E-2,8.5E-1,4.08489E-2,1.2990497E-1,6.31E2,6.440882E-2,-2.130687E-2,1.7E1,5.5E1,-3.046753E-3,2.2E1,3.596749E-2,1.3358192E-1,-1.8075282E-3,-9.6928425E-2,2.5243824E-2,-7.173302E-2,4.7702637E-2,3.6450566E-3,-9.65121E-2,2.9645367E-2,8.209991E-2,-2.9212791E-2,2.3582237E-2,1.16454065E-1],"split_indices":[0,5,1,3,1,6,0,9,5,6,6,5,6,1,3,3,0,0,1,0,1,0,6,0,3,0,0,2,0,0,12,0,0,0,9,0,0,3,0,0,12,0,0,5,0,0,9,0,0,0,0,0,0,0,0,0,0,0,0,0,0],"split_type":[0,0,0,0,0,0,0,0,0,0,0,0,0,0,0,0,0,0,0,0,0,0,0,0,0,0,0,0,0,0,0,0,0,0,0,0,0,0,0,0,0,0,0,0,0,0,0,0,0,0,0,0,0,0,0,0,0,0,0,0,0],"sum_hessian":[1.0231234E2,5.4123055E1,4.818928E1,1.491754E1,3.9205517E1,2.6625597E1,2.1563684E1,4.570613E0,1.0346928E1,2.1800776E1,1.7404741E1,8.86296E0,1.7762638E1,6.634853E0,1.4928831E1,2.66679E0,1.9038229E0,1.7962022E0,8.550725E0,1.962293E1,2.1778445E0,2.0995476E0,1.5305193E1,5.7153063E0,3.1476533E0,1.5443887E1,2.3187516E0,5.4277935E0,1.2070597E0,1.119859E0,1.3808972E1,1.207132E0,1.459658E0,2.1329591E0,6.4177656E0,1.0864817E0,1.0913627E0,1.3678706E1,1.6264868E0,3.329988E0,2.385318E0,1.4371799E0,1.7104735E0,5.3188925E0,1.0124994E1,1.8922765E0,3.5355167E0,1.1212404E0,1.2687732E1,4.1817513E0,2.2360146E0,1.0292937E0,1.2649413E1,1.1796272E0,1.2056907E0,3.1742954E0,2.144597E0,6.0347466E0,4.0902476E0,1.4157566E0,2.11976E0],"tree_param":{"num_deleted":"0","num_feature":"13","num_nodes":"61","size_leaf_vector":"1"}},{"base_weights":[2.0932864E-2,-5.7944745E-1,6.863766E-1,-7.1732026E-1,2.1096332E-1,5.3537554E-1,1.23782925E-1,-2.8643492E-1,-1.0012696E0,-2.1058364E-1,1.205524E-1,8.783826E-1,3.4604573E-1,-4.444732E-1,6.635285E-2,-1.0726041E-2,-1.0925672E0,3.0170897E-1,-7.889631E-2,1.116318E-1,2.1821143E-1,5.7489496E-1,-1.3570242E-1,-2.580129E-1,-1.05353884E-1,3.250431E-2,-3.5889268E-2,-1.163419E0,-4.8577428E-1,9.1631934E-2,-2.1188864E-1,6.9640815E-1,-6.412024E-2,4.5908694E-3,7.502255E-1,2.818969E-1,-5.82265E-1,-5.3886883E-3,-9.7263224E-2,-2.6245994E-2,-1.2005991E-1,1.5491675E-2,-9.235467E-2,-3.9037477E-2,7.172085E-3,9.334204E-2,1.1868032E-2,-4.0409513E-2,8.14433E-2,8.453642E-2,1.5472932E-3,-2.7453199E-3,6.966862E-2,-1.120917E-1,1.2248259E-2],"categories":[],"categories_nodes":[],"categories_segments":[],"categories_sizes":[],"default_left":[0,0,0,0,0,0,0,0,0,0,0,0,0,0,0,0,0,0,0,0,0,0,0,0,0,0,0,0,0,0,0,0,0,0,0,0,0,0,0,0,0,0,0,0,0,0,0,0,0,0,0,0,0,0,0],"id":8,"left_children":[1,3,5,7,9,11,-1,13,15,17,-1,19,21,23,-1,25,27,29,-1,-1,31,33,35,37,-1,-1,-1,39,41,-1,43,45,-1,47,49,51,53,-1,-1,-1,-1,-1,-1,-1,-1,-1,-1,-1,-1,-1,-1,-1,-1,-1,-1],"loss_changes":[4.0491096E1,5.9595776E0,3.3388882E0,5.2935047E0,3.896698E0,2.2604265E0,0E0,3.2251515E0,2.4382915E0,2.2983985E0,0E0,1.8603191E0,3.0650232E0,1.6966028E0,0E0,5.0199366E-1,5.008583E-1,1.586502E0,0E0,0E0,2.4156773E0,1.8523059E0,1.9421878E0,2.0765343E0,0E0,0E0,0E0,4.0462112E-1,1.3517511E0,0E0,1.9074667E-1,3.7639546E-1,0E0,2.1064827E0,9.7876835E-1,7.378017E-1,2.0101995E0,0E0,0E0,0E0,0E0,0E0,0E0,0E0,0E0,0E0,0E0,0E0,0E0,0E0,0E0,0E0,0E0,0E0,0E0],"parents":[2147483647,0,0,1,1,2,2,3,3,4,4,5,5,7,7,8,8,9,9,11,11,12,12,13,13,15,15,16,16,17,17,20,20,21,21,22,22,23,23,27,27,28,28,30,30,31,31,33,33,34,34,35,35,36,36],"right_children":[2,4,6,8,10,12,-1,14,16,18,-1,20,22,24,-1,26,28,30,-1,-1,32,34,36,38,-1,-1,-1,40,42,-1,44,46,-1,48,50,52,54,-1,-1,-1,-1,-1,-1,-1,-1,-1,-1,-1,-1,-1,-1,-1,-1,-1,-1],"split_conditions":[3.6E1,4E0,4.6E1,3E0,1.3E1,2E0,1.23782925E-1,3E1,8E0,1.4E1,1.205524E-1,1.9E1,9.736842E-1,1.023E3,6.635285E-2,2.64E2,2.6E1,8.611111E-1,-7.889631E-2,1.116318E-1,9.4285715E-1,4.3E1,5.4E1,1E0,-1.05353884E-1,3.250431E-2,-3.5889268E-2,1.39E2,2.8E1,9.1631934E-2,2.7E1,5E2,-6.412024E-2,5E0,1.9E1,4.4E1,6.6E1,-5.3886883E-3,-9.7263224E-2,-2.6245994E-2,-1.2005991E-1,1.5491675E-2,-9.235467E-2,-3.9037477E-2,7.172085E-3,9.334204E-2,1.1868032E-2,-4.0409513E-2,8.14433E-2,8.453642E-2,1.5472932E-3,-2.7453199E-3,6.966862E-2,-1.120917E-1,1.2248259E-2],"split_indices":[0,6,1,6,1,6,0,9,5,5,0,5,3,12,0,12,0,3,0,0,3,0,0,11,0,0,0,12,0,0,9,12,0,6,5,0,0,0,0,0,0,0,0,0,0,0,0,0,0,0,0,0,0,0,0],"split_type":[0,0,0,0,0,0,0,0,0,0,0,0,0,0,0,0,0,0,0,0,0,0,0,0,0,0,0,0,0,0,0,0,0,0,0,0,0,0,0,0,0,0,0,0,0,0,0,0,0,0,0,0,0,0,0],"sum_hessian":[9.935403E1,5.229835E1,4.7055676E1,4.4609505E1,7.6888466E0,3.848767E1,8.5680065E0,1.851788E1,2.6091625E1,5.9536448E0,1.7352022E0,1.23940525E1,2.6093618E1,1.6332825E1,2.1850538E0,2.2962031E0,2.3795424E1,3.4108658E0,2.5427787E0,8.602598E0,3.7914548E0,1.7559036E1,8.534581E0,1.359458E1,2.7382452E0,1.2027223E0,1.0934807E0,2.0486053E1,3.3093693E0,1.1957821E0,2.2150838E0,2.5578701E0,1.2335844E0,4.3701797E0,1.3188857E1,4.600863E0,3.933718E0,1.1410622E1,2.1839576E0,1.1312941E0,1.935476E1,1.6056234E0,1.7037458E0,1.1284537E0,1.08663E0,1.3772004E0,1.1806699E0,3.2374325E0,1.1327472E0,1.1543604E1,1.6452534E0,3.1702805E0,1.4305828E0,1.8948932E0,2.038825E0],"tree_param":{"num_deleted":"0","num_feature":"13","num_nodes":"55","size_leaf_vector":"1"}},{"base_weights":[2.0039983E-2,-5.468044E-1,6.416415E-1,-6.8079543E-1,2.0433556E-1,4.9678016E-1,1.19061165E-1,-2.6897183E-1,-9.6357405E-1,-1.9555762E-1,1.1369015E-1,8.2261693E-1,3.1903276E-1,-4.1823643E-1,6.2097885E-2,-1.0783878E-2,-1.0563806E0,2.8741577E-1,-7.486217E-2,1.0481195E0,2.0697862E-1,5.324731E-1,-1.26545E-1,-2.4133274E-1,-1.01151004E-1,3.2603472E-2,-3.5148833E-2,-1.1297156E0,-4.6146277E-1,8.761745E-2,-2.012859E-1,1.1049391E-1,3.0860666E-2,6.6348547E-1,-6.067689E-2,6.6286266E-1,-9.917885E-2,2.6634902E-1,-5.496475E-1,-4.8999633E-3,-9.341801E-2,-2.5024233E-2,-1.16827086E-1,1.4501131E-2,-8.860665E-2,-3.7579607E-2,6.4042187E-3,8.930441E-2,1.1232143E-2,1.8058565E-2,8.487778E-2,4.6680897E-2,-5.6369394E-2,7.102052E-2,-9.0605015E-4,-1.06432155E-1,1.14286095E-2],"categories":[],"categories_nodes":[],"categories_segments":[],"categories_sizes":[],"default_left":[0,0,0,0,0,0,0,0,0,0,0,0,0,0,0,0,0,0,0,0,0,0,0,0,0,0,0,0,0,0,0,0,0,0,0,0,0,0,0,0,0,0,0,0,0,0,0,0,0,0,0,0,0,0,0,0,0],"id":9,"left_children":[1,3,5,7,9,11,-1,13,15,17,-1,19,21,23,-1,25,27,29,-1,31,33,35,37,39,-1,-1,-1,41,43,-1,45,-1,-1,47,-1,49,51,53,55,-1,-1,-1,-1,-1,-1,-1,-1,-1,-1,-1,-1,-1,-1,-1,-1,-1,-1],"loss_changes":[3.4678272E1,5.3219957E0,3.1404285E0,4.8568726E0,3.4163103E0,1.9873791E0,0E0,2.8197932E0,2.2575417E0,2.0442317E0,0E0,1.5986128E0,2.6131487E0,1.5507417E0,0E0,4.9189398E-1,4.983425E-1,1.4360164E0,0E0,5.085945E-2,2.1678934E0,1.5721722E0,1.721894E0,1.884706E0,0E0,0E0,0E0,3.8975525E-1,1.2242981E0,0E0,1.7248626E-1,0E0,0E0,3.45304E-1,0E0,1.2177658E0,1.3146397E0,6.8949986E-1,1.7925127E0,0E0,0E0,0E0,0E0,0E0,0E0,0E0,0E0,0E0,0E0,0E0,0E0,0E0,0E0,0E0,0E0,0E0,0E0],"parents":[2147483647,0,0,1,1,2,2,3,3,4,4,5,5,7,7,8,8,9,9,11,11,12,12,13,13,15,15,16,16,17,17,19,19,20,20,21,21,22,22,23,23,27,27,28,28,30,30,33,33,35,35,36,36,37,37,38,38],"right_children":[2,4,6,8,10,12,-1,14,16,18,-1,20,22,24,-1,26,28,30,-1,32,34,36,38,40,-1,-1,-1,42,44,-1,46,-1,-1,48,-1,50,52,54,56,-1,-1,-1,-1,-1,-1,-1,-1,-1,-1,-1,-1,-1,-1,-1,-1,-1,-1],"split_conditions":[3.6E1,4E0,4.6E1,3E0,1.3E1,2E0,1.19061165E-1,3E1,8E0,1.4E1,1.1369015E-1,1.9E1,9.736842E-1,1.023E3,6.2097885E-2,1.8E1,2.6E1,8.611111E-1,-7.486217E-2,7.5E1,9.4285715E-1,1.367E3,5.4E1,1E0,-1.01151004E-1,3.2603472E-2,-3.5148833E-2,1.39E2,2.8E1,8.761745E-2,8E0,1.1049391E-1,3.0860666E-2,5E2,-6.067689E-2,1.2E1,1.2E1,1.3E1,6.6E1,-4.8999633E-3,-9.341801E-2,-2.5024233E-2,-1.16827086E-1,1.4501131E-2,-8.860665E-2,-3.7579607E-2,6.4042187E-3,8.930441E-2,1.1232143E-2,1.8058565E-2,8.487778E-2,4.6680897E-2,-5.6369394E-2,7.102052E-2,-9.0605015E-4,-1.06432155E-1,1.14286095E-2],"split_indices":[0,6,1,6,1,6,0,9,5,5,0,5,3,12,0,0,0,3,0,0,3,12,0,11,0,0,0,12,0,0,5,0,0,12,0,5,5,5,0,0,0,0,0,0,0,0,0,0,0,0,0,0,0,0,0,0,0],"split_type":[0,0,0,0,0,0,0,0,0,0,0,0,0,0,0,0,0,0,0,0,0,0,0,0,0,0,0,0,0,0,0,0,0,0,0,0,0,0,0,0,0,0,0,0,0,0,0,0,0,0,0,0,0,0,0,0,0],"sum_hessian":[9.6423836E1,5.0496197E1,4.592764E1,4.2931564E1,7.564633E0,3.7845863E1,8.081775E0,1.8272156E1,2.4659409E1,5.8474793E0,1.7171533E0,1.2077692E1,2.5768171E1,1.6101603E1,2.1705532E0,2.287827E0,2.2371582E1,3.3779464E0,2.469533E0,8.325607E0,3.7520847E0,1.7290617E1,8.477555E0,1.3486844E1,2.6147578E0,1.1721262E0,1.1157007E0,1.91162E1,3.2553818E0,1.1725119E0,2.2054346E0,7.2726755E0,1.0529317E0,2.521945E0,1.2301396E0,1.4291139E1,2.9994783E0,4.587799E0,3.8897555E0,1.1394481E1,2.0923638E0,1.1174239E0,1.7998775E1,1.6117501E0,1.6436318E0,1.0792507E0,1.1261837E0,1.3425069E0,1.1794382E0,4.5248055E0,9.766334E0,1.349835E0,1.6496432E0,1.1521862E0,3.4356132E0,1.8514656E0,2.03829E0],"tree_param":{"num_deleted":"0","num_feature":"13","num_nodes":"57","size_leaf_vector":"1"}},{"base_weights":[1.9297233E-2,-5.165553E-1,5.99948E-1,-6.46721E-1,1.9813518E-1,4.278067E-1,1.0338504E0,-2.529418E-1,-9.286229E-1,-1.8183032E-1,1.0766186E-1,5.7100147E-1,4.6319693E-2,-2.9514948E-2,1.2004031E-1,-3.9394483E-1,5.818335E-2,-1.0583526E-2,-1.023198E0,3.4607714E-1,-6.55831E-1,6.858959E-1,-3.1141174E-1,5.99668E-1,-4.0775284E-1,-6.990498E-1,-9.588424E-2,3.0431887E-2,-3.3945702E-2,-1.0992539E0,-4.390708E-1,-8.033006E-3,5.6707885E-2,-8.7627314E-2,-1.1906264E-3,1.9513957E-1,8.239883E-1,3.5470203E-2,-7.64856E-2,7.669516E-1,1.5134113E-2,8.057203E-2,-9.110903E-2,2.0009158E-2,-9.256866E-2,6.1985638E-2,-2.926281E-2,-2.3861628E-2,-1.13945685E-1,1.3575583E-2,-8.515926E-2,6.0889572E-2,-3.5651773E-2,9.522546E-2,2.3498679E-2,1.01388685E-1,1.3967024E-2,-4.2591423E-2,6.292728E-2],"categories":[],"categories_nodes":[],"categories_segments":[],"categories_sizes":[],"default_left":[0,0,0,0,0,0,0,0,0,0,0,0,0,0,0,0,0,0,0,0,0,0,0,0,0,0,0,0,0,0,0,0,0,0,0,0,0,0,0,0,0,0,0,0,0,0,0,0,0,0,0,0,0,0,0,0,0,0,0],"id":10,"left_children":[1,3,5,7,9,11,13,15,17,19,-1,21,23,-1,-1,25,-1,27,29,31,33,35,37,39,41,43,45,-1,-1,47,49,-1,-1,-1,-1,51,53,-1,-1,55,-1,57,-1,-1,-1,-1,-1,-1,-1,-1,-1,-1,-1,-1,-1,-1,-1,-1,-1],"loss_changes":[2.9745914E1,4.7552004E0,2.9836845E0,4.461794E0,3.0091672E0,1.8606548E0,3.0818443E0,2.4687352E0,2.0975342E0,1.9133177E0,0E0,2.7511454E0,2.8868415E0,0E0,0E0,1.4674299E0,0E0,4.42828E-1,4.9494362E-1,4.0769595E-1,5.4264486E-1,1.3611631E0,1.3499613E0,2.6977193E-1,1.639487E0,1.8519619E0,1.5464972E0,0E0,0E0,3.7875366E-1,1.111578E0,0E0,0E0,0E0,0E0,1.641815E0,1.0768738E0,0E0,0E0,4.0066934E-1,0E0,1.4221065E0,0E0,0E0,0E0,0E0,0E0,0E0,0E0,0E0,0E0,0E0,0E0,0E0,0E0,0E0,0E0,0E0,0E0],"parents":[2147483647,0,0,1,1,2,2,3,3,4,4,5,5,6,6,7,7,8,8,9,9,11,11,12,12,15,15,17,17,18,18,19,19,20,20,21,21,22,22,23,23,24,24,25,25,26,26,29,29,30,30,35,35,36,36,39,39,41,41],"right_children":[2,4,6,8,10,12,14,16,18,20,-1,22,24,-1,-1,26,-1,28,30,32,34,36,38,40,42,44,46,-1,-1,48,50,-1,-1,-1,-1,52,54,-1,-1,56,-1,58,-1,-1,-1,-1,-1,-1,-1,-1,-1,-1,-1,-1,-1,-1,-1,-1,-1],"split_conditions":[3.6E1,4E0,4E1,3E0,1.3E1,9.736842E-1,6.4E1,3E1,8E0,6.2E2,1.0766186E-1,1.399E3,3E0,-2.9514948E-2,1.2004031E-1,2.3E1,5.818335E-2,2.64E2,2.6E1,1.8E1,2.027E3,4.3E1,1.2E1,2.4E1,5.4E1,2.44E2,1E1,3.0431887E-2,-3.3945702E-2,1.39E2,2.8E1,-8.033006E-3,5.6707885E-2,-8.7627314E-2,-1.1906264E-3,8.5365856E-1,2E1,3.5470203E-2,-7.64856E-2,3.78E2,1.5134113E-2,4.2E1,-9.110903E-2,2.0009158E-2,-9.256866E-2,6.1985638E-2,-2.926281E-2,-2.3861628E-2,-1.13945685E-1,1.3575583E-2,-8.515926E-2,6.0889572E-2,-3.5651773E-2,9.522546E-2,2.3498679E-2,1.01388685E-1,1.3967024E-2,-4.2591423E-2,6.292728E-2],"split_indices":[0,6,1,6,1,3,0,9,5,12,0,12,6,0,0,0,0,12,0,9,12,0,5,9,0,12,5,0,0,12,0,0,0,0,0,3,5,0,0,12,0,0,0,0,0,0,0,0,0,0,0,0,0,0,0,0,0,0,0],"split_type":[0,0,0,0,0,0,0,0,0,0,0,0,0,0,0,0,0,0,0,0,0,0,0,0,0,0,0,0,0,0,0,0,0,0,0,0,0,0,0,0,0,0,0,0,0,0,0,0,0,0,0,0,0,0,0,0,0,0,0],"sum_hessian":[9.360597E1,4.8738304E1,4.4867672E1,4.130972E1,7.4285827E0,3.3545273E1,1.1322402E1,1.8026451E1,2.328327E1,5.7392397E0,1.6893431E0,2.4028984E1,9.516287E0,1.174936E0,1.0147466E1,1.5873345E1,2.1531057E0,2.278436E0,2.1004833E1,2.8429022E0,2.8963373E0,2.145778E1,2.5712023E0,4.1447315E0,5.3715553E0,7.1791725E0,8.694173E0,1.2020825E0,1.0763533E0,1.7804708E1,3.200125E0,1.1877466E0,1.6551555E0,1.8888679E0,1.0074695E0,5.2419405E0,1.6215841E1,1.1295878E0,1.4416146E0,2.500883E0,1.6438485E0,3.152757E0,2.2187984E0,1.4688598E0,5.710313E0,1.410887E0,7.2832856E0,1.1041025E0,1.6700605E1,1.6173491E0,1.5827758E0,2.9360645E0,2.3058758E0,1.2809584E1,3.4062579E0,1.3522416E0,1.1486416E0,1.7558088E0,1.396948E0],"tree_param":{"num_deleted":"0","num_feature":"13","num_nodes":"59","size_leaf_vector":"1"}},{"base_weights":[1.89603E-2,-4.9328172E-1,5.5392915E-1,-6.224305E-1,1.8881072E-1,3.1525216E-1,8.5392725E-1,-6.809373E-1,7.726616E-2,-1.7230038E-1,1.0231258E-1,5.173494E-1,-4.691946E-2,9.5936394E-1,-2.9450951E-2,-1.1312121E-2,-7.7208465E-1,2.7409908E-1,-6.9479674E-2,1.4933874E-1,1.0067539E0,2.222257E-1,-6.083739E-1,1.1374011E-1,4.21785E-2,-3.5438415E-2,3.117521E-2,-5.4970884E-1,7.02665E-2,-1.1000738E0,-3.8947603E-1,8.3142124E-2,-1.8908082E-1,4.4528177E-1,-6.551927E-1,5.0329026E-3,1.2467518E-1,-2.741766E-1,6.202515E-1,-1.0466768E-1,3.2913515E-3,-3.5923917E-2,4.824238E-2,-8.874216E-2,4.8340624E-3,-3.1156344E-2,-1.1414611E-1,2.765506E-2,-6.134809E-2,-3.649346E-2,8.140164E-3,9.24678E-2,-2.011516E-3,4.7895163E-3,-9.918501E-2,1.7358882E-2,-5.1573504E-2,-2.5440568E-2,1.0751845E-1],"categories":[],"categories_nodes":[],"categories_segments":[],"categories_sizes":[],"default_left":[0,0,0,0,0,0,0,0,0,0,0,0,0,0,0,0,0,0,0,0,0,0,0,0,0,0,0,0,0,0,0,0,0,0,0,0,0,0,0,0,0,0,0,0,0,0,0,0,0,0,0,0,0,0,0,0,0,0,0],"id":11,"left_children":[1,3,5,7,9,11,13,15,-1,17,-1,19,21,23,25,27,29,31,-1,33,35,37,39,-1,41,-1,-1,43,-1,45,47,-1,49,51,53,-1,-1,55,57,-1,-1,-1,-1,-1,-1,-1,-1,-1,-1,-1,-1,-1,-1,-1,-1,-1,-1,-1,-1],"loss_changes":[2.5400257E1,4.2904587E0,2.9760227E0,3.7960815E0,2.679503E0,1.9877934E0,1.8441591E0,2.3704548E0,0E0,1.7425821E0,0E0,2.9657378E0,1.7256407E0,2.8010483E0,4.4852868E-1,2.5716472E0,3.8753872E0,1.2686918E0,0E0,2.9226148E0,1.6018157E0,1.720453E0,1.0682561E0,0E0,8.580528E-1,0E0,0E0,8.1081665E-1,0E0,2.2909737E-1,2.762334E0,0E0,1.8030736E-1,1.9537424E0,8.4663415E-1,0E0,0E0,5.4222184E-1,2.1283975E0,0E0,0E0,0E0,0E0,0E0,0E0,0E0,0E0,0E0,0E0,0E0,0E0,0E0,0E0,0E0,0E0,0E0,0E0,0E0,0E0],"parents":[2147483647,0,0,1,1,2,2,3,3,4,4,5,5,6,6,7,7,9,9,11,11,12,12,13,13,14,14,15,15,16,16,17,17,19,19,20,20,21,21,22,22,24,24,27,27,29,29,30,30,32,32,33,33,34,34,37,37,38,38],"right_children":[2,4,6,8,10,12,14,16,-1,18,-1,20,22,24,26,28,30,32,-1,34,36,38,40,-1,42,-1,-1,44,-1,46,48,-1,50,52,54,-1,-1,56,58,-1,-1,-1,-1,-1,-1,-1,-1,-1,-1,-1,-1,-1,-1,-1,-1,-1,-1,-1,-1],"split_conditions":[3.5E1,4E0,3.4E1,3.5E1,1.3E1,2.4E1,5E0,8E0,7.726616E-2,1.4E1,1.0231258E-1,2.2E1,5E1,1.146E3,2E1,1E0,1E1,8.611111E-1,-6.9479674E-2,5.4E1,4E1,4.2E1,2.6E1,1.1374011E-1,2.4E1,-3.5438415E-2,3.117521E-2,3E0,7.02665E-2,1.39E2,9.375E-1,8.3142124E-2,2.7E1,1.4E1,2.69E2,5.0329026E-3,1.2467518E-1,2E0,1.4E1,-1.0466768E-1,3.2913515E-3,-3.5923917E-2,4.824238E-2,-8.874216E-2,4.8340624E-3,-3.1156344E-2,-1.1414611E-1,2.765506E-2,-6.134809E-2,-3.649346E-2,8.140164E-3,9.24678E-2,-2.011516E-3,4.7895163E-3,-9.918501E-2,1.7358882E-2,-5.1573504E-2,-2.5440568E-2,1.0751845E-1],"split_indices":[0,6,1,9,1,9,6,5,0,5,0,9,0,12,9,2,1,3,0,0,0,0,9,0,9,0,0,5,0,12,3,0,9,5,12,0,0,6,5,0,0,0,0,0,0,0,0,0,0,0,0,0,0,0,0,0,0,0,0],"split_type":[0,0,0,0,0,0,0,0,0,0,0,0,0,0,0,0,0,0,0,0,0,0,0,0,0,0,0,0,0,0,0,0,0,0,0,0,0,0,0,0,0,0,0,0,0,0,0,0,0,0,0,0,0,0,0,0,0,0,0],"sum_hessian":[9.0693214E1,4.6370537E1,4.4322678E1,3.9061935E1,7.308599E0,2.5826273E1,1.8496403E1,3.798101E1,1.0809255E0,5.654627E0,1.6539724E0,1.6301386E1,9.524887E0,1.6447298E1,2.0491042E0,4.6851435E0,3.3295868E1,3.3057415E0,2.3488853E0,1.0049641E1,6.251745E0,6.846884E0,2.6780033E0,1.357259E1,2.8747096E0,1.0297886E0,1.0193156E0,2.8021612E0,1.8829823E0,1.6917896E1,1.6377972E1,1.1395484E0,2.166193E0,7.6735096E0,2.376131E0,1.4967387E0,4.755007E0,3.185371E0,3.6615126E0,1.2152576E0,1.4627455E0,1.5999081E0,1.2748014E0,1.481636E0,1.3205252E0,1.2689954E0,1.56489E1,4.063002E0,1.2314969E1,1.1011095E0,1.0650835E0,3.2937865E0,4.3797235E0,1.0470878E0,1.3290434E0,1.2148467E0,1.9705243E0,1.4036434E0,2.2578692E0],"tree_param":{"num_deleted":"0","num_feature":"13","num_nodes":"59","size_leaf_vector":"1"}},{"base_weights":[1.9291475E-2,-4.622232E-1,5.176915E-1,-5.86922E-1,1.8384567E-1,3.8807577E-1,1.0811838E-1,-2.2442526E-1,-8.6065805E-1,-1.601067E-1,9.752227E-2,5.901292E-1,1.3062853E-1,-3.572353E-1,5.2207883E-2,-1.3789096E-2,-9.589305E-1,3.3566004E-1,-6.208137E-1,9.5447016E-1,2.1525739E-1,9.539302E-2,-1.18465975E-1,-6.2123376E-1,5.3545758E-2,3.159535E-2,-3.4486745E-2,-1.048261E0,-3.3256936E-1,-5.919352E-3,5.3312894E-2,-3.7141552E-3,-8.2084246E-2,-3.5803828E-3,1.0737578E0,-3.589346E-1,3.9831713E-1,-4.9454778E-1,4.688196E-1,1.4744026E-2,-9.14619E-2,3.683231E-2,-7.930242E-2,-1.8060384E-2,-1.09399416E-1,1.5782626E-2,-7.468116E-2,3.8558457E-2,1.15006566E-1,-6.3922726E-2,9.2033865E-3,-3.1021683E-2,6.511367E-2,3.328136E-2,-6.701487E-2,1.0459206E-2,9.071473E-2],"categories":[],"categories_nodes":[],"categories_segments":[],"categories_sizes":[],"default_left":[0,0,0,0,0,0,0,0,0,0,0,0,0,0,0,0,0,0,0,0,0,0,0,0,0,0,0,0,0,0,0,0,0,0,0,0,0,0,0,0,0,0,0,0,0,0,0,0,0,0,0,0,0,0,0,0,0],"id":12,"left_children":[1,3,5,7,9,11,-1,13,15,17,-1,19,21,23,-1,25,27,29,31,33,35,-1,37,39,41,-1,-1,43,45,-1,-1,-1,-1,-1,47,49,51,53,55,-1,-1,-1,-1,-1,-1,-1,-1,-1,-1,-1,-1,-1,-1,-1,-1,-1,-1],"loss_changes":[2.1565567E1,3.7917805E0,2.804163E0,3.633772E0,2.377064E0,1.8706775E0,0E0,1.9657221E0,1.7861519E0,1.7035956E0,0E0,2.621049E0,3.7530346E0,1.7498646E0,0E0,4.6514797E-1,7.345352E-1,3.2802597E-1,4.06641E-1,1.2437639E0,1.3508196E0,0E0,3.4379778E0,2.32588E0,2.1877248E0,0E0,0E0,4.5624924E-1,9.062469E-1,0E0,0E0,0E0,0E0,0E0,3.6462784E-2,4.7645342E-1,1.8477149E0,1.5794032E0,8.9178956E-1,0E0,0E0,0E0,0E0,0E0,0E0,0E0,0E0,0E0,0E0,0E0,0E0,0E0,0E0,0E0,0E0,0E0,0E0],"parents":[2147483647,0,0,1,1,2,2,3,3,4,4,5,5,7,7,8,8,9,9,11,11,12,12,13,13,15,15,16,16,17,17,18,18,19,19,20,20,22,22,23,23,24,24,27,27,28,28,34,34,35,35,36,36,37,37,38,38],"right_children":[2,4,6,8,10,12,-1,14,16,18,-1,20,22,24,-1,26,28,30,32,34,36,-1,38,40,42,-1,-1,44,46,-1,-1,-1,-1,-1,48,50,52,54,56,-1,-1,-1,-1,-1,-1,-1,-1,-1,-1,-1,-1,-1,-1,-1,-1,-1,-1],"split_conditions":[3.5E1,4E0,4.6E1,3E0,1.3E1,3E0,1.0811838E-1,3E1,8E0,6.2E2,9.752227E-2,7.08E2,8.552632E-1,1.7E1,5.2207883E-2,1.8E1,2.6E1,1.8E1,8E0,8.367347E-1,2.2E1,9.539302E-2,6.31E2,8.684211E-1,9.94E2,3.159535E-2,-3.4486745E-2,1.2E1,2.8E1,-5.919352E-3,5.3312894E-2,-3.7141552E-3,-8.2084246E-2,-3.5803828E-3,3.8E1,9.655172E-1,4.2E1,1.6E1,4E0,1.4744026E-2,-9.14619E-2,3.683231E-2,-7.930242E-2,-1.8060384E-2,-1.09399416E-1,1.5782626E-2,-7.468116E-2,3.8558457E-2,1.15006566E-1,-6.3922726E-2,9.2033865E-3,-3.1021683E-2,6.511367E-2,3.328136E-2,-6.701487E-2,1.0459206E-2,9.071473E-2],"split_indices":[0,6,1,6,1,6,0,9,5,12,0,12,3,5,0,0,0,9,5,3,9,0,12,3,12,0,0,5,0,0,0,0,0,0,0,3,0,9,6,0,0,0,0,0,0,0,0,0,0,0,0,0,0,0,0,0,0],"split_type":[0,0,0,0,0,0,0,0,0,0,0,0,0,0,0,0,0,0,0,0,0,0,0,0,0,0,0,0,0,0,0,0,0,0,0,0,0,0,0,0,0,0,0,0,0,0,0,0,0,0,0,0,0,0,0,0,0],"sum_hessian":[8.7864334E1,4.47261E1,4.3138233E1,3.756682E1,7.159283E0,3.6444E1,6.694232E0,1.6945925E1,2.0620892E1,5.5463753E0,1.6129081E0,1.9694695E1,1.6749306E1,1.4829139E1,2.1167867E0,2.2626529E0,1.8358238E1,2.8022733E0,2.7441018E0,9.203558E0,1.0491137E1,3.2332497E0,1.3516056E1,8.715553E0,6.1135855E0,1.1565013E0,1.1061517E0,1.5477317E1,2.8809211E0,1.16767E0,1.6346034E0,1.0030221E0,1.7410796E0,1.0647031E0,8.138855E0,2.3038967E0,8.18724E0,8.335888E0,5.180168E0,2.5450177E0,6.1705356E0,4.8683324E0,1.2452531E0,1.022742E0,1.4454576E1,1.6026471E0,1.278274E0,1.4165844E0,6.72227E0,1.1633685E0,1.1405282E0,2.0933995E0,6.09384E0,1.3027183E0,7.0331697E0,3.5057166E0,1.6744518E0],"tree_param":{"num_deleted":"0","num_feature":"13","num_nodes":"57","size_leaf_vector":"1"}},{"base_weights":[1.9955823E-2,-4.3692103E-1,4.8814246E-1,-5.575693E-1,1.7533484E-1,3.6408904E-1,1.0500814E-1,-2.0964107E-1,-8.309462E-1,-1.5237358E-1,9.3196936E-2,6.709187E-1,2.0922555E-1,-3.3519766E-1,4.9024794E-2,-1.3405798E-2,-9.313749E-1,3.1488818E-1,-5.950729E-1,8.922103E-2,1.205763E-1,7.020672E-2,5.8528435E-1,-7.8536737E-1,-1.0568769E-1,2.962251E-2,-3.3605218E-2,-1.0238706E0,-3.184487E-1,-6.1245495E-3,5.091202E-2,-3.5290811E-3,-7.925941E-2,5.545759E-1,-5.948586E-2,-4.3149132E-2,6.0374105E-1,-1.105692E-2,7.769145E-1,2.0045643E-3,-9.976389E-2,9.489287E-3,-8.1944026E-2,-1.7046038E-2,-1.0725366E-1,1.4773312E-2,-7.211112E-2,7.668565E-2,8.270891E-3,4.2133823E-2,-4.3191247E-2,9.31493E-2,-9.992384E-3,2.4838706E-2,8.935175E-2],"categories":[],"categories_nodes":[],"categories_segments":[],"categories_sizes":[],"default_left":[0,0,0,0,0,0,0,0,0,0,0,0,0,0,0,0,0,0,0,0,0,0,0,0,0,0,0,0,0,0,0,0,0,0,0,0,0,0,0,0,0,0,0,0,0,0,0,0,0,0,0,0,0,0,0],"id":13,"left_children":[1,3,5,7,9,11,-1,13,15,17,-1,19,21,23,-1,25,27,29,31,-1,33,35,37,39,41,-1,-1,43,45,-1,-1,-1,-1,47,-1,49,51,-1,53,-1,-1,-1,-1,-1,-1,-1,-1,-1,-1,-1,-1,-1,-1,-1,-1],"loss_changes":[1.8656645E1,3.3602104E0,2.619173E0,3.3579054E0,2.1334012E0,1.608294E0,0E0,1.7177019E0,1.6672058E0,1.5244064E0,0E0,1.3405604E0,1.3134779E0,1.5269098E0,0E0,4.2450294E-1,7.060547E-1,3.0868828E-1,3.772689E-1,0E0,1.74774E0,1.2388659E0,1.0002389E0,8.9297867E-1,1.7207047E0,0E0,0E0,4.553852E-1,8.270747E-1,0E0,0E0,0E0,0E0,2.7311218E-1,0E0,3.3371277E0,9.188868E-1,0E0,1.1706853E-1,0E0,0E0,0E0,0E0,0E0,0E0,0E0,0E0,0E0,0E0,0E0,0E0,0E0,0E0,0E0,0E0],"parents":[2147483647,0,0,1,1,2,2,3,3,4,4,5,5,7,7,8,8,9,9,11,11,12,12,13,13,15,15,16,16,17,17,18,18,20,20,21,21,22,22,23,23,24,24,27,27,28,28,33,33,35,35,36,36,38,38],"right_children":[2,4,6,8,10,12,-1,14,16,18,-1,20,22,24,-1,26,28,30,32,-1,34,36,38,40,42,-1,-1,44,46,-1,-1,-1,-1,48,-1,50,52,-1,54,-1,-1,-1,-1,-1,-1,-1,-1,-1,-1,-1,-1,-1,-1,-1,-1],"split_conditions":[3.5E1,4E0,4.6E1,3E0,1.3E1,2E0,1.0500814E-1,3E1,8E0,6.2E2,9.3196936E-2,1.9E1,4E0,1E1,4.9024794E-2,2.64E2,2.6E1,2.43E2,8E0,8.922103E-2,9.4285715E-1,6E0,1.7E1,4E0,1.023E3,2.962251E-2,-3.3605218E-2,1.39E2,2.8E1,-6.1245495E-3,5.091202E-2,-3.5290811E-3,-7.925941E-2,5E2,-5.948586E-2,3E0,8.69E2,-1.105692E-2,2.44E2,2.0045643E-3,-9.976389E-2,9.489287E-3,-8.1944026E-2,-1.7046038E-2,-1.0725366E-1,1.4773312E-2,-7.211112E-2,7.668565E-2,8.270891E-3,4.2133823E-2,-4.3191247E-2,9.31493E-2,-9.992384E-3,2.4838706E-2,8.935175E-2],"split_indices":[0,6,1,6,1,6,0,9,5,12,0,5,6,1,0,12,0,12,5,0,3,2,9,5,12,0,0,12,0,0,0,0,0,12,0,6,12,0,12,0,0,0,0,0,0,0,0,0,0,0,0,0,0,0,0],"split_type":[0,0,0,0,0,0,0,0,0,0,0,0,0,0,0,0,0,0,0,0,0,0,0,0,0,0,0,0,0,0,0,0,0,0,0,0,0,0,0,0,0,0,0,0,0,0,0,0,0,0,0,0,0,0,0],"sum_hessian":[8.522277E1,4.316615E1,4.205662E1,3.613489E1,7.0312543E0,3.58011E1,6.2555213E0,1.667693E1,1.9457964E1,5.4635396E0,1.5677148E0,1.0890844E1,2.4910257E1,1.4582052E1,2.0948772E0,2.2527692E0,1.7205194E1,2.7984893E0,2.6650503E0,7.3244905E0,3.5663536E0,1.9053413E1,5.8568435E0,4.106153E0,1.0475899E1,1.1913588E0,1.0614104E0,1.4366681E1,2.8385139E0,1.186156E0,1.6123333E0,1.0025256E0,1.6625247E0,2.3597279E0,1.2066256E0,1.6472712E1,2.5807018E0,1.3559783E0,4.5008655E0,1.0453587E0,3.0607946E0,8.854606E0,1.6212931E0,1.0179795E0,1.33487015E1,1.6089102E0,1.2296035E0,1.1963621E0,1.1633658E0,7.4672203E0,9.00549E0,1.5397472E0,1.0409545E0,1.3792628E0,3.1216025E0],"tree_param":{"num_deleted":"0","num_feature":"13","num_nodes":"55","size_leaf_vector":"1"}},{"base_weights":[2.0002352E-2,-3.2382426E-1,5.801276E-1,-4.5079145E-1,2.4093996E-1,1.6139871E-1,7.179239E-1,-8.377187E-2,-8.233419E-1,6.789832E-1,-2.4712294E-1,7.8700416E-2,-1.4164455E-1,-1.015488E-2,7.736423E-1,-1.7389359E-1,8.767653E-2,-1.3391227E-2,-9.1770566E-1,8.772948E-1,8.656488E-3,5.6181412E-2,-5.516915E-1,3.639326E-1,-5.282899E-1,8.5640526E-1,9.4667606E-2,-5.6199502E-2,-8.213584E-2,2.9629264E-2,-3.263791E-2,-9.7067267E-1,-3.1086877E-1,2.0952431E-2,1.0706701E-1,-9.007904E-2,1.6305206E-2,7.755189E-2,-3.162157E-2,-5.9132483E-3,-6.55337E-1,-6.9016763E-3,9.194586E-1,5.214938E-2,-4.4348966E-2,-8.843529E-2,4.7016665E-3,-2.4926627E-2,-1.0083785E-1,-5.8336377E-2,1.1775619E-2,-8.572125E-2,-1.1555209E-2,1.00216724E-1,4.9409486E-2],"categories":[],"categories_nodes":[],"categories_segments":[],"categories_sizes":[],"default_left":[0,0,0,0,0,0,0,0,0,0,0,0,0,0,0,0,0,0,0,0,0,0,0,0,0,0,0,0,0,0,0,0,0,0,0,0,0,0,0,0,0,0,0,0,0,0,0,0,0,0,0,0,0,0,0],"id":14,"left_children":[1,3,5,7,9,11,13,15,17,19,21,-1,23,-1,25,27,-1,29,31,33,-1,-1,35,37,39,41,43,45,-1,-1,-1,47,49,-1,-1,-1,-1,-1,-1,-1,51,-1,53,-1,-1,-1,-1,-1,-1,-1,-1,-1,-1,-1,-1],"loss_changes":[1.6327524E1,3.8782802E0,1.7440205E0,5.847438E0,2.3700786E0,1.8691695E0,1.1727076E0,2.1356668E0,1.6202383E0,5.9318924E-1,1.6910119E0,0E0,1.5788461E0,0E0,1.1862946E0,1.613482E0,0E0,4.111035E-1,3.126831E-1,3.1254745E-1,0E0,0E0,1.2888647E0,1.2714837E0,2.2513688E-1,1.2292347E0,1.0523876E0,1.7086484E0,0E0,0E0,0E0,2.1406937E-1,4.1975904E-1,0E0,0E0,0E0,0E0,0E0,0E0,0E0,2.6977372E-1,0E0,1.6533375E-1,0E0,0E0,0E0,0E0,0E0,0E0,0E0,0E0,0E0,0E0,0E0,0E0],"parents":[2147483647,0,0,1,1,2,2,3,3,4,4,5,5,6,6,7,7,8,8,9,9,10,10,12,12,14,14,15,15,17,17,18,18,19,19,22,22,23,23,24,24,25,25,26,26,27,27,31,31,32,32,40,40,42,42],"right_children":[2,4,6,8,10,12,14,16,18,20,22,-1,24,-1,26,28,-1,30,32,34,-1,-1,36,38,40,42,44,46,-1,-1,-1,48,50,-1,-1,-1,-1,-1,-1,-1,52,-1,54,-1,-1,-1,-1,-1,-1,-1,-1,-1,-1,-1,-1],"split_conditions":[4.3E1,4E0,2E1,3E0,4.87E2,1.6E1,2.1E1,3.4E1,8E0,1E0,7.7272725E-1,7.8700416E-2,3E0,-1.015488E-2,1E0,1.34E3,8.767653E-2,1.8E1,2E0,5E0,8.656488E-3,5.6181412E-2,2E1,4E2,9.0625E-1,7.692308E-1,1.4E1,5E0,-8.213584E-2,2.9629264E-2,-3.263791E-2,1.39E2,7.01E2,2.0952431E-2,1.0706701E-1,-9.007904E-2,1.6305206E-2,7.755189E-2,-3.162157E-2,-5.9132483E-3,2.39E2,-6.9016763E-3,1.146E3,5.214938E-2,-4.4348966E-2,-8.843529E-2,4.7016665E-3,-2.4926627E-2,-1.0083785E-1,-5.8336377E-2,1.1775619E-2,-8.572125E-2,-1.1555209E-2,1.00216724E-1,4.9409486E-2],"split_indices":[0,6,9,6,12,9,1,9,5,11,3,0,6,0,11,12,0,0,2,6,0,0,0,12,3,3,5,0,0,0,0,12,12,0,0,0,0,0,0,0,12,0,12,0,0,0,0,0,0,0,0,0,0,0,0],"split_type":[0,0,0,0,0,0,0,0,0,0,0,0,0,0,0,0,0,0,0,0,0,0,0,0,0,0,0,0,0,0,0,0,0,0,0,0,0,0,0,0,0,0,0,0,0,0,0,0,0,0,0,0,0,0,0],"sum_hessian":[8.280499E1,5.1570744E1,3.1234251E1,4.2269707E1,9.301038E0,8.271249E0,2.2963003E1,2.190992E1,2.0359785E1,4.6955433E0,4.605495E0,2.1779876E0,6.0932617E0,1.4095583E0,2.1553444E1,2.0779282E1,1.1306391E0,2.2436664E0,1.8116117E1,3.1576514E0,1.5378915E0,1.0286822E0,3.576813E0,2.6659763E0,3.4272854E0,1.897873E1,2.5747142E0,1.8502716E1,2.2765653E0,1.1545981E0,1.0890683E0,1.6110382E1,2.0057354E0,1.1769338E0,1.9807178E0,2.228203E0,1.3486097E0,1.5735408E0,1.0924356E0,1.0426056E0,2.3846798E0,1.2045919E0,1.7774137E1,1.4531488E0,1.1215653E0,1.2118096E0,1.7290907E1,1.1782541E0,1.4932129E1,1.0054905E0,1.000245E0,1.3075886E0,1.0770912E0,1.3745425E1,4.0287127E0],"tree_param":{"num_deleted":"0","num_feature":"13","num_nodes":"55","size_leaf_vector":"1"}},{"base_weights":[1.8614754E-2,-3.905248E-1,4.309017E-1,-5.035723E-1,1.6608058E-1,3.1348544E-1,1.0027684E-1,-5.599207E-1,6.8743244E-2,-1.4360654E-1,8.753973E-2,6.0242015E-1,1.7192468E-1,-7.946245E-1,-3.0888E-1,2.3798572E-1,-6.076737E-2,8.209286E-1,8.153788E-2,3.219409E-1,-1.1664609E-1,1.9677803E-1,-1.0109413E0,2.9405984E-1,-5.254228E-1,7.577643E-2,-1.8918358E-1,8.733554E-1,2.499553E-2,4.9913865E-1,-5.727137E-2,-1.5492398E-1,4.9716187E-1,7.058496E-2,-3.490134E-1,-5.7801552E-2,7.823666E-2,-2.394799E-2,-1.0625678E-1,-2.8939335E-2,7.042303E-2,-3.218324E-2,-9.98294E-2,-3.5535663E-2,7.491834E-3,4.2083383E-2,1.0198108E-1,5.5892835E-3,7.4476324E-2,-5.8653545E-2,6.2173147E-2,5.9898686E-2,-9.1052875E-3,-8.19632E-2,-1.5574678E-2],"categories":[],"categories_nodes":[],"categories_segments":[],"categories_sizes":[],"default_left":[0,0,0,0,0,0,0,0,0,0,0,0,0,0,0,0,0,0,0,0,0,0,0,0,0,0,0,0,0,0,0,0,0,0,0,0,0,0,0,0,0,0,0,0,0,0,0,0,0,0,0,0,0,0,0],"id":15,"left_children":[1,3,5,7,9,11,-1,13,-1,15,-1,17,19,21,23,25,-1,27,29,31,33,35,37,39,41,-1,43,45,-1,47,-1,49,51,-1,53,-1,-1,-1,-1,-1,-1,-1,-1,-1,-1,-1,-1,-1,-1,-1,-1,-1,-1,-1,-1],"loss_changes":[1.3928329E1,2.6928916E0,2.4457612E0,2.714693E0,1.8286413E0,1.3508358E0,0E0,1.740058E0,0E0,1.2523496E0,0E0,1.2184472E0,1.1312857E0,3.7974873E0,2.4939566E0,1.0650861E0,0E0,1.6553879E-2,1.501063E0,1.488233E0,2.0382676E0,2.1956177E0,3.0063057E-1,1.4903457E0,9.8246384E-1,0E0,1.6174376E-1,2.0492077E-2,0E0,3.1212068E-1,0E0,2.141534E0,8.0853057E-1,0E0,5.9813124E-1,0E0,0E0,0E0,0E0,0E0,0E0,0E0,0E0,0E0,0E0,0E0,0E0,0E0,0E0,0E0,0E0,0E0,0E0,0E0,0E0],"parents":[2147483647,0,0,1,1,2,2,3,3,4,4,5,5,7,7,9,9,11,11,12,12,13,13,14,14,15,15,17,17,18,18,19,19,20,20,21,21,22,22,23,23,24,24,26,26,27,27,29,29,31,31,32,32,34,34],"right_children":[2,4,6,8,10,12,-1,14,-1,16,-1,18,20,22,24,26,-1,28,30,32,34,36,38,40,42,-1,44,46,-1,48,-1,50,52,-1,54,-1,-1,-1,-1,-1,-1,-1,-1,-1,-1,-1,-1,-1,-1,-1,-1,-1,-1,-1,-1],"split_conditions":[3.5E1,4E0,4.6E1,3.5E1,1.3E1,2E0,1.0027684E-1,1E1,6.8743244E-2,1.4E1,8.753973E-2,1.9E1,9.736842E-1,8E0,9.375E-1,8.611111E-1,-6.076737E-2,7.2E1,9.4285715E-1,4.3E1,1.2E1,6E0,1.39E2,2.5E1,9.94E2,7.577643E-2,2.7E1,2.8E1,2.499553E-2,4E0,-5.727137E-2,1.6E1,3.9E1,7.058496E-2,1.7E1,-5.7801552E-2,7.823666E-2,-2.394799E-2,-1.0625678E-1,-2.8939335E-2,7.042303E-2,-3.218324E-2,-9.98294E-2,-3.5535663E-2,7.491834E-3,4.2083383E-2,1.0198108E-1,5.5892835E-3,7.4476324E-2,-5.8653545E-2,6.2173147E-2,5.9898686E-2,-9.1052875E-3,-8.19632E-2,-1.5574678E-2],"split_indices":[0,6,1,9,1,6,0,1,0,5,0,5,3,5,3,3,0,0,3,0,5,0,12,0,12,0,9,1,0,2,0,5,1,0,9,0,0,0,0,0,0,0,0,0,0,0,0,0,0,0,0,0,0,0,0],"split_type":[0,0,0,0,0,0,0,0,0,0,0,0,0,0,0,0,0,0,0,0,0,0,0,0,0,0,0,0,0,0,0,0,0,0,0,0,0,0,0,0,0,0,0,0,0,0,0,0,0,0,0,0,0,0,0],"sum_hessian":[8.057349E1,4.04676E1,4.010589E1,3.3715256E1,6.7523446E0,3.4558483E1,5.5474033E0,3.2698128E1,1.0171285E0,5.2553887E0,1.496956E0,1.0293409E1,2.4265074E1,1.5779854E1,1.6918274E1,3.1513097E0,2.1040788E0,6.845648E0,3.4477615E0,1.5889256E1,8.375818E0,2.8425355E0,1.2937318E1,4.375948E0,1.2542326E1,1.0724432E0,2.0788665E0,5.7848883E0,1.0607597E0,2.2492056E0,1.198556E0,4.300703E0,1.1588552E1,1.3961852E0,6.9796333E0,1.2291615E0,1.6133739E0,1.1651438E0,1.1772174E1,1.9279549E0,2.4479933E0,9.942335E0,2.5999906E0,1.0639194E0,1.0149472E0,2.3615556E0,3.4233327E0,1.2396779E0,1.0095276E0,2.9217753E0,1.3789276E0,9.862888E0,1.7256641E0,1.0883881E0,5.8912454E0],"tree_param":{"num_deleted":"0","num_feature":"13","num_nodes":"55","size_leaf_vector":"1"}},{"base_weights":[2.0280829E-2,-4.9681774E-1,3.0938408E-1,-4.122668E-2,-7.565525E-1,1.2646055E-1,7.0000464E-1,1.673525E-1,-8.534088E-2,-9.86885E-1,-2.7841577E-1,1.360923E-2,8.2082015E-1,2.2813188E-1,9.3305075E-1,4.9770096E-1,-3.37044E-1,-2.4835719E-2,-1.0351552E-1,-8.392689E-2,1.4577633E-1,4.411194E-1,-1.8240337E-1,2.878978E-2,9.751021E-2,4.0797228E-1,-3.629934E-2,1.8266825E-2,9.982542E-1,9.158923E-2,1.6836889E-1,-5.412902E-1,1.6589224E-2,5.714469E-1,-4.698763E-2,-2.8320119E-2,5.585687E-1,9.624438E-2,-7.106863E-1,-5.6085214E-3,6.305522E-1,2.5243882E-2,1.0566481E-1,-3.2654226E-2,4.721167E-2,-8.217692E-2,7.2540194E-3,9.358974E-2,-4.911953E-3,9.903228E-2,1.7426375E-2,-2.1292547E-2,3.149041E-2,-2.978426E-2,-1.0908753E-1,3.7694375E-3,8.758136E-2],"categories":[],"categories_nodes":[],"categories_segments":[],"categories_sizes":[],"default_left":[0,0,0,0,0,0,0,0,0,0,0,0,0,0,0,0,0,0,0,0,0,0,0,0,0,0,0,0,0,0,0,0,0,0,0,0,0,0,0,0,0,0,0,0,0,0,0,0,0,0,0,0,0,0,0,0,0],"id":16,"left_children":[1,3,5,7,9,11,13,15,-1,17,19,21,23,25,27,29,31,-1,-1,-1,33,35,37,-1,-1,39,-1,-1,41,-1,43,45,-1,47,-1,-1,49,51,53,-1,55,-1,-1,-1,-1,-1,-1,-1,-1,-1,-1,-1,-1,-1,-1,-1,-1],"loss_changes":[1.2005258E1,3.3782792E0,3.5888257E0,2.094266E0,1.7398577E0,2.831029E0,1.567905E0,1.83429E0,0E0,1.6901493E-1,1.8686705E0,2.780188E0,1.3481307E-1,8.5793054E-1,3.321848E-1,7.3373806E-1,5.576332E-1,0E0,0E0,0E0,1.5870477E0,1.0446668E0,3.4242048E0,0E0,0E0,6.1280143E-1,0E0,0E0,1.4488697E-1,0E0,8.805642E-1,6.576437E-1,0E0,8.207841E-1,0E0,0E0,1.3710213E0,1.1355438E0,9.294152E-1,0E0,5.282408E-1,0E0,0E0,0E0,0E0,0E0,0E0,0E0,0E0,0E0,0E0,0E0,0E0,0E0,0E0,0E0,0E0],"parents":[2147483647,0,0,1,1,2,2,3,3,4,4,5,5,6,6,7,7,9,9,10,10,11,11,12,12,13,13,14,14,15,15,16,16,20,20,21,21,22,22,25,25,28,28,30,30,31,31,33,33,36,36,37,37,38,38,40,40],"right_children":[2,4,6,8,10,12,14,16,-1,18,20,22,24,26,28,30,32,-1,-1,-1,34,36,38,-1,-1,40,-1,-1,42,-1,44,46,-1,48,-1,-1,50,52,54,-1,56,-1,-1,-1,-1,-1,-1,-1,-1,-1,-1,-1,-1,-1,-1,-1,-1],"split_conditions":[2.6E1,1.2E1,3.4E1,1E0,9E0,4E0,6.4E1,1.6E1,-8.534088E-2,1.4E1,1.7E1,8.974359E-1,5E0,4E1,8.2608694E-1,2.43E2,2E0,-2.4835719E-2,-1.0351552E-1,-8.392689E-2,8.45E2,7.380952E-1,3E0,2.878978E-2,9.751021E-2,1E0,-3.629934E-2,1.8266825E-2,1.46E2,9.158923E-2,7E0,1.4E1,1.6589224E-2,3E0,-4.698763E-2,-2.8320119E-2,8.4615386E-1,3.5E1,1.7E1,-5.6085214E-3,2.2E1,2.5243882E-2,1.0566481E-1,-3.2654226E-2,4.721167E-2,-8.217692E-2,7.2540194E-3,9.358974E-2,-4.911953E-3,9.903228E-2,1.7426375E-2,-2.1292547E-2,3.149041E-2,-2.978426E-2,-1.0908753E-1,3.7694375E-3,8.758136E-2],"split_indices":[0,5,1,11,1,6,0,0,0,5,5,3,6,1,3,12,2,0,0,0,12,3,6,0,0,2,0,0,12,0,5,1,0,6,0,0,3,0,5,0,9,0,0,0,0,0,0,0,0,0,0,0,0,0,0,0,0],"split_type":[0,0,0,0,0,0,0,0,0,0,0,0,0,0,0,0,0,0,0,0,0,0,0,0,0,0,0,0,0,0,0,0,0,0,0,0,0,0,0,0,0,0,0,0,0,0,0,0,0,0,0,0,0,0,0,0,0],"sum_hessian":[7.8277306E1,2.7812527E1,5.0464783E1,1.0519461E1,1.7293064E1,3.527133E1,1.5193452E1,9.001661E0,1.5177995E0,1.0952772E1,6.3402925E0,3.1217312E1,4.054018E0,5.677182E0,9.516269E0,5.4472947E0,3.5543666E0,1.0489597E0,9.903812E0,2.3089552E0,4.0313373E0,9.420473E0,2.1796839E1,1.5536013E0,2.500417E0,4.5904493E0,1.0867329E0,1.0647134E0,8.451556E0,1.6152122E0,3.8320827E0,2.4735706E0,1.0807959E0,2.4258647E0,1.6054727E0,1.1174977E0,8.302976E0,1.4805407E1,6.991432E0,1.7305152E0,2.859934E0,1.0001783E0,7.4513774E0,1.4288855E0,2.4031973E0,1.4652808E0,1.0082899E0,1.2081815E0,1.2176832E0,3.1674871E0,5.135488E0,6.144181E0,8.661226E0,4.2067575E0,2.7846744E0,1.1745192E0,1.6854149E0],"tree_param":{"num_deleted":"0","num_feature":"13","num_nodes":"57","size_leaf_vector":"1"}},{"base_weights":[1.9479303E-2,-4.731629E-1,2.90485E-1,-4.119508E-2,-7.2929317E-1,1.176395E-1,6.6934216E-1,1.5614921E-1,-8.215055E-2,-9.648788E-1,-2.623762E-1,1.0986497E-2,7.842756E-1,7.8037655E-1,-1.2133986E-2,4.649025E-1,-3.205685E-1,-2.3727173E-2,-1.0157807E-1,-8.138131E-2,1.3927008E-1,4.086419E-1,-1.7184052E-1,2.7140006E-2,9.381378E-2,9.856809E-1,-6.7062914E-2,7.324941E-1,4.3652512E-2,-5.1753664E-1,1.5735412E-2,5.348401E-1,-4.4854574E-2,-5.9005205E-2,6.237043E-1,8.775493E-2,-6.7036206E-1,1.0460564E-1,3.2054193E-2,-4.2789172E-2,3.848604E-2,1.00057244E-1,1.1287533E-3,4.6042223E-2,-4.1106623E-2,-7.9192005E-2,6.884128E-3,8.707698E-2,-4.6471204E-3,-6.0728442E-2,3.221869E-2,9.511614E-2,1.1046216E-2,6.1495174E-2,-2.6336135E-3,-2.754116E-2,-1.0453979E-1],"categories":[],"categories_nodes":[],"categories_segments":[],"categories_sizes":[],"default_left":[0,0,0,0,0,0,0,0,0,0,0,0,0,0,0,0,0,0,0,0,0,0,0,0,0,0,0,0,0,0,0,0,0,0,0,0,0,0,0,0,0,0,0,0,0,0,0,0,0,0,0,0,0,0,0,0,0],"id":17,"left_children":[1,3,5,7,9,11,13,15,-1,17,19,21,23,25,-1,27,29,-1,-1,-1,31,33,35,-1,-1,37,39,41,43,45,-1,47,-1,49,51,53,55,-1,-1,-1,-1,-1,-1,-1,-1,-1,-1,-1,-1,-1,-1,-1,-1,-1,-1,-1,-1],"loss_changes":[1.0444842E1,3.043396E0,3.2232847E0,1.8837496E0,1.6584883E0,2.5395927E0,1.4629159E0,1.6119474E0,0E0,1.729536E-1,1.7083472E0,2.390254E0,1.3434339E-1,2.467102E0,0E0,6.939994E-1,5.0492716E-1,0E0,0E0,0E0,1.4072866E0,1.0774109E0,2.9790142E0,0E0,0E0,1.1336708E-1,7.562186E-1,7.3792076E-1,8.6492056E-1,6.045959E-1,0E0,7.155736E-1,0E0,1.0678024E0,1.1006014E0,9.61868E-1,8.737042E-1,0E0,0E0,0E0,0E0,0E0,0E0,0E0,0E0,0E0,0E0,0E0,0E0,0E0,0E0,0E0,0E0,0E0,0E0,0E0,0E0],"parents":[2147483647,0,0,1,1,2,2,3,3,4,4,5,5,6,6,7,7,9,9,10,10,11,11,12,12,13,13,15,15,16,16,20,20,21,21,22,22,25,25,26,26,27,27,28,28,29,29,31,31,33,33,34,34,35,35,36,36],"right_children":[2,4,6,8,10,12,14,16,-1,18,20,22,24,26,-1,28,30,-1,-1,-1,32,34,36,-1,-1,38,40,42,44,46,-1,48,-1,50,52,54,56,-1,-1,-1,-1,-1,-1,-1,-1,-1,-1,-1,-1,-1,-1,-1,-1,-1,-1,-1,-1],"split_conditions":[2.6E1,1.2E1,3.4E1,1E0,9E0,4E0,5E0,1.6E1,-8.215055E-2,1.4E1,1.7E1,8.974359E-1,5E0,1.146E3,-1.2133986E-2,2.5E1,2E0,-2.3727173E-2,-1.0157807E-1,-8.138131E-2,8.45E2,3.03E2,3E0,2.7140006E-2,9.381378E-2,2.7E1,2.4E1,4.73E2,2E0,1.4E1,1.5735412E-2,3E0,-4.4854574E-2,8.125E-1,8.7096775E-1,1E1,1.7E1,1.0460564E-1,3.2054193E-2,-4.2789172E-2,3.848604E-2,1.00057244E-1,1.1287533E-3,4.6042223E-2,-4.1106623E-2,-7.9192005E-2,6.884128E-3,8.707698E-2,-4.6471204E-3,-6.0728442E-2,3.221869E-2,9.511614E-2,1.1046216E-2,6.1495174E-2,-2.6336135E-3,-2.754116E-2,-1.0453979E-1],"split_indices":[0,5,1,11,1,6,6,0,0,5,5,3,6,12,0,9,2,0,0,0,12,12,6,0,0,9,9,12,1,1,0,6,0,3,3,5,5,0,0,0,0,0,0,0,0,0,0,0,0,0,0,0,0,0,0,0,0],"split_type":[0,0,0,0,0,0,0,0,0,0,0,0,0,0,0,0,0,0,0,0,0,0,0,0,0,0,0,0,0,0,0,0,0,0,0,0,0,0,0,0,0,0,0,0,0,0,0,0,0,0,0,0,0,0,0,0,0],"sum_hessian":[7.620384E1,2.6778725E1,4.9425114E1,1.0399924E1,1.6378801E1,3.4840424E1,1.4584688E1,8.939076E0,1.4608476E0,1.0177299E1,6.2015023E0,3.0911476E1,3.9289486E0,1.2800206E1,1.784482E0,5.440343E0,3.498734E0,1.0355915E0,9.141706E0,2.1809673E0,4.020535E0,9.346774E0,2.1564703E1,1.5445035E0,2.3844452E0,1.0172617E1,2.62759E0,2.8751168E0,2.5652258E0,2.4189253E0,1.0798088E0,2.457133E0,1.563402E0,3.1729405E0,6.1738334E0,1.4722313E1,6.84239E0,8.801045E0,1.3715717E0,1.4906154E0,1.1369747E0,1.8136207E0,1.0614963E0,1.3319199E0,1.233306E0,1.4090575E0,1.0098677E0,1.2416594E0,1.2154738E0,1.0580289E0,2.1149116E0,3.2481914E0,2.925642E0,1.8382128E0,1.28841E1,4.1774626E0,2.6649275E0],"tree_param":{"num_deleted":"0","num_feature":"13","num_nodes":"57","size_leaf_vector":"1"}},{"base_weights":[1.8379109E-2,-2.5599295E-1,4.6456602E-1,-3.7158066E-1,2.4153912E-1,7.815E-2,5.958215E-1,-7.79731E-2,-7.2017246E-1,6.2187415E-1,-2.0708756E-1,7.084495E-2,-2.1405147E-1,8.3958584E-1,3.30161E-1,-1.6116908E-1,8.045668E-2,9.249723E-3,-8.200004E-1,8.0805296E-1,6.9298237E-3,2.3975632E-1,-5.72557E-1,-4.517773E-1,4.7845226E-2,3.5369346E-1,1.0018058E0,-1.16880305E-1,7.653E-1,-5.6646E-2,-7.505446E-2,2.5274986E-2,-2.4832092E-2,-8.816314E-1,-2.1817345E-2,2.1422064E-2,9.6880086E-2,6.9440715E-2,-3.3367004E-2,-7.780274E-2,-8.230872E-3,1.6369237E-2,-6.892946E-1,6.691816E-2,-2.3619916E-2,1.099571E-1,2.0846523E-2,4.1201615E-1,-6.795485E-1,9.539373E-2,1.8324537E-2,-8.2251854E-2,3.6235861E-3,-2.0298623E-2,-9.24085E-2,-9.2724234E-2,1.5331636E-3,-3.1445976E-2,8.817563E-2,-1.05602406E-1,-6.1489795E-3],"categories":[],"categories_nodes":[],"categories_segments":[],"categories_sizes":[],"default_left":[0,0,0,0,0,0,0,0,0,0,0,0,0,0,0,0,0,0,0,0,0,0,0,0,0,0,0,0,0,0,0,0,0,0,0,0,0,0,0,0,0,0,0,0,0,0,0,0,0,0,0,0,0,0,0,0,0,0,0,0,0],"id":18,"left_children":[1,3,5,7,9,11,13,15,17,19,21,-1,23,25,27,29,-1,31,33,35,-1,37,39,41,-1,43,45,47,49,51,-1,-1,-1,53,-1,-1,-1,-1,-1,-1,-1,-1,55,-1,-1,-1,-1,57,59,-1,-1,-1,-1,-1,-1,-1,-1,-1,-1,-1,-1],"loss_changes":[9.327757E0,2.8055518E0,1.4242053E0,3.9063272E0,1.7512795E0,1.717765E0,1.1147728E0,1.7550129E0,1.2876205E0,4.9912977E-1,9.722627E-1,0E0,1.2990577E0,4.7811842E-1,2.4108236E0,1.2550082E0,0E0,2.5750703E-1,3.8159275E-1,1.6878343E-1,0E0,1.0151942E0,2.490089E-1,9.038757E-1,0E0,9.3768036E-1,3.4256315E-1,2.2898648E0,5.037172E-1,1.3793551E0,0E0,0E0,0E0,2.0735168E-1,0E0,0E0,0E0,0E0,0E0,0E0,0E0,0E0,7.0103276E-1,0E0,0E0,0E0,0E0,1.6777573E0,7.843313E-1,0E0,0E0,0E0,0E0,0E0,0E0,0E0,0E0,0E0,0E0,0E0,0E0],"parents":[2147483647,0,0,1,1,2,2,3,3,4,4,5,5,6,6,7,7,8,8,9,9,10,10,12,12,13,13,14,14,15,15,17,17,18,18,19,19,21,21,22,22,23,23,25,25,26,26,27,27,28,28,29,29,33,33,42,42,47,47,48,48],"right_children":[2,4,6,8,10,12,14,16,18,20,22,-1,24,26,28,30,-1,32,34,36,-1,38,40,42,-1,44,46,48,50,52,-1,-1,-1,54,-1,-1,-1,-1,-1,-1,-1,-1,56,-1,-1,-1,-1,58,60,-1,-1,-1,-1,-1,-1,-1,-1,-1,-1,-1,-1],"split_conditions":[4.3E1,4E0,2E1,3E0,4.87E2,1.6E1,2.4E1,3.4E1,8E0,1E0,1.2E1,7.084495E-2,1E0,2.2E1,3.4E1,1.34E3,8.045668E-2,1.8E1,2.1E1,5E0,6.9298237E-3,8.684211E-1,1.7E1,1.5E1,4.7845226E-2,6.1E2,8E0,5E1,2.7E1,5E0,-7.505446E-2,2.5274986E-2,-2.4832092E-2,1.39E2,-2.1817345E-2,2.1422064E-2,9.6880086E-2,6.9440715E-2,-3.3367004E-2,-7.780274E-2,-8.230872E-3,1.6369237E-2,6.4E1,6.691816E-2,-2.3619916E-2,1.099571E-1,2.0846523E-2,1.4E1,2.6E1,9.539373E-2,1.8324537E-2,-8.2251854E-2,3.6235861E-3,-2.0298623E-2,-9.24085E-2,-9.2724234E-2,1.5331636E-3,-3.1445976E-2,8.817563E-2,-1.05602406E-1,-6.1489795E-3],"split_indices":[0,6,9,6,12,9,9,9,5,11,5,0,11,9,1,12,0,0,1,6,0,3,5,5,0,12,2,0,9,0,0,0,0,12,0,0,0,0,0,0,0,0,0,0,0,0,0,5,9,0,0,0,0,0,0,0,0,0,0,0,0],"split_type":[0,0,0,0,0,0,0,0,0,0,0,0,0,0,0,0,0,0,0,0,0,0,0,0,0,0,0,0,0,0,0,0,0,0,0,0,0,0,0,0,0,0,0,0,0,0,0,0,0,0,0,0,0,0,0,0,0,0,0,0,0],"sum_hessian":[7.42225E1,4.622426E1,2.7998247E1,3.771531E1,8.508948E0,7.5034623E0,2.0494783E1,2.1136446E1,1.6578863E1,4.3959737E0,4.1129746E0,1.9254991E0,5.5779634E0,9.561233E0,1.0933551E1,2.0062553E1,1.0738928E0,2.1050487E0,1.4473814E1,2.942292E0,1.453682E0,2.0052354E0,2.107739E0,4.4112625E0,1.1667008E0,3.1891625E0,6.3720703E0,5.753782E0,5.179769E0,1.79715E1,2.0910528E0,1.0917011E0,1.0133476E0,1.2707555E1,1.7662594E0,1.1237185E0,1.8185735E0,1.0007751E0,1.0044605E0,1.0716058E0,1.0361333E0,1.3148805E0,3.0963821E0,1.9902948E0,1.1988677E0,5.3293242E0,1.0427465E0,3.1039135E0,2.6498682E0,3.4294193E0,1.7503498E0,1.094131E0,1.687737E1,1.0885086E0,1.1619046E1,2.078538E0,1.0178442E0,1.3486805E0,1.7552329E0,1.2064027E0,1.4434657E0],"tree_param":{"num_deleted":"0","num_feature":"13","num_nodes":"61","size_leaf_vector":"1"}},{"base_weights":[1.8907322E-2,-4.3536514E-1,2.6125515E-1,-4.140436E-2,-6.8464667E-1,1.7470375E-1,9.2338696E-2,1.462821E-1,-7.8778155E-2,-9.3180545E-2,-2.3026678E-1,-6.0489215E-2,3.3327025E-1,4.7487888E-1,-2.6140743E-1,-7.765496E-2,1.4832184E-1,3.4533134E-1,-2.854221E-1,7.8879935E-1,6.1927225E-2,6.703814E-1,-2.0187289E-2,-8.6211376E-2,3.939249E-1,5.1039815E-1,-4.1821297E-2,-4.7411572E-2,6.13545E-1,2.1052235E-1,-4.849826E-1,1.5050893E-4,8.95855E-1,6.589567E-1,-9.581681E-2,9.080882E-2,8.898614E-3,1.0231725E-2,4.963762E-2,8.0925055E-2,-3.6339553E-3,8.9081846E-2,1.9364731E-2,-6.418564E-2,8.106891E-2,-5.8765054E-2,8.69445E-3,4.2967856E-2,1.0579091E-1,-1.9764379E-4,9.3558185E-2,6.551711E-2,-3.1218547E-2],"categories":[],"categories_nodes":[],"categories_segments":[],"categories_sizes":[],"default_left":[0,0,0,0,0,0,0,0,0,0,0,0,0,0,0,0,0,0,0,0,0,0,0,0,0,0,0,0,0,0,0,0,0,0,0,0,0,0,0,0,0,0,0,0,0,0,0,0,0,0,0,0,0],"id":19,"left_children":[1,3,5,7,9,11,-1,13,-1,-1,15,17,19,21,23,-1,25,27,29,31,33,35,-1,-1,37,39,-1,-1,41,43,45,-1,47,49,51,-1,-1,-1,-1,-1,-1,-1,-1,-1,-1,-1,-1,-1,-1,-1,-1,-1,-1],"loss_changes":[8.188339E0,2.5143127E0,2.615466E0,1.6699086E0,1.559021E0,1.6642625E0,0E0,1.4251367E0,0E0,0E0,1.5405911E0,1.7963681E0,3.2249181E0,8.9376295E-1,2.2996857E0,0E0,1.2207484E0,1.8481386E0,1.3406417E0,8.248067E-1,1.7285594E0,5.658362E-1,0E0,0E0,4.0859878E-2,5.925E-1,0E0,0E0,4.9973702E-1,2.713954E0,5.928426E-1,0E0,1.971736E-1,7.007692E-1,2.6193037E0,0E0,0E0,0E0,0E0,0E0,0E0,0E0,0E0,0E0,0E0,0E0,0E0,0E0,0E0,0E0,0E0,0E0,0E0],"parents":[2147483647,0,0,1,1,2,2,3,3,4,4,5,5,7,7,10,10,11,11,12,12,13,13,14,14,16,16,17,17,18,18,19,19,20,20,21,21,24,24,25,25,28,28,29,29,30,30,32,32,33,33,34,34],"right_children":[2,4,6,8,10,12,-1,14,-1,-1,16,18,20,22,24,-1,26,28,30,32,34,36,-1,-1,38,40,-1,-1,42,44,46,-1,48,50,52,-1,-1,-1,-1,-1,-1,-1,-1,-1,-1,-1,-1,-1,-1,-1,-1,-1,-1],"split_conditions":[2.6E1,1.2E1,4.6E1,1E0,9E0,2.2E1,9.2338696E-2,2.5E1,-7.8778155E-2,-9.3180545E-2,1.7E1,1.4E1,2.4E1,2.1E1,3E1,-7.765496E-2,8.45E2,9E0,1.6E1,8E-1,8.4615386E-1,4.73E2,-2.0187289E-2,-8.6211376E-2,1.241E3,3E0,-4.1821297E-2,-4.7411572E-2,2.3E1,1.6E1,1E0,1.5050893E-4,4E1,1.4E1,1E0,9.080882E-2,8.898614E-3,1.0231725E-2,4.963762E-2,8.0925055E-2,-3.6339553E-3,8.9081846E-2,1.9364731E-2,-6.418564E-2,8.106891E-2,-5.8765054E-2,8.69445E-3,4.2967856E-2,1.0579091E-1,-1.9764379E-4,9.3558185E-2,6.551711E-2,-3.1218547E-2],"split_indices":[0,5,1,11,1,9,0,9,0,0,5,5,9,0,9,0,12,5,9,3,3,12,0,0,12,6,0,0,1,5,11,0,0,5,6,0,0,0,0,0,0,0,0,0,0,0,0,0,0,0,0,0,0],"split_type":[0,0,0,0,0,0,0,0,0,0,0,0,0,0,0,0,0,0,0,0,0,0,0,0,0,0,0,0,0,0,0,0,0,0,0,0,0,0,0,0,0,0,0,0,0,0,0,0,0,0,0,0,0],"sum_hessian":[7.2344124E1,2.4890783E1,4.7453342E1,1.0098059E1,1.4792726E1,4.308525E1,4.368093E0,8.711457E0,1.3866013E0,8.900566E0,5.8921595E0,1.759946E1,2.5485788E1,4.732372E0,3.9790852E0,1.9816197E0,3.9105396E0,6.08526E0,1.1514201E1,8.802009E0,1.668378E1,3.6789858E0,1.0533859E0,1.9114395E0,2.0676458E0,2.4462266E0,1.4643128E0,1.3112986E0,4.7739615E0,3.287997E0,8.226204E0,1.175005E0,7.627003E0,2.8227727E0,1.3861008E1,2.2124863E0,1.4664996E0,1.057206E0,1.0104396E0,1.2712207E0,1.175006E0,2.1998253E0,2.5741363E0,1.3298424E0,1.9581544E0,6.950934E0,1.2752697E0,2.9093142E0,4.717689E0,1.125795E0,1.6969779E0,2.6466818E0,1.1214326E1],"tree_param":{"num_deleted":"0","num_feature":"13","num_nodes":"53","size_leaf_vector":"1"}},{"base_weights":[2.0614922E-2,-2.2826135E-1,4.2729026E-1,-3.3905214E-1,2.4052118E-1,3.066797E-1,9.013864E-2,-7.42977E-2,-6.758549E-1,5.824681E-1,-1.7113933E-1,-1.06431626E-1,4.6677458E-1,-1.5264596E-1,7.629292E-2,4.360936E-3,-7.759064E-1,7.6460135E-1,5.697967E-3,2.3749566E-2,-5.1293385E-1,4.3358725E-1,-4.6423614E-1,7.731612E-1,1.4887384E-1,-5.518413E-2,-7.111803E-2,-1.2384555E-2,1.3133585E-2,-8.3709663E-1,-2.1965856E-2,2.048995E-2,9.173593E-2,-7.250465E-2,-4.5241206E-3,7.415373E-2,-3.3610947E-3,7.446673E-3,-7.5499274E-2,2.4844445E-1,9.184613E-1,5.186297E-1,-1.5872796E-1,-7.909387E-2,3.2088223E-3,-1.8016694E-2,-8.819272E-2,4.7025558E-2,-1.1538727E-2,1.0252891E-1,1.872685E-2,-5.8272383E-3,8.84627E-2,-9.511582E-2,4.5464944E-2],"categories":[],"categories_nodes":[],"categories_segments":[],"categories_sizes":[],"default_left":[0,0,0,0,0,0,0,0,0,0,0,0,0,0,0,0,0,0,0,0,0,0,0,0,0,0,0,0,0,0,0,0,0,0,0,0,0,0,0,0,0,0,0,0,0,0,0,0,0,0,0,0,0,0,0],"id":20,"left_children":[1,3,5,7,9,11,-1,13,15,17,19,21,23,25,-1,27,29,31,-1,-1,33,35,37,39,41,43,-1,-1,-1,45,-1,-1,-1,-1,-1,-1,-1,-1,-1,47,49,51,53,-1,-1,-1,-1,-1,-1,-1,-1,-1,-1,-1,-1],"loss_changes":[7.3435726E0,2.422071E0,1.2976408E0,3.2370625E0,1.3946685E0,1.6013062E0,0E0,1.5440608E0,1.0991931E0,4.5913327E-1,8.127877E-1,1.62472E0,1.5498557E0,1.0894637E0,0E0,6.606373E-2,2.940855E-1,1.3863587E-1,0E0,0E0,2.6583922E-1,5.2171105E-1,8.2589555E-1,4.17284E-1,1.1773641E0,1.2285826E0,0E0,0E0,0E0,2.0319939E-1,0E0,0E0,0E0,0E0,0E0,0E0,0E0,0E0,0E0,3.1305426E-1,2.9692507E-1,1.02419E0,3.3591442E0,0E0,0E0,0E0,0E0,0E0,0E0,0E0,0E0,0E0,0E0,0E0,0E0],"parents":[2147483647,0,0,1,1,2,2,3,3,4,4,5,5,7,7,8,8,9,9,10,10,11,11,12,12,13,13,15,15,16,16,17,17,20,20,21,21,22,22,23,23,24,24,25,25,29,29,39,39,40,40,41,41,42,42],"right_children":[2,4,6,8,10,12,-1,14,16,18,20,22,24,26,-1,28,30,32,-1,-1,34,36,38,40,42,44,-1,-1,-1,46,-1,-1,-1,-1,-1,-1,-1,-1,-1,48,50,52,54,-1,-1,-1,-1,-1,-1,-1,-1,-1,-1,-1,-1],"split_conditions":[4.3E1,4E0,4.6E1,3E0,4.87E2,2.1E1,9.013864E-2,3.4E1,8E0,1E0,1.2E1,1.5E1,2.4E1,1.34E3,7.629292E-2,6E0,2.1E1,5E0,5.697967E-3,2.3749566E-2,1.7E1,5.6E1,3E0,2.2E1,5E1,5E0,-7.111803E-2,-1.2384555E-2,1.3133585E-2,1.39E2,-2.1965856E-2,2.048995E-2,9.173593E-2,-7.250465E-2,-4.5241206E-3,7.415373E-2,-3.3610947E-3,7.446673E-3,-7.5499274E-2,4.74E2,8.1E1,1.4E1,3.2E1,-7.909387E-2,3.2088223E-3,-1.8016694E-2,-8.819272E-2,4.7025558E-2,-1.1538727E-2,1.0252891E-1,1.872685E-2,-5.8272383E-3,8.84627E-2,-9.511582E-2,4.5464944E-2],"split_indices":[0,6,1,6,12,9,0,9,5,11,5,5,9,12,0,5,1,6,0,0,5,0,6,9,0,0,0,0,0,12,0,0,0,0,0,0,0,0,0,12,0,5,1,0,0,0,0,0,0,0,0,0,0,0,0],"split_type":[0,0,0,0,0,0,0,0,0,0,0,0,0,0,0,0,0,0,0,0,0,0,0,0,0,0,0,0,0,0,0,0,0,0,0,0,0,0,0,0,0,0,0,0,0,0,0,0,0,0,0,0,0,0,0],"sum_hessian":[7.05928E1,4.406482E1,2.6527979E1,3.586526E1,8.199558E0,2.2460798E1,4.0671787E0,2.0763811E1,1.5101451E1,4.2523823E0,3.9471762E0,6.3668575E0,1.6093943E1,1.97347E1,1.0291102E0,2.059054E0,1.3042397E1,2.8199599E0,1.4324224E0,1.936787E0,2.0103893E0,2.4529407E0,3.9139168E0,7.466138E0,8.627804E0,1.7738253E1,1.9964468E0,1.0368216E0,1.0222324E0,1.1294988E1,1.747409E0,1.106629E0,1.7133309E0,1.0045384E0,1.0058509E0,1.1245209E0,1.3284198E0,1.6327343E0,2.2811823E0,2.2067733E0,5.2593646E0,3.6065137E0,5.02129E0,1.02596E0,1.6712294E1,1.0421777E0,1.02528105E1,1.1892406E0,1.0175327E0,4.237979E0,1.0213858E0,1.7262702E0,1.8802435E0,1.9505976E0,3.0706923E0],"tree_param":{"num_deleted":"0","num_feature":"13","num_nodes":"55","size_leaf_vector":"1"}},{"base_weights":[2.113953E-2,-4.0009472E-1,2.3989189E-1,-4.2971026E-2,-6.4102525E-1,1.6276614E-1,8.801286E-2,1.3555753E-1,-7.5709485E-2,-8.977166E-1,-2.024672E-1,-5.4285627E-2,2.0528741E-1,4.15266E-1,-2.909114E-1,-2.8881956E-2,-9.548494E-2,-7.4210964E-2,1.5424205E-1,8.520459E-1,1.3188174E-1,6.5971047E-1,2.400413E-2,-4.796558E-1,1.5377568E-2,4.8669797E-1,-3.9093364E-2,1.79683E-2,1.11512735E-1,-2.0531897E-1,3.0433866E-1,8.844238E-2,2.6300221E-3,3.9636344E-2,-3.8173478E-2,-7.103139E-2,-2.949555E-3,7.5352624E-2,-2.7462794E-3,1.5303281E-2,-4.871451E-2,7.227329E-2,6.4930855E-3],"categories":[],"categories_nodes":[],"categories_segments":[],"categories_sizes":[],"default_left":[0,0,0,0,0,0,0,0,0,0,0,0,0,0,0,0,0,0,0,0,0,0,0,0,0,0,0,0,0,0,0,0,0,0,0,0,0,0,0,0,0,0,0],"id":21,"left_children":[1,3,5,7,9,11,-1,13,-1,15,17,-1,19,21,23,-1,-1,-1,25,27,29,31,33,35,-1,37,-1,-1,-1,39,41,-1,-1,-1,-1,-1,-1,-1,-1,-1,-1,-1,-1],"loss_changes":[6.53794E0,2.0607579E0,2.1597507E0,1.4858487E0,1.4416995E0,1.3971763E0,0E0,1.2573438E0,0E0,3.0550003E-2,1.3879468E0,0E0,1.8408889E0,5.738802E-1,4.3986169E-1,0E0,0E0,0E0,1.0622144E0,5.090263E-1,2.279948E0,5.1152205E-1,6.6629285E-1,3.2221025E-1,0E0,4.9179673E-1,0E0,0E0,0E0,1.4379628E0,2.5205166E0,0E0,0E0,0E0,0E0,0E0,0E0,0E0,0E0,0E0,0E0,0E0,0E0],"parents":[2147483647,0,0,1,1,2,2,3,3,4,4,5,5,7,7,9,9,10,10,12,12,13,13,14,14,18,18,19,19,20,20,21,21,22,22,23,23,25,25,29,29,30,30],"right_children":[2,4,6,8,10,12,-1,14,-1,16,18,-1,20,22,24,-1,-1,-1,26,28,30,32,34,36,-1,38,-1,-1,-1,40,42,-1,-1,-1,-1,-1,-1,-1,-1,-1,-1,-1,-1],"split_conditions":[2.6E1,1.2E1,4.6E1,1E0,9E0,1.4E1,8.801286E-2,1.6E1,-7.5709485E-2,1.5E1,1.7E1,-5.4285627E-2,1.6E1,2.5E1,2E0,-2.8881956E-2,-9.548494E-2,-7.4210964E-2,8.45E2,2.47E2,2.2E1,4.73E2,2E0,1.3E1,1.5377568E-2,3E0,-3.9093364E-2,1.79683E-2,1.11512735E-1,1.5E1,2.4E1,8.844238E-2,2.6300221E-3,3.9636344E-2,-3.8173478E-2,-7.103139E-2,-2.949555E-3,7.5352624E-2,-2.7462794E-3,1.5303281E-2,-4.871451E-2,7.227329E-2,6.4930855E-3],"split_indices":[0,5,1,11,1,9,0,0,0,5,5,0,9,9,2,0,0,0,12,12,9,12,1,1,0,6,0,0,0,5,9,0,0,0,0,0,0,0,0,0,0,0,0],"split_type":[0,0,0,0,0,0,0,0,0,0,0,0,0,0,0,0,0,0,0,0,0,0,0,0,0,0,0,0,0,0,0,0,0,0,0,0,0,0,0,0,0,0,0],"sum_hessian":[6.891038E1,2.3270744E1,4.563963E1,9.849499E0,1.3421247E1,4.185216E1,3.787469E0,8.527763E0,1.3217357E0,7.805597E0,5.6156497E0,1.7099286E0,4.0142235E1,5.1658816E0,3.3618813E0,1.188998E0,6.616599E0,1.8048205E0,3.810829E0,3.0104632E0,3.713177E1,2.7571914E0,2.4086902E0,2.304932E0,1.0569493E0,2.433879E0,1.3769501E0,1.3199733E0,1.6904899E0,1.2500095E1,2.4631676E1,1.7426624E0,1.0145289E0,1.2680594E0,1.1406308E0,1.1419127E0,1.1630193E0,1.2958436E0,1.1380353E0,5.704112E0,6.795983E0,8.229968E0,1.6401707E1],"tree_param":{"num_deleted":"0","num_feature":"13","num_nodes":"43","size_leaf_vector":"1"}},{"base_weights":[1.925393E-2,-2.0618467E-1,3.9172044E-1,-3.1426466E-1,2.443657E-1,2.809336E-1,8.5949145E-2,-7.8858964E-2,-6.3324684E-1,5.5474776E-1,-1.3835938E-1,-8.78982E-2,4.2614996E-1,3.8580284E-1,-2.0019522E-1,4.839413E-3,-7.341493E-1,7.3194003E-1,5.636452E-3,2.3504695E-2,-4.6206873E-2,5.5968203E-2,-3.354886E-1,7.195238E-1,1.3440949E-1,-2.1553619E-2,6.994812E-1,2.2190842E-1,-3.556689E-1,-1.2253645E-2,1.2927214E-2,-7.963525E-1,-1.6828915E-2,2.04024E-2,8.728717E-2,2.1360911E-2,-6.4245814E-1,8.3100927E-1,1.8308697E-2,4.8978916E-1,-1.583006E-1,1.7677208E-2,8.812512E-2,-2.3655279E-2,8.4217414E-2,-8.96676E-3,-8.631952E-2,-3.8791884E-2,-9.608464E-2,-1.9412722E-2,-7.5037755E-2,3.1734306E-2,9.601821E-2,-5.8700363E-3,8.497121E-2,-8.963734E-2,4.224216E-2],"categories":[],"categories_nodes":[],"categories_segments":[],"categories_sizes":[],"default_left":[0,0,0,0,0,0,0,0,0,0,0,0,0,0,0,0,0,0,0,0,0,0,0,0,0,0,0,0,0,0,0,0,0,0,0,0,0,0,0,0,0,0,0,0,0,0,0,0,0,0,0,0,0,0,0,0,0],"id":22,"left_children":[1,3,5,7,9,11,-1,13,15,17,19,21,23,25,27,29,31,33,-1,-1,-1,-1,35,37,39,-1,41,43,45,-1,-1,47,-1,-1,-1,-1,49,51,-1,53,55,-1,-1,-1,-1,-1,-1,-1,-1,-1,-1,-1,-1,-1,-1,-1,-1],"loss_changes":[5.834712E0,2.1874087E0,1.1153717E0,2.6078658E0,1.1397309E0,1.2508216E0,0E0,1.289842E0,9.620576E-1,4.1272283E-1,6.8971896E-1,1.3467772E0,1.3091247E0,1.055226E0,1.2413352E0,6.380448E-2,3.1866932E-1,9.786236E-2,0E0,0E0,0E0,0E0,1.1240602E0,3.2390356E-1,1.0621499E0,0E0,1.6600513E-1,1.7301762E0,1.7220373E0,0E0,0E0,3.877573E-1,0E0,0E0,0E0,0E0,4.809606E-2,1.1382818E-1,0E0,9.4204855E-1,2.9272199E0,0E0,0E0,0E0,0E0,0E0,0E0,0E0,0E0,0E0,0E0,0E0,0E0,0E0,0E0,0E0,0E0],"parents":[2147483647,0,0,1,1,2,2,3,3,4,4,5,5,7,7,8,8,9,9,10,10,11,11,12,12,13,13,14,14,15,15,16,16,17,17,22,22,23,23,24,24,26,26,27,27,28,28,31,31,36,36,37,37,39,39,40,40],"right_children":[2,4,6,8,10,12,-1,14,16,18,20,22,24,26,28,30,32,34,-1,-1,-1,-1,36,38,40,-1,42,44,46,-1,-1,48,-1,-1,-1,-1,50,52,-1,54,56,-1,-1,-1,-1,-1,-1,-1,-1,-1,-1,-1,-1,-1,-1,-1,-1],"split_conditions":[4.3E1,4E0,4.6E1,3E0,4.87E2,2.1E1,8.5949145E-2,1E0,8E0,1E0,1.2E1,1.6E1,2.4E1,2.1E1,1.9E1,6E0,2E0,5E0,5.636452E-3,2.3504695E-2,-4.6206873E-2,5.5968203E-2,1.5E1,1.324E3,5E1,-2.1553619E-2,1.8E1,4.49E2,1.9E1,-1.2253645E-2,1.2927214E-2,1.7E1,-1.6828915E-2,2.04024E-2,8.728717E-2,2.1360911E-2,3E0,2.2E1,1.8308697E-2,1.4E1,3.2E1,1.7677208E-2,8.812512E-2,-2.3655279E-2,8.4217414E-2,-8.96676E-3,-8.631952E-2,-3.8791884E-2,-9.608464E-2,-1.9412722E-2,-7.5037755E-2,3.1734306E-2,9.601821E-2,-5.8700363E-3,8.497121E-2,-8.963734E-2,4.224216E-2],"split_indices":[0,6,1,6,12,9,0,6,5,11,5,9,9,0,9,5,2,6,0,0,0,0,5,12,0,0,1,12,1,0,0,5,0,0,0,0,6,9,0,5,1,0,0,0,0,0,0,0,0,0,0,0,0,0,0,0,0],"split_type":[0,0,0,0,0,0,0,0,0,0,0,0,0,0,0,0,0,0,0,0,0,0,0,0,0,0,0,0,0,0,0,0,0,0,0,0,0,0,0,0,0,0,0,0,0,0,0,0,0,0,0,0,0,0,0,0,0],"sum_hessian":[6.7525185E1,4.2343094E1,2.5182093E1,3.4394806E1,7.9482894E0,2.1654112E1,3.5279796E0,2.050761E1,1.3887196E1,4.140755E0,3.807534E0,6.2286963E0,1.5425416E1,3.7949786E0,1.6712631E1,2.0261679E0,1.1861027E1,2.7089884E0,1.431767E0,1.8952329E0,1.9123011E0,1.374122E0,4.854574E0,6.9600673E0,8.465348E0,1.4082191E0,2.3867598E0,4.383724E0,1.2328908E1,1.0087736E0,1.0173944E0,1.03193245E1,1.5417025E0,1.0865523E0,1.6224362E0,1.8498161E0,3.0047581E0,5.3078337E0,1.6522336E0,3.5192866E0,4.9460616E0,1.1247791E0,1.2619805E0,2.8763413E0,1.5073829E0,8.861273E0,3.4676354E0,3.9269853E0,6.392339E0,1.125965E0,1.8787932E0,1.7611619E0,3.5466719E0,1.7259719E0,1.7933147E0,1.9386156E0,3.007446E0],"tree_param":{"num_deleted":"0","num_feature":"13","num_nodes":"57","size_leaf_vector":"1"}},{"base_weights":[2.1240521E-2,-3.6927348E-1,2.1964312E-1,3.893535E-2,-5.5127984E-1,8.964833E-2,5.3971344E-1,5.8092732E-2,-1.9752191E-1,-6.713947E-1,9.473358E-3,-1.0520034E-2,7.310463E-1,6.6039276E-1,-2.0911736E-2,4.607979E-2,-4.983414E-1,-2.2066906E-1,-8.719204E-1,5.369642E-2,-6.313815E-2,5.265243E-1,-1.1201087E-1,2.7343113E-2,8.613375E-2,8.8857657E-1,-1.3665059E-1,-1.4903697E-2,-6.995466E-2,-6.658736E-2,1.09683335E-1,-9.595101E-2,-2.599144E-2,-2.8411655E-2,8.307353E-1,4.9855396E-1,-2.3193425E-1,9.640152E-2,1.8792935E-2,-4.5917425E-2,3.0040985E-2,5.4740805E-2,-4.32918E-2,1.7917087E-2,1.0403295E-1,-1.8147932E-3,9.395042E-2,2.1782927E-2,-4.9406935E-2],"categories":[],"categories_nodes":[],"categories_segments":[],"categories_sizes":[],"default_left":[0,0,0,0,0,0,0,0,0,0,0,0,0,0,0,0,0,0,0,0,0,0,0,0,0,0,0,0,0,0,0,0,0,0,0,0,0,0,0,0,0,0,0,0,0,0,0,0,0],"id":23,"left_children":[1,3,5,7,9,11,13,-1,15,17,19,21,23,25,-1,-1,27,29,31,-1,-1,33,35,-1,-1,37,39,-1,-1,-1,41,-1,-1,-1,43,45,47,-1,-1,-1,-1,-1,-1,-1,-1,-1,-1,-1,-1],"loss_changes":[5.2682676E0,1.7249196E0,1.8248448E0,1.1405647E0,1.0788798E0,2.1418004E0,1.2952318E0,0E0,1.4810691E0,9.941516E-1,1.6219805E0,1.6786408E0,3.284836E-2,2.1707544E0,0E0,0E0,2.343415E-1,8.6446166E-1,2.1950102E-1,0E0,0E0,1.4440373E0,2.006E0,0E0,0E0,2.8889894E-1,6.1363333E-1,0E0,0E0,0E0,1.1745738E0,0E0,0E0,0E0,3.3483052E-1,1.0550658E0,2.7322145E0,0E0,0E0,0E0,0E0,0E0,0E0,0E0,0E0,0E0,0E0,0E0,0E0],"parents":[2147483647,0,0,1,1,2,2,3,3,4,4,5,5,6,6,8,8,9,9,10,10,11,11,12,12,13,13,16,16,17,17,18,18,21,21,22,22,25,25,26,26,30,30,34,34,35,35,36,36],"right_children":[2,4,6,8,10,12,14,-1,16,18,20,22,24,26,-1,-1,28,30,32,-1,-1,34,36,-1,-1,38,40,-1,-1,-1,42,-1,-1,-1,44,46,48,-1,-1,-1,-1,-1,-1,-1,-1,-1,-1,-1,-1],"split_conditions":[2.6E1,9E0,3.4E1,7.8723407E-1,1.3E1,4E0,5E0,5.8092732E-2,2.43E2,2.45E2,1.5E1,8.4615386E-1,5E0,1.146E3,-2.0911736E-2,4.607979E-2,3E0,8.77193E-1,5E0,5.369642E-2,-6.313815E-2,7.380952E-1,1E1,2.7343113E-2,8.613375E-2,2.7E1,2.4E1,-1.4903697E-2,-6.995466E-2,-6.658736E-2,1.9E1,-9.595101E-2,-2.599144E-2,-2.8411655E-2,2.68E2,4.77E2,2E0,9.640152E-2,1.8792935E-2,-4.5917425E-2,3.0040985E-2,5.4740805E-2,-4.32918E-2,1.7917087E-2,1.0403295E-1,-1.8147932E-3,9.395042E-2,2.1782927E-2,-4.9406935E-2],"split_indices":[0,5,1,3,1,6,6,0,12,12,1,3,6,12,0,0,6,3,6,0,0,3,5,0,0,9,9,0,0,0,9,0,0,0,12,12,6,0,0,0,0,0,0,0,0,0,0,0,0],"split_type":[0,0,0,0,0,0,0,0,0,0,0,0,0,0,0,0,0,0,0,0,0,0,0,0,0,0,0,0,0,0,0,0,0,0,0,0,0,0,0,0,0,0,0,0,0,0,0,0,0],"sum_hessian":[6.5949234E1,2.1927773E1,4.4021465E1,7.0043344E0,1.4923437E1,3.2216858E1,1.1804608E1,1.6850883E0,5.3192463E0,1.2128229E1,2.7952082E0,2.8715847E1,3.501011E0,1.0267957E1,1.5366515E0,1.5015073E0,3.817739E0,4.3811297E0,7.747099E0,1.6221341E0,1.173074E0,3.8985507E0,2.4817297E1,1.462602E0,2.0384088E0,7.893347E0,2.37461E0,2.0315561E0,1.7861829E0,1.4335446E0,2.947585E0,6.280437E0,1.4666623E0,1.0818269E0,2.8167238E0,3.555901E0,2.1261395E1,6.786728E0,1.106619E0,1.3372244E0,1.0373857E0,1.6265578E0,1.3210273E0,1.1369959E0,1.6797279E0,2.078811E0,1.4770901E0,7.8911E0,1.3370296E1],"tree_param":{"num_deleted":"0","num_feature":"13","num_nodes":"49","size_leaf_vector":"1"}},{"base_weights":[2.2319052E-2,-3.5163414E-1,2.099698E-1,-4.2751977E-1,4.8576113E-2,1.4323774E-1,8.251645E-2,-2.8077295E-1,-8.998684E-2,-5.100892E-2,1.834448E-1,7.554961E-2,-5.2633715E-1,8.0848306E-1,1.1282286E-1,2.946639E-1,-6.807362E-2,-8.103997E-2,-6.620842E-2,1.5308492E-2,1.05760776E-1,-1.8817624E-1,2.6852775E-1,6.743943E-2,-4.0245395E-2,-6.317299E-2,2.846146E-2,1.9817117E-3,-6.347592E-2,6.583088E-2,5.426185E-3],"categories":[],"categories_nodes":[],"categories_segments":[],"categories_sizes":[],"default_left":[0,0,0,0,0,0,0,0,0,0,0,0,0,0,0,0,0,0,0,0,0,0,0,0,0,0,0,0,0,0,0],"id":24,"left_children":[1,3,5,7,-1,9,-1,11,-1,-1,13,15,17,19,21,23,-1,-1,25,-1,-1,27,29,-1,-1,-1,-1,-1,-1,-1,-1],"loss_changes":[4.6639113E0,1.6203051E0,1.6955892E0,1.1970608E0,0E0,1.1723579E0,0E0,1.563207E0,0E0,0E0,1.648948E0,1.5226315E0,1.3099744E0,4.6505952E-1,1.7650465E0,2.0936303E0,0E0,0E0,1.1859258E0,0E0,0E0,1.2256855E0,2.0123136E0,0E0,0E0,0E0,0E0,0E0,0E0,0E0,0E0],"parents":[2147483647,0,0,1,1,2,2,3,3,5,5,7,7,10,10,11,11,12,12,13,13,14,14,15,15,18,18,21,21,22,22],"right_children":[2,4,6,8,-1,10,-1,12,-1,-1,14,16,18,20,22,24,-1,-1,26,-1,-1,28,30,-1,-1,-1,-1,-1,-1,-1,-1],"split_conditions":[2.6E1,3.5E1,4.6E1,1.084E3,4.8576113E-2,1.4E1,8.251645E-2,1.2E1,-8.998684E-2,-5.100892E-2,1.6E1,1E0,9E0,2.47E2,2.2E1,2.5E1,-6.807362E-2,-8.103997E-2,1.7E1,1.5308492E-2,1.05760776E-1,7.08E2,2.4E1,6.743943E-2,-4.0245395E-2,-6.317299E-2,2.846146E-2,1.9817117E-3,-6.347592E-2,6.583088E-2,5.426185E-3],"split_indices":[0,9,1,12,0,9,0,5,0,0,9,11,1,12,9,9,0,0,5,0,0,12,9,0,0,0,0,0,0,0,0],"split_type":[0,0,0,0,0,0,0,0,0,0,0,0,0,0,0,0,0,0,0,0,0,0,0,0,0,0,0,0,0,0,0],"sum_hessian":[6.441128E1,2.122998E1,4.3181293E1,1.991475E1,1.3152305E0,4.0067844E1,3.1134498E0,1.6410759E1,3.5039907E0,1.6453813E0,3.8422462E1,6.9779067E0,9.432853E0,2.839903E0,3.558256E1,5.883651E0,1.0942557E0,5.361599E0,4.0712533E0,1.2268342E0,1.6130688E0,1.2060124E1,2.3522436E1,3.8299935E0,2.0536573E0,1.2521302E0,2.8191233E0,8.87996E0,3.180164E0,7.6087017E0,1.59137335E1],"tree_param":{"num_deleted":"0","num_feature":"13","num_nodes":"31","size_leaf_vector":"1"}},{"base_weights":[1.9717988E-2,-1.7626958E-1,3.458844E-1,-2.75361E-1,2.2983892E-1,2.4647558E-1,8.0573335E-2,3.686517E-1,-3.6714128E-1,5.098217E-1,-1.22732274E-1,5.488062E-1,6.2806986E-2,-3.3260074E-2,8.276864E-2,8.3182845E-3,-4.9166134E-1,6.8403524E-1,4.049815E-3,2.791029E-2,-3.6908334E-1,7.1926177E-1,-2.4565518E-2,-3.333386E-1,3.911483E-1,5.515165E-2,-6.943872E-2,-5.5226274E-2,1.7907177E-1,-5.640843E-1,3.466672E-2,1.7799905E-2,8.262503E-2,-6.286415E-2,8.10154E-3,9.0096794E-2,2.753699E-1,1.9019347E-2,-7.400143E-1,5.4519796E-1,-3.5201985E-2,6.340292E-2,-1.0595747E-2,-8.984434E-2,-3.138977E-2,5.0138123E-2,-1.1504253E-2,-5.8294382E-2,7.5530596E-2,-9.529113E-2,-1.7609058E-2,7.3795974E-2,-8.952651E-3],"categories":[],"categories_nodes":[],"categories_segments":[],"categories_sizes":[],"default_left":[0,0,0,0,0,0,0,0,0,0,0,0,0,0,0,0,0,0,0,0,0,0,0,0,0,0,0,0,0,0,0,0,0,0,0,0,0,0,0,0,0,0,0,0,0,0,0,0,0,0,0,0,0],"id":25,"left_children":[1,3,5,7,9,11,-1,13,15,17,19,21,23,25,-1,27,29,31,-1,-1,33,35,-1,37,39,-1,-1,-1,41,43,-1,-1,-1,-1,-1,-1,45,47,49,51,-1,-1,-1,-1,-1,-1,-1,-1,-1,-1,-1,-1,-1],"loss_changes":[4.1668515E0,1.7045178E0,9.1890764E-1,2.1000597E0,9.0603954E-1,1.1616962E0,0E0,8.845212E-1,1.3876944E0,3.7756002E-1,5.571896E-1,1.2616355E0,2.0202796E0,1.7121558E0,0E0,8.985354E-1,1.545867E0,1.0853982E-1,0E0,0E0,4.3352136E-1,3.0448604E-1,0E0,1.035032E0,1.1541511E0,0E0,0E0,0E0,9.9547005E-1,1.4623466E0,0E0,0E0,0E0,0E0,0E0,0E0,3.6033976E-1,2.5643308E0,2.3229921E-1,9.658494E-1,0E0,0E0,0E0,0E0,0E0,0E0,0E0,0E0,0E0,0E0,0E0,0E0,0E0],"parents":[2147483647,0,0,1,1,2,2,3,3,4,4,5,5,7,7,8,8,9,9,10,10,11,11,12,12,13,13,15,15,16,16,17,17,20,20,21,21,23,23,24,24,28,28,29,29,36,36,37,37,38,38,39,39],"right_children":[2,4,6,8,10,12,-1,14,16,18,20,22,24,26,-1,28,30,32,-1,-1,34,36,-1,38,40,-1,-1,-1,42,44,-1,-1,-1,-1,-1,-1,46,48,50,52,-1,-1,-1,-1,-1,-1,-1,-1,-1,-1,-1,-1,-1],"split_conditions":[4.3E1,4E0,4.6E1,1E0,4.87E2,5E1,8.0573335E-2,1.8E1,1E1,1E0,9E0,3.3E1,3.3E1,9.375E-1,8.276864E-2,6E0,4E0,5E0,4.049815E-3,2.791029E-2,2E1,9.4736844E-1,-2.4565518E-2,2.4E1,4.4E1,5.515165E-2,-6.943872E-2,-5.5226274E-2,1E1,9.5721924E-1,3.466672E-2,1.7799905E-2,8.262503E-2,-6.286415E-2,8.10154E-3,9.0096794E-2,3E0,2.2E1,3E0,1.089E3,-3.5201985E-2,6.340292E-2,-1.0595747E-2,-8.984434E-2,-3.138977E-2,5.0138123E-2,-1.1504253E-2,-5.8294382E-2,7.5530596E-2,-9.529113E-2,-1.7609058E-2,7.3795974E-2,-8.952651E-3],"split_indices":[0,6,1,6,12,0,0,1,5,11,5,1,1,3,0,0,2,6,0,0,0,3,0,9,1,0,0,0,1,3,0,0,0,0,0,0,6,9,6,12,0,0,0,0,0,0,0,0,0,0,0,0,0],"split_type":[0,0,0,0,0,0,0,0,0,0,0,0,0,0,0,0,0,0,0,0,0,0,0,0,0,0,0,0,0,0,0,0,0,0,0,0,0,0,0,0,0,0,0,0,0,0,0,0,0,0,0,0,0],"sum_hessian":[6.3230125E1,3.9784126E1,2.3445997E1,3.2239555E1,7.544574E0,2.0541407E1,2.904591E0,3.6451612E0,2.8594393E1,3.9565773E0,3.5879965E0,7.011685E0,1.3529721E1,2.4380496E0,1.2071117E0,7.3538547E0,2.1240538E1,2.5518396E0,1.4047378E0,1.3131334E0,2.2748632E0,5.8509827E0,1.160702E0,6.124844E0,7.404877E0,1.3817049E0,1.0563446E0,1.1953315E0,6.158523E0,1.9852608E1,1.387929E0,1.0537953E0,1.4980443E0,1.1912382E0,1.083625E0,3.4209309E0,2.4300518E0,3.792298E0,2.332546E0,6.3541307E0,1.0507466E0,1.9005196E0,4.2580037E0,7.3879595E0,1.2464649E1,1.3590549E0,1.0709969E0,2.2010548E0,1.5912433E0,1.192541E0,1.140005E0,4.7491865E0,1.6049439E0],"tree_param":{"num_deleted":"0","num_feature":"13","num_nodes":"53","size_leaf_vector":"1"}},{"base_weights":[2.10171E-2,-3.2544824E-1,1.9093777E-1,-4.0153944E-1,4.743005E-2,1.3095166E-1,7.8666575E-2,-2.587064E-1,-8.703234E-2,-4.7900375E-2,1.688762E-1,5.685395E-2,-4.849042E-1,7.795053E-1,9.9700615E-2,2.6411682E-1,-6.557868E-2,-7.777414E-1,-4.0327255E-2,1.4669383E-2,1.0159359E-1,-1.8342994E-1,2.481216E-1,6.147894E-2,-3.7881006E-2,-2.3039795E-2,-8.508379E-2,-5.9613924E-2,2.8373733E-2,5.9551344E-4,-5.86978E-2,6.0404915E-2,5.717304E-3],"categories":[],"categories_nodes":[],"categories_segments":[],"categories_sizes":[],"default_left":[0,0,0,0,0,0,0,0,0,0,0,0,0,0,0,0,0,0,0,0,0,0,0,0,0,0,0,0,0,0,0,0,0],"id":26,"left_children":[1,3,5,7,-1,9,-1,11,-1,-1,13,15,17,19,21,23,-1,25,27,-1,-1,29,31,-1,-1,-1,-1,-1,-1,-1,-1,-1,-1],"loss_changes":[3.7584505E0,1.4702032E0,1.424888E0,1.0968871E0,0E0,1.0072081E0,0E0,1.2093519E0,0E0,0E0,1.5459955E0,1.326446E0,1.2377994E0,4.142542E-1,1.5446541E0,1.7573166E0,0E0,3.692627E-2,1.0564147E0,0E0,0E0,9.851376E-1,1.5850685E0,0E0,0E0,0E0,0E0,0E0,0E0,0E0,0E0,0E0,0E0],"parents":[2147483647,0,0,1,1,2,2,3,3,5,5,7,7,10,10,11,11,12,12,13,13,14,14,15,15,17,17,18,18,21,21,22,22],"right_children":[2,4,6,8,-1,10,-1,12,-1,-1,14,16,18,20,22,24,-1,26,28,-1,-1,30,32,-1,-1,-1,-1,-1,-1,-1,-1,-1,-1],"split_conditions":[2.6E1,3.5E1,4.6E1,1.084E3,4.743005E-2,1.4E1,7.8666575E-2,1.2E1,-8.703234E-2,-4.7900375E-2,1.6E1,1E0,9E0,2.47E2,2.2E1,2.5E1,-6.557868E-2,1.6E1,1.7E1,1.4669383E-2,1.0159359E-1,7.08E2,2.4E1,6.147894E-2,-3.7881006E-2,-2.3039795E-2,-8.508379E-2,-5.9613924E-2,2.8373733E-2,5.9551344E-4,-5.86978E-2,6.0404915E-2,5.717304E-3],"split_indices":[0,9,1,12,0,9,0,5,0,0,9,11,1,12,9,9,0,5,5,0,0,12,9,0,0,0,0,0,0,0,0,0,0],"split_type":[0,0,0,0,0,0,0,0,0,0,0,0,0,0,0,0,0,0,0,0,0,0,0,0,0,0,0,0,0,0,0,0,0],"sum_hessian":[6.1785946E1,2.0029942E1,4.1756004E1,1.8744442E1,1.285501E0,3.9044304E1,2.7117014E0,1.5556441E1,3.1880002E0,1.6047081E0,3.7439594E1,6.8077917E0,8.74865E0,2.7648764E0,3.4674717E1,5.76151E0,1.046282E0,4.8226404E0,3.926009E0,1.1927929E0,1.5720836E0,1.1844349E1,2.283037E1,3.7564101E0,2.0050995E0,1.0573348E0,3.7653058E0,1.1367568E0,2.789252E0,8.731772E0,3.1125765E0,7.2161236E0,1.5614246E1],"tree_param":{"num_deleted":"0","num_feature":"13","num_nodes":"33","size_leaf_vector":"1"}},{"base_weights":[1.8001884E-2,-3.1346795E-1,1.7763762E-1,-3.8780293E-1,4.4929106E-2,1.2072715E-1,7.679289E-2,-2.505025E-1,-8.480122E-2,4.9311712E-2,4.8880017E-1,4.6138674E-2,-4.669577E-1,3.2685462E-1,-1.06372215E-1,7.640265E-1,-2.2294475E-2,2.4258952E-1,-6.350469E-2,-7.573819E-1,-4.3265752E-2,8.1394516E-2,6.97112E-2,-7.480361E-2,-3.166694E-2,8.952557E-2,3.0659322E-2,5.6928355E-2,-3.551113E-2,-2.2021905E-2,-8.329491E-2,-5.794079E-2,2.6098281E-2,2.8625071E-2,-6.33272E-2,6.437965E-2,-1.2935236E-2],"categories":[],"categories_nodes":[],"categories_segments":[],"categories_sizes":[],"default_left":[0,0,0,0,0,0,0,0,0,0,0,0,0,0,0,0,0,0,0,0,0,0,0,0,0,0,0,0,0,0,0,0,0,0,0,0,0],"id":27,"left_children":[1,3,5,7,-1,9,-1,11,-1,13,15,17,19,21,23,25,-1,27,-1,29,31,33,-1,-1,35,-1,-1,-1,-1,-1,-1,-1,-1,-1,-1,-1,-1],"loss_changes":[3.3224556E0,1.3325834E0,1.3285534E0,9.977319E-1,0E0,1.021391E0,0E0,1.0598392E0,0E0,1.5221415E0,1.414418E0,1.188713E0,1.1286635E0,1.0898141E0,1.0695866E0,1.40042305E-2,0E0,1.5152493E0,0E0,4.1425943E-2,9.5037585E-1,1.4577025E0,0E0,0E0,1.500123E0,0E0,0E0,0E0,0E0,0E0,0E0,0E0,0E0,0E0,0E0,0E0,0E0],"parents":[2147483647,0,0,1,1,2,2,3,3,5,5,7,7,9,9,10,10,11,11,12,12,13,13,14,14,15,15,17,17,19,19,20,20,21,21,24,24],"right_children":[2,4,6,8,-1,10,-1,12,-1,14,16,18,20,22,24,26,-1,28,-1,30,32,34,-1,-1,36,-1,-1,-1,-1,-1,-1,-1,-1,-1,-1,-1,-1],"split_conditions":[2.6E1,3.5E1,4.6E1,1.084E3,4.4929106E-2,4E0,7.679289E-2,1.2E1,-8.480122E-2,2E0,3.5E1,1E0,9E0,3E1,1.5E1,4.57E2,-2.2294475E-2,2.5E1,-6.350469E-2,1.6E1,1.7E1,5E1,6.97112E-2,-7.480361E-2,2.8E1,8.952557E-2,3.0659322E-2,5.6928355E-2,-3.551113E-2,-2.2021905E-2,-8.329491E-2,-5.794079E-2,2.6098281E-2,2.8625071E-2,-6.33272E-2,6.437965E-2,-1.2935236E-2],"split_indices":[0,9,1,12,0,6,0,5,0,6,1,11,1,1,9,12,0,9,0,5,5,0,0,0,0,0,0,0,0,0,0,0,0,0,0,0,0],"split_type":[0,0,0,0,0,0,0,0,0,0,0,0,0,0,0,0,0,0,0,0,0,0,0,0,0,0,0,0,0,0,0,0,0,0,0,0,0],"sum_hessian":[6.0736877E1,1.9429518E1,4.130736E1,1.8152079E1,1.2774392E0,3.8773678E1,2.5336819E0,1.5170408E1,2.9816697E0,3.3422787E1,5.3508906E0,6.731738E0,8.43867E0,1.1615671E1,2.1807117E1,3.8057718E0,1.5451187E0,5.724647E0,1.0070909E0,4.539467E0,3.8992035E0,7.7185397E0,3.8971314E0,1.3341945E0,2.0472923E1,2.213602E0,1.5921699E0,3.7322183E0,1.9924288E0,1.0425811E0,3.4968855E0,1.0842192E0,2.8149843E0,6.4648733E0,1.2536668E0,1.8803562E0,1.8592566E1],"tree_param":{"num_deleted":"0","num_feature":"13","num_nodes":"37","size_leaf_vector":"1"}},{"base_weights":[1.5827963E-2,-1.5760803E-1,3.0524996E-1,-2.4740723E-1,2.1063069E-1,3.9990476E-1,-7.955806E-2,3.456072E-1,-3.3274072E-1,4.5792973E-1,-1.095828E-1,5.1739305E-1,3.584591E-2,2.8794518E-1,-4.3416776E-2,-3.717969E-2,7.7587456E-2,8.361058E-3,-4.4932696E-1,9.377844E-2,7.354929E-2,2.6809841E-2,-3.4325254E-1,2.3871373E-1,7.439862E-1,-3.1119734E-1,4.9438458E-2,6.1117914E-2,-1.4735229E-2,-5.728341E-2,5.8891214E-2,-5.206095E-2,1.7087547E-1,-5.19634E-1,3.2252453E-2,3.796031E-2,-2.649795E-2,-5.8522917E-2,6.4306483E-3,6.4061695E-1,-3.804804E-1,1.7524804E-1,9.3200795E-2,-7.740908E-2,1.8727196E-2,6.0558915E-2,-1.0080625E-2,-8.542949E-2,-2.7908623E-2,7.6770775E-2,8.509862E-3,-5.8324374E-2,1.0329419E-3,3.6798503E-2,-1.0467722E-2],"categories":[],"categories_nodes":[],"categories_segments":[],"categories_sizes":[],"default_left":[0,0,0,0,0,0,0,0,0,0,0,0,0,0,0,0,0,0,0,0,0,0,0,0,0,0,0,0,0,0,0,0,0,0,0,0,0,0,0,0,0,0,0,0,0,0,0,0,0,0,0,0,0,0,0],"id":28,"left_children":[1,3,5,7,9,11,13,15,17,19,21,23,25,27,-1,29,-1,31,33,35,-1,-1,37,39,41,43,-1,-1,-1,-1,-1,-1,45,47,-1,-1,-1,-1,-1,49,51,53,-1,-1,-1,-1,-1,-1,-1,-1,-1,-1,-1,-1,-1],"loss_changes":[3.0951881E0,1.3290772E0,8.7271523E-1,1.7093191E0,6.924838E-1,7.8107643E-1,8.2767224E-1,7.623953E-1,1.1193228E0,4.1312206E-1,4.7516382E-1,7.101884E-1,1.0506582E0,5.4720134E-1,0E0,1.4478331E0,0E0,7.876326E-1,1.303103E0,4.2966288E-1,0E0,0E0,3.453827E-1,2.1791856E0,6.153431E-1,1.0267285E0,0E0,0E0,0E0,0E0,0E0,0E0,8.8424826E-1,1.3362546E0,0E0,0E0,0E0,0E0,0E0,2.9394603E-1,2.983117E-1,2.0257543E-1,0E0,0E0,0E0,0E0,0E0,0E0,0E0,0E0,0E0,0E0,0E0,0E0,0E0],"parents":[2147483647,0,0,1,1,2,2,3,3,4,4,5,5,6,6,7,7,8,8,9,9,10,10,11,11,12,12,13,13,15,15,17,17,18,18,19,19,22,22,23,23,24,24,25,25,32,32,33,33,39,39,40,40,41,41],"right_children":[2,4,6,8,10,12,14,16,18,20,22,24,26,28,-1,30,-1,32,34,36,-1,-1,38,40,42,44,-1,-1,-1,-1,-1,-1,46,48,-1,-1,-1,-1,-1,50,52,54,-1,-1,-1,-1,-1,-1,-1,-1,-1,-1,-1,-1,-1],"split_conditions":[4.3E1,4E0,1.9E1,1E0,4.87E2,1.146E3,3E0,1.8E1,1E1,2.44E2,9E0,3.3E1,1.625E3,8.45E2,-4.3416776E-2,1E0,7.7587456E-2,6E0,4E0,2.23E2,7.354929E-2,2.6809841E-2,2E1,5.8E1,6.4E1,1.4E1,4.9438458E-2,6.1117914E-2,-1.4735229E-2,-5.728341E-2,5.8891214E-2,-5.206095E-2,1E1,9.5721924E-1,3.2252453E-2,3.796031E-2,-2.649795E-2,-5.8522917E-2,6.4306483E-3,3.1E1,2E0,6.1E1,9.3200795E-2,-7.740908E-2,1.8727196E-2,6.0558915E-2,-1.0080625E-2,-8.542949E-2,-2.7908623E-2,7.6770775E-2,8.509862E-3,-5.8324374E-2,1.0329419E-3,3.6798503E-2,-1.0467722E-2],"split_indices":[0,6,5,6,12,12,6,1,5,12,5,1,12,12,0,2,0,0,2,12,0,0,0,0,0,5,0,0,0,0,0,0,1,3,0,0,0,0,0,1,2,0,0,0,0,0,0,0,0,0,0,0,0,0,0],"split_type":[0,0,0,0,0,0,0,0,0,0,0,0,0,0,0,0,0,0,0,0,0,0,0,0,0,0,0,0,0,0,0,0,0,0,0,0,0,0,0,0,0,0,0,0,0,0,0,0,0,0,0,0,0,0,0],"sum_hessian":[5.9703373E1,3.76169E1,2.2086472E1,3.050584E1,7.111061E0,1.769471E1,4.3917637E0,3.4538276E0,2.7052011E1,3.7696815E0,3.3413796E0,1.3059117E1,4.6355915E0,