{"learner":{"attributes":{"scikit_learn":"{\"_estimator_type\": \"classifier\"}"},"feature_names":[],"feature_types":[],"gradient_booster":{"model":{"cats":{"enc":[],"feature_segments":[],"sorted_idx":[]},"gbtree_model_param":{"num_parallel_tree":"1","num_trees":"100"},"iteration_indptr":[0,1,2,3,4,5,6,7,8,9,10,11,12,13,14,15,16,17,18,19,20,21,22,23,24,25,26,27,28,29,30,31,32,33,34,35,36,37,38,39,40,41,42,43,44,45,46,47,48,49,50,51,52,53,54,55,56,57,58,59,60,61,62,63,64,65,66,67,68,69,70,71,72,73,74,75,76,77,78,79,80,81,82,83,84,85,86,87,88,89,90,91,92,93,94,95,96,97,98,99,100],"tree_info":[0,0,0,0,0,0,0,0,0,0,0,0,0,0,0,0,0,0,0,0,0,0,0,0,0,0,0,0,0,0,0,0,0,0,0,0,0,0,0,0,0,0,0,0,0,0,0,0,0,0,0,0,0,0,0,0,0,0,0,0,0,0,0,0,0,0,0,0,0,0,0,0,0,0,0,0,0,0,0,0,0,0,0,0,0,0,0,0,0,0,0,0,0,0,0,0,0,0,0,0],"trees":[{"base_weights":[-2.0183583E-8,-1.3626035E0,1.3113523E0,1.3130763E-1,-1.7758491E0,1.7222896E-1,1.5396811E0,-1.0209322E0,7.337304E-1,-2.418507E-1,-1.89442E0,5.244387E-1,-7.9606557E-1,1.2487402E0,1.8046213E0,-1.7948718E-1,4.522894E-1,9.469679E-1,-1.3333334E-1,-1.4666668E-1,3.046175E-1,-1.9381896E0,-2.0627804E-1,7.903453E-2,1.3255655E0,1.2102729E-1,-1.3478147E0,1.549227E0,6.2438375E-1,1.865342E0,1.0730098E0,1.3047574E-1,-1.20000005E-1,1.1015652E0,-4.492844E-1,9.6158713E-1,-3.8449112E-1,-1.9607411E-1,-5.595376E-1,-1.2727273E-1,9.2184074E-2,-8.013186E-1,5.9604067E-1,1.292406E-3,1.5935004E-1,2.3497758E-2,-1.6923077E-1,1.73409E0,1.2548591E0,1.1565714E0,5.5061396E-2,6.809651E-2,1.8892422E-1,-3.2075474E-1,1.5464044E-1,1.4580005E-1,4.397463E-2,5.1209677E-2,-1.1111112E-1,2.3497758E-2,1.1546391E-1,1.2102729E-1,-1.4285715E-1,5.1209677E-2,-1.20000005E-1,1.4938205E-2,-1.5E-1,-3.0004252E-2,1.0806193E-1,7.6506026E-2,1.8150654E-1,1.5417776E-1,6.842213E-2,1.3952059E-1,-1E-1,4.869298E-2,-1.4285715E-1,5.1209677E-2,-1E-1],"categories":[],"categories_nodes":[],"categories_segments":[],"categories_sizes":[],"default_left":[0,0,0,0,0,0,0,0,0,0,0,0,0,0,0,0,0,0,0,0,0,0,0,0,0,0,0,0,0,0,0,0,0,0,0,0,0,0,0,0,0,0,0,0,0,0,0,0,0,0,0,0,0,0,0,0,0,0,0,0,0,0,0,0,0,0,0,0,0,0,0,0,0,0,0,0,0,0,0],"id":0,"left_children":[1,3,5,7,9,11,13,15,17,19,21,23,25,27,29,-1,31,33,-1,-1,35,37,39,41,43,-1,45,47,49,51,53,-1,-1,55,57,59,61,-1,63,-1,-1,65,67,-1,-1,-1,-1,69,71,73,75,-1,-1,77,-1,-1,-1,-1,-1,-1,-1,-1,-1,-1,-1,-1,-1,-1,-1,-1,-1,-1,-1,-1,-1,-1,-1,-1,-1],"loss_changes":[6.772173E2,1.14979126E2,4.996747E1,2.935114E1,2.6036102E1,1.1799442E1,1.0138062E1,1.7418636E1,1.34457655E1,8.209286E0,9.580017E0,8.842699E0,1.1924932E1,1.4016396E1,1.6364441E0,0E0,9.756332E0,6.029537E0,0E0,0E0,4.3752203E0,2.99234E0,6.6262426E0,8.296541E0,3.1082706E0,0E0,4.632292E0,7.212601E-1,8.306006E0,8.156128E-1,6.1901484E0,0E0,0E0,4.872673E0,2.6472123E0,4.0410757E-1,1.01084175E1,0E0,3.0278716E0,0E0,0E0,4.729273E0,5.272782E0,0E0,0E0,0E0,0E0,9.720917E-1,2.9001427E0,8.717209E0,9.919841E0,0E0,0E0,2.2184267E0,0E0,0E0,0E0,0E0,0E0,0E0,0E0,0E0,0E0,0E0,0E0,0E0,0E0,0E0,0E0,0E0,0E0,0E0,0E0,0E0,0E0,0E0,0E0,0E0,0E0],"parents":[2147483647,0,0,1,1,2,2,3,3,4,4,5,5,6,6,7,7,8,8,9,9,10,10,11,11,12,12,13,13,14,14,16,16,17,17,20,20,21,21,22,22,23,23,24,24,26,26,27,27,28,28,29,29,30,30,33,33,34,34,35,35,36,36,38,38,41,41,42,42,47,47,48,48,49,49,50,50,53,53],"right_children":[2,4,6,8,10,12,14,16,18,20,22,24,26,28,30,-1,32,34,-1,-1,36,38,40,42,44,-1,46,48,50,52,54,-1,-1,56,58,60,62,-1,64,-1,-1,66,68,-1,-1,-1,-1,70,72,74,76,-1,-1,78,-1,-1,-1,-1,-1,-1,-1,-1,-1,-1,-1,-1,-1,-1,-1,-1,-1,-1,-1,-1,-1,-1,-1,-1,-1],"split_conditions":[1.4E1,1.2E1,3.6E1,1E0,3E0,4.680851E-1,3.4E1,2.4E1,1E0,1E1,1.875E3,4E0,1E0,4E-1,4.827586E-1,-1.7948718E-1,9.2424244E-1,1.1E1,-1.3333334E-1,-1.4666668E-1,3.2258064E-1,5E0,8E0,1.6E1,1.39E2,1.2102729E-1,1.5E1,9.444444E-1,3E0,7.6666665E-1,6.4E1,1.3047574E-1,-1.20000005E-1,3.375E-1,5E0,5E0,1.1E1,-1.9607411E-1,7E0,-1.2727273E-1,9.2184074E-2,2.81E2,8.32E2,1.292406E-3,1.5935004E-1,2.3497758E-2,-1.6923077E-1,2.4528302E-1,3E0,9.62963E-1,6E0,6.809651E-2,1.8892422E-1,4.6E1,1.5464044E-1,1.4580005E-1,4.397463E-2,5.1209677E-2,-1.1111112E-1,2.3497758E-2,1.1546391E-1,1.2102729E-1,-1.4285715E-1,5.1209677E-2,-1.20000005E-1,1.4938205E-2,-1.5E-1,-3.0004252E-2,1.0806193E-1,7.6506026E-2,1.8150654E-1,1.5417776E-1,6.842213E-2,1.3952059E-1,-1E-1,4.869298E-2,-1.4285715E-1,5.1209677E-2,-1E-1],"split_indices":[2,7,0,7,8,6,2,11,13,2,14,8,8,6,6,0,4,7,0,0,6,8,0,7,14,0,2,4,8,4,0,0,0,6,0,1,2,0,2,0,0,14,14,0,0,0,0,6,8,4,3,0,0,0,0,0,0,0,0,0,0,0,0,0,0,0,0,0,0,0,0,0,0,0,0,0,0,0,0],"split_type":[0,0,0,0,0,0,0,0,0,0,0,0,0,0,0,0,0,0,0,0,0,0,0,0,0,0,0,0,0,0,0,0,0,0,0,0,0,0,0,0,0,0,0,0,0,0,0,0,0,0,0,0,0,0,0,0,0,0,0,0,0,0,0,0,0,0,0,0,0,0,0,0,0,0,0,0,0,0,0],"sum_hessian":[3.77E2,1.8486789E2,1.9213211E2,4.0205284E1,1.446626E2,3.2373985E1,1.5975813E2,1.3565041E1,2.6640244E1,1.0597561E1,1.3406503E2,2.4075203E1,8.29878E0,7.886585E1,8.089227E1,8.75E0,4.8150406E0,2.4640244E1,2E0,2.75E0,7.847561E0,1.3053252E2,3.5325203E0,1.6178862E1,7.8963413E0,1.5325203E0,6.76626E0,5.2241867E1,2.6623983E1,7.326219E1,7.630081E0,3.3150406E0,1.5E0,2.2373983E1,2.2662601E0,3.8150406E0,4.0325203E0,1.2801627E2,2.5162601E0,1.75E0,1.7825203E0,5.7825203E0,1.0396341E1,1.5162601E0,6.380081E0,1.2662601E0,5.5E0,2.9085365E1,2.3156504E1,1.3227642E1,1.3396341E1,2.0325203E0,7.1229675E1,2.0162601E0,5.613821E0,1.3760162E1,8.613821E0,1.0162601E0,1.25E0,1.2662601E0,2.5487804E0,1.5325203E0,2.5E0,1.0162601E0,1.5E0,2.7825203E0,3E0,3.7825203E0,6.613821E0,3.0487804E0,2.6036585E1,1.42764225E1,8.880081E0,1.2227642E1,1E0,1.0896341E1,2.5E0,1.0162601E0,1E0],"tree_param":{"num_deleted":"0","num_feature":"15","num_nodes":"79","size_leaf_vector":"1"}},{"base_weights":[9.196789E-4,-1.2392265E0,1.1923547E0,1.1447357E-1,-1.6152911E0,1.5795049E-1,1.400273E0,-9.364619E-1,6.6251075E-1,-2.2107388E-1,-1.723612E0,4.7768217E-1,-7.2282493E-1,1.1350415E0,1.642552E0,-1.6460586E-1,4.103029E-1,8.6020774E-1,-1.2482635E-1,-1.3646661E-1,2.8826708E-1,-1.763467E0,-1.9389655E-1,6.795051E-2,1.2168237E0,1.1396432E-1,-1.2383603E0,1.4119529E0,5.616926E-1,1.6973009E0,9.823308E-1,1.2086015E-1,-1.1305224E-1,1.0029875E0,-4.2332095E-1,8.959661E-1,-3.5173514E-1,-1.78371E-1,-5.2410764E-1,-1.1949158E-1,8.6400226E-2,-7.430828E-1,5.4430723E-1,1.2145231E-3,1.4640337E0,2.2186607E-2,-1.5588523E-1,1.4565283E0,6.994754E-1,7.454416E-1,-7.057477E-1,6.3583545E-2,1.7185183E-1,-3.0519873E-2,1.4225967E-1,1.3288793E-1,4.005256E-2,-1.0690092E-1,5.0672174E-2,1.0997261E-1,1.80938E-2,1.1396432E-1,-1.33154E-1,5.078531E-2,-1.1473272E-1,1.38399E-2,-1.3935678E-1,-2.7636293E-2,9.893455E-2,1.5600087E-1,4.333294E-2,1.5515836E-1,1.006686E-1,-2.3756726E-2,1.2748541E-1,1.0259376E-1,-4.726808E-2,-1.2660162E-1,4.7802478E-2],"categories":[],"categories_nodes":[],"categories_segments":[],"categories_sizes":[],"default_left":[0,0,0,0,0,0,0,0,0,0,0,0,0,0,0,0,0,0,0,0,0,0,0,0,0,0,0,0,0,0,0,0,0,0,0,0,0,0,0,0,0,0,0,0,0,0,0,0,0,0,0,0,0,0,0,0,0,0,0,0,0,0,0,0,0,0,0,0,0,0,0,0,0,0,0,0,0,0,0],"id":1,"left_children":[1,3,5,7,9,11,13,15,17,19,21,23,25,27,29,-1,31,33,-1,-1,35,37,39,41,43,-1,45,47,49,51,53,-1,-1,55,57,59,61,-1,63,-1,-1,65,67,-1,69,-1,-1,71,73,75,77,-1,-1,-1,-1,-1,-1,-1,-1,-1,-1,-1,-1,-1,-1,-1,-1,-1,-1,-1,-1,-1,-1,-1,-1,-1,-1,-1,-1],"loss_changes":[5.560805E2,9.406247E1,4.106076E1,2.4249022E1,2.1423859E1,9.709323E0,8.3975525E0,1.4509026E1,1.1480835E1,7.1244287E0,7.8169556E0,7.487888E0,1.0296509E1,1.1824486E1,1.2685394E0,0E0,8.495145E0,5.1085243E0,0E0,0E0,3.7457273E0,2.334259E0,5.820755E0,7.0270386E0,2.6196146E0,0E0,3.9619732E0,6.621704E-1,6.94061E0,5.6552124E-1,5.30544E0,0E0,0E0,4.041811E0,2.5004249E0,5.0128055E-1,8.844543E0,0E0,2.8402214E0,0E0,0E0,4.072172E0,4.4283514E0,0E0,5.0063133E-2,0E0,0E0,5.285263E-1,3.0204346E0,8.87036E0,3.2588801E0,0E0,0E0,0E0,0E0,0E0,0E0,0E0,0E0,0E0,0E0,0E0,0E0,0E0,0E0,0E0,0E0,0E0,0E0,0E0,0E0,0E0,0E0,0E0,0E0,0E0,0E0,0E0,0E0],"parents":[2147483647,0,0,1,1,2,2,3,3,4,4,5,5,6,6,7,7,8,8,9,9,10,10,11,11,12,12,13,13,14,14,16,16,17,17,20,20,21,21,22,22,23,23,24,24,26,26,27,27,28,28,29,29,30,30,33,33,34,34,35,35,36,36,38,38,41,41,42,42,44,44,47,47,48,48,49,49,50,50],"right_children":[2,4,6,8,10,12,14,16,18,20,22,24,26,28,30,-1,32,34,-1,-1,36,38,40,42,44,-1,46,48,50,52,54,-1,-1,56,58,60,62,-1,64,-1,-1,66,68,-1,70,-1,-1,72,74,76,78,-1,-1,-1,-1,-1,-1,-1,-1,-1,-1,-1,-1,-1,-1,-1,-1,-1,-1,-1,-1,-1,-1,-1,-1,-1,-1,-1,-1],"split_conditions":[1.4E1,1.2E1,3.6E1,1E0,3E0,4.680851E-1,3.4E1,2.4E1,1E0,1E1,1.875E3,4E0,1E0,4E-1,4.827586E-1,-1.6460586E-1,9.2424244E-1,1.1E1,-1.2482635E-1,-1.3646661E-1,3.2258064E-1,5E0,8E0,1.6E1,1.39E2,1.1396432E-1,1.5E1,7.2E1,7E0,7.6666665E-1,6.4E1,1.2086015E-1,-1.1305224E-1,3.375E-1,4.5652175E-1,2.7E1,1.1E1,-1.78371E-1,1.2068965E-1,-1.1949158E-1,8.6400226E-2,2.81E2,8.32E2,1.2145231E-3,1.2E1,2.2186607E-2,-1.5588523E-1,2.5E1,2.4E1,9.62963E-1,3.7E1,6.3583545E-2,1.7185183E-1,-3.0519873E-2,1.4225967E-1,1.3288793E-1,4.005256E-2,-1.0690092E-1,5.0672174E-2,1.0997261E-1,1.80938E-2,1.1396432E-1,-1.33154E-1,5.078531E-2,-1.1473272E-1,1.38399E-2,-1.3935678E-1,-2.7636293E-2,9.893455E-2,1.5600087E-1,4.333294E-2,1.5515836E-1,1.006686E-1,-2.3756726E-2,1.2748541E-1,1.0259376E-1,-4.726808E-2,-1.2660162E-1,4.7802478E-2],"split_indices":[2,7,0,7,8,6,2,11,13,2,14,8,8,6,6,0,4,7,0,0,6,8,0,7,14,0,2,0,3,4,0,0,0,6,6,11,2,0,6,0,0,14,14,0,1,0,0,11,1,4,1,0,0,0,0,0,0,0,0,0,0,0,0,0,0,0,0,0,0,0,0,0,0,0,0,0,0,0,0],"split_type":[0,0,0,0,0,0,0,0,0,0,0,0,0,0,0,0,0,0,0,0,0,0,0,0,0,0,0,0,0,0,0,0,0,0,0,0,0,0,0,0,0,0,0,0,0,0,0,0,0,0,0,0,0,0,0,0,0,0,0,0,0,0,0,0,0,0,0,0,0,0,0,0,0,0,0,0,0,0,0],"sum_hessian":[3.743521E2,1.8340677E2,1.9094536E2,4.0025322E1,1.4338144E2,3.22516E1,1.5869376E2,1.347549E1,2.6549833E1,1.0555863E1,1.3282558E2,2.3997784E1,8.253816E0,7.847226E1,8.0221504E1,8.679905E0,4.795585E0,2.4558697E1,1.9911375E0,2.7352638E0,7.8205996E0,1.2930391E2,3.521671E0,1.6141773E1,7.8560095E0,1.526922E0,6.726894E0,5.1929253E1,2.6543007E1,7.262801E1,7.5934906E0,3.300972E0,1.4946129E0,2.2296951E1,2.261744E0,3.8063896E0,4.01421E0,1.267937E2,2.5102072E0,1.7429323E0,1.7787387E0,5.765553E0,1.037622E1,1.5162596E0,6.3397503E0,1.2660854E0,5.4608083E0,4.788882E1,4.0404325E0,2.3541845E1,3.001161E0,2.030166E0,7.059785E1,2.0130985E0,5.5803924E0,1.3687294E1,8.609658E0,1.2467561E0,1.014988E0,2.5435436E0,1.262846E0,1.526922E0,2.487288E0,1.0148602E0,1.495347E0,2.782365E0,2.983188E0,3.7816694E0,6.5945506E0,5.329914E0,1.009836E0,3.7512886E1,1.0375934E1,1.7604818E0,2.2799509E0,1.9263765E1,4.2780795E0,1.989889E0,1.011272E0],"tree_param":{"num_deleted":"0","num_feature":"15","num_nodes":"79","size_leaf_vector":"1"}},{"base_weights":[1.5786765E-3,-1.1427175E0,1.0955082E0,1.0009836E-1,-1.4918948E0,1.4737351E-1,1.2874056E0,-7.3906076E-1,6.902983E-1,-2.0351781E-1,-1.5933784E0,8.0967456E-1,-2.3526372E-1,1.039014E0,1.5165561E0,3.412491E-1,-1.594415E-1,8.4930354E-1,-1.05640344E-1,-1.2789601E-1,2.7389896E-1,-1.6306738E0,-1.8316661E-1,1.7992792E-1,1.2913726E-1,9.6328706E-1,-6.084119E-1,1.2978705E0,5.0799286E-1,1.5674706E0,9.0722483E-1,-7.333353E-1,1.22070424E-1,1.0052404E0,-3.9953184E-1,8.3664656E-1,-3.238488E-1,-4.8847857E-1,-1.6514933E-1,-1.12729825E-1,8.1186526E-2,-7.481498E-1,1.3152944E-1,1.17488936E-1,1.3165343E-2,-1.1650666E0,2.6123485E-1,1.4695868E0,1.0310934E0,7.942103E-1,-2.8335816E-1,5.945576E-2,1.5871152E-1,-2.8492613E-2,1.3205737E-1,-1.1722765E-1,2.1935632E-2,1.2547235E-1,3.4820464E-2,-1.0138116E-1,4.814311E-2,1.4045948E-2,1.04437314E-1,1.0776421E-1,-1.2494468E-1,5.219931E-2,-1.0602988E-1,1.9512773E-2,-1.2069513E-1,-1.3669172E-1,4.315356E-3,-9.997157E-2,6.681469E-2,6.304123E-2,1.5418796E-1,1.3014047E-1,5.1202025E-2,1.1515891E-3,1.3557315E-1,-1.4424197E-1,4.9926132E-2],"categories":[],"categories_nodes":[],"categories_segments":[],"categories_sizes":[],"default_left":[0,0,0,0,0,0,0,0,0,0,0,0,0,0,0,0,0,0,0,0,0,0,0,0,0,0,0,0,0,0,0,0,0,0,0,0,0,0,0,0,0,0,0,0,0,0,0,0,0,0,0,0,0,0,0,0,0,0,0,0,0,0,0,0,0,0,0,0,0,0,0,0,0,0,0,0,0,0,0,0,0],"id":2,"left_children":[1,3,5,7,9,11,13,15,17,19,21,23,25,27,29,31,-1,33,-1,-1,35,37,39,41,-1,43,45,47,49,51,53,55,-1,57,59,61,63,65,-1,-1,-1,67,-1,-1,-1,69,71,73,75,77,79,-1,-1,-1,-1,-1,-1,-1,-1,-1,-1,-1,-1,-1,-1,-1,-1,-1,-1,-1,-1,-1,-1,-1,-1,-1,-1,-1,-1,-1,-1],"loss_changes":[4.626022E2,7.853194E1,3.418596E1,2.0595036E1,1.8120117E1,8.536153E0,7.3607483E0,1.6463459E1,7.653204E0,6.2274575E0,6.571228E0,3.4940434E0,1.0267759E1,1.0133133E1,1.0440063E0,8.868143E0,0E0,4.8514404E0,0E0,0E0,3.2146635E0,2.2164001E0,5.1351933E0,7.8182373E0,0E0,8.1787825E-1,8.592566E0,8.732834E-1,6.4251294E0,4.3218994E-1,4.5667224E0,2.1062155E0,0E0,2.9395103E0,2.2479603E0,5.4552865E-1,7.7865434E0,2.688916E0,0E0,0E0,0E0,2.0558271E0,0E0,0E0,0E0,2.6495457E0,4.515584E0,8.0979156E-1,2.6688595E0,8.935132E0,7.9841084E0,0E0,0E0,0E0,0E0,0E0,0E0,0E0,0E0,0E0,0E0,0E0,0E0,0E0,0E0,0E0,0E0,0E0,0E0,0E0,0E0,0E0,0E0,0E0,0E0,0E0,0E0,0E0,0E0,0E0,0E0],"parents":[2147483647,0,0,1,1,2,2,3,3,4,4,5,5,6,6,7,7,8,8,9,9,10,10,11,11,12,12,13,13,14,14,15,15,17,17,20,20,21,21,22,22,23,23,25,25,26,26,27,27,28,28,29,29,30,30,31,31,33,33,34,34,35,35,36,36,37,37,41,41,45,45,46,46,47,47,48,48,49,49,50,50],"right_children":[2,4,6,8,10,12,14,16,18,20,22,24,26,28,30,32,-1,34,-1,-1,36,38,40,42,-1,44,46,48,50,52,54,56,-1,58,60,62,64,66,-1,-1,-1,68,-1,-1,-1,70,72,74,76,78,80,-1,-1,-1,-1,-1,-1,-1,-1,-1,-1,-1,-1,-1,-1,-1,-1,-1,-1,-1,-1,-1,-1,-1,-1,-1,-1,-1,-1,-1,-1],"split_conditions":[1.4E1,1.2E1,3.6E1,3E0,3E0,3.1034482E-1,3.4E1,9.2424244E-1,1E0,1E1,1.875E3,1.6E1,1.5E1,4E-1,4.827586E-1,2.4E1,-1.594415E-1,1.1E1,-1.05640344E-1,-1.2789601E-1,3.2258064E-1,1.4E1,8E0,2.9787233E-1,1.2913726E-1,2.7E1,2E1,9.444444E-1,5E1,7.6666665E-1,6.4E1,1.2E1,1.22070424E-1,7E0,4.5652175E-1,2.6666668E-1,1.1E1,2E0,-1.6514933E-1,-1.12729825E-1,8.1186526E-2,1.4285715E-1,1.3152944E-1,1.17488936E-1,1.3165343E-2,2.4E1,2.9E1,2.4528302E-1,3E0,4.4E1,4.651163E-1,5.945576E-2,1.5871152E-1,-2.8492613E-2,1.3205737E-1,-1.1722765E-1,2.1935632E-2,1.2547235E-1,3.4820464E-2,-1.0138116E-1,4.814311E-2,1.4045948E-2,1.04437314E-1,1.0776421E-1,-1.2494468E-1,5.219931E-2,-1.0602988E-1,1.9512773E-2,-1.2069513E-1,-1.3669172E-1,4.315356E-3,-9.997157E-2,6.681469E-2,6.304123E-2,1.5418796E-1,1.3014047E-1,5.1202025E-2,1.1515891E-3,1.3557315E-1,-1.4424197E-1,4.9926132E-2],"split_indices":[2,7,0,7,8,6,2,4,13,2,14,7,2,6,6,11,0,7,0,0,6,7,0,6,0,0,7,4,0,4,0,0,0,1,6,6,2,1,0,0,0,6,0,0,0,2,0,6,8,0,6,0,0,0,0,0,0,0,0,0,0,0,0,0,0,0,0,0,0,0,0,0,0,0,0,0,0,0,0,0,0],"split_type":[0,0,0,0,0,0,0,0,0,0,0,0,0,0,0,0,0,0,0,0,0,0,0,0,0,0,0,0,0,0,0,0,0,0,0,0,0,0,0,0,0,0,0,0,0,0,0,0,0,0,0,0,0,0,0,0,0,0,0,0,0,0,0,0,0,0,0,0,0,0,0,0,0,0,0,0,0,0,0,0,0],"sum_hessian":[3.6755557E2,1.7962045E2,1.8793512E2,3.9553226E1,1.4006723E2,3.1932013E1,1.5600311E2,1.6227867E1,2.3325357E1,1.044675E1,1.2962048E2,1.12842455E1,2.0647768E1,7.7514336E1,7.848878E1,7.4365587E0,8.791309E0,2.1850075E1,1.4752825E0,2.6956148E0,7.7511344E0,1.2612847E2,3.4920108E0,5.4858556E0,5.79839E0,4.526655E0,1.6121113E1,5.114071E1,2.6373625E1,7.098497E1,7.503807E0,3.4217522E0,4.0148067E0,1.959801E1,2.2520645E0,3.7865937E0,3.9645407E0,2.6957724E0,1.234327E2,1.7236274E0,1.7683834E0,3.2061312E0,2.2797241E0,3.2794719E0,1.2471832E0,9.622268E0,6.498845E0,2.8370693E1,2.2770016E1,1.9365763E1,7.007861E0,2.0237348E0,6.8961235E1,2.0119047E0,5.4919024E0,2.1846926E0,1.2370596E0,1.3545118E1,6.0528913E0,1.2380174E0,1.014047E0,1.2553881E0,2.5312057E0,1.5115566E0,2.452984E0,1.0057085E0,1.6900641E0,1.2371995E0,1.9689317E0,8.132301E0,1.4899664E0,1.2301102E0,5.268735E0,3.0211766E0,2.5349518E1,1.3981744E1,8.788271E0,8.515987E0,1.0849775E1,2.4847999E0,4.5230613E0],"tree_param":{"num_deleted":"0","num_feature":"15","num_nodes":"81","size_leaf_vector":"1"}},{"base_weights":[2.548632E-3,-1.0643991E0,1.0143338E0,8.823851E-2,-1.3937445E0,4.0081155E-1,1.2775872E0,-8.1809545E-1,5.5196255E-1,-1.8850717E-1,-1.4905709E0,6.8079996E-1,-4.2504215E-1,4.6657603E-3,1.336654E0,-1.4434068E-1,3.5206816E-1,7.243998E-1,-1.1106247E-1,-1.20573714E-1,2.6111886E-1,-1.5261729E0,-1.7380655E-1,4.1434044E-1,1.1864846E0,1.0431721E-1,-6.646356E-1,9.54666E-1,-1.3236925E-1,5.9591085E-1,1.3623984E0,1.0486163E-1,-9.89778E-2,1.1135031E0,2.6945236E-1,-5.179608E-1,6.514846E-1,-1.5450804E-1,-4.2728046E-1,-1.0678822E-1,7.645279E-2,-1.0795075E-1,5.310636E-1,1.3450861E0,-1.2057866E-2,-9.550134E-1,8.121825E-2,7.5997314E-3,1.2597279E-1,8.7223485E-2,-1.4372694E-2,1.3793602E0,5.199927E-1,1.3401355E-1,3.8382374E-2,7.587456E-2,-1.4212403E-1,-1.015713E-1,2.1138728E-2,1.1211838E-1,-2.4887133E-2,-1.01454295E-1,5.061266E-2,-5.559707E-3,7.305618E-2,2.2063198E-2,1.4487377E-1,3.6798578E-2,-1.3462356E-1,1.3905464E-1,4.8703205E-2,-1.6511654E-2,9.9338345E-2],"categories":[],"categories_nodes":[],"categories_segments":[],"categories_sizes":[],"default_left":[0,0,0,0,0,0,0,0,0,0,0,0,0,0,0,0,0,0,0,0,0,0,0,0,0,0,0,0,0,0,0,0,0,0,0,0,0,0,0,0,0,0,0,0,0,0,0,0,0,0,0,0,0,0,0,0,0,0,0,0,0,0,0,0,0,0,0,0,0,0,0,0,0],"id":3,"left_children":[1,3,5,7,9,11,13,15,17,19,21,23,25,27,29,-1,31,33,-1,-1,35,37,39,41,43,-1,45,47,-1,49,51,-1,-1,53,55,57,59,-1,61,-1,-1,-1,63,65,-1,67,-1,-1,-1,-1,-1,69,71,-1,-1,-1,-1,-1,-1,-1,-1,-1,-1,-1,-1,-1,-1,-1,-1,-1,-1,-1,-1],"loss_changes":[3.8866327E2,6.6647064E1,2.9334045E1,1.7214638E1,1.5631561E1,1.34558735E1,9.681702E0,1.068098E1,8.54006E0,5.4761643E0,5.6448975E0,5.2900963E0,5.981419E0,9.7406E0,1.5363007E0,0E0,6.3148036E0,4.1346636E0,0E0,0E0,2.9674244E0,1.8876038E0,4.5475698E0,5.7411494E0,3.1205482E0,0E0,6.5797014E0,1.1097922E0,0E0,1.3339052E0,9.719391E-1,0E0,0E0,1.6658115E0,1.1723317E1,1.4648973E0,2.9026606E0,0E0,2.4081373E0,0E0,0E0,0E0,3.3364253E0,1.1732407E0,0E0,6.5874596E0,0E0,0E0,0E0,0E0,0E0,4.7348022E-1,1.4413612E0,0E0,0E0,0E0,0E0,0E0,0E0,0E0,0E0,0E0,0E0,0E0,0E0,0E0,0E0,0E0,0E0,0E0,0E0,0E0,0E0],"parents":[2147483647,0,0,1,1,2,2,3,3,4,4,5,5,6,6,7,7,8,8,9,9,10,10,11,11,12,12,13,13,14,14,16,16,17,17,20,20,21,21,22,22,23,23,24,24,26,26,27,27,29,29,30,30,33,33,34,34,35,35,36,36,38,38,42,42,43,43,45,45,51,51,52,52],"right_children":[2,4,6,8,10,12,14,16,18,20,22,24,26,28,30,-1,32,34,-1,-1,36,38,40,42,44,-1,46,48,-1,50,52,-1,-1,54,56,58,60,-1,62,-1,-1,-1,64,66,-1,68,-1,-1,-1,-1,-1,70,72,-1,-1,-1,-1,-1,-1,-1,-1,-1,-1,-1,-1,-1,-1,-1,-1,-1,-1,-1,-1],"split_conditions":[1.4E1,1.2E1,4.3E1,1E0,3E0,4.6153846E-1,7.8723407E-1,2.4E1,1E0,1E1,1.875E3,4E0,1E0,4E0,2.1E1,-1.4434068E-1,9.2424244E-1,8.684211E-1,-1.1106247E-1,-1.20573714E-1,1.8E1,5E0,8E0,1.5E1,1.4E1,1.0431721E-1,5E0,1.6E1,-1.3236925E-1,1.8E1,5.531915E-1,1.0486163E-1,-9.89778E-2,1E1,6E0,1.6E1,3.2258064E-1,-1.5450804E-1,2.5E1,-1.0678822E-1,7.645279E-2,-1.0795075E-1,1.4E1,1.39E2,-1.2057866E-2,9E0,8.121825E-2,7.5997314E-3,1.2597279E-1,8.7223485E-2,-1.4372694E-2,2.841E3,6E0,1.3401355E-1,3.8382374E-2,7.587456E-2,-1.4212403E-1,-1.015713E-1,2.1138728E-2,1.1211838E-1,-2.4887133E-2,-1.01454295E-1,5.061266E-2,-5.559707E-3,7.305618E-2,2.2063198E-2,1.4487377E-1,3.6798578E-2,-1.3462356E-1,1.3905464E-1,4.8703205E-2,-1.6511654E-2,9.9338345E-2],"split_indices":[2,7,0,7,8,6,4,11,13,2,14,8,8,8,2,0,4,4,0,0,7,8,0,11,1,0,8,3,0,2,6,0,0,1,1,1,6,0,11,0,0,0,7,14,0,7,0,0,0,0,0,14,3,0,0,0,0,0,0,0,0,0,0,0,0,0,0,0,0,0,0,0,0],"split_type":[0,0,0,0,0,0,0,0,0,0,0,0,0,0,0,0,0,0,0,0,0,0,0,0,0,0,0,0,0,0,0,0,0,0,0,0,0,0,0,0,0,0,0,0,0,0,0,0,0,0,0,0,0,0,0,0,0,0,0,0,0,0,0,0,0,0,0,0,0,0,0,0,0],"sum_hessian":[3.5803262E2,1.7424051E2,1.8379211E2,3.8884663E1,1.3535585E2,5.594128E1,1.2785083E2,1.2902652E1,2.598201E1,1.0284714E1,1.2507114E2,4.1908665E1,1.4032615E1,5.717365E0,1.2213347E2,8.256851E0,4.6458E0,2.4051746E1,1.9302626E0,2.6370442E0,7.64767E0,1.216237E2,3.447439E0,2.8637907E1,1.3270759E1,1.4981451E0,1.253447E1,3.4974306E0,2.219934E0,4.9132195E0,1.17220245E2,3.202118E0,1.4436822E0,1.2183776E1,1.186797E1,2.4437165E0,5.2039533E0,1.1916729E2,2.4564135E0,1.6946552E0,1.7527839E0,1.4776889E0,2.716022E1,1.180877E1,1.4619889E0,1.0770134E1,1.7643358E0,1.2232444E0,2.2741861E0,3.4463952E0,1.4668245E0,1.1428179E2,2.9384565E0,8.658049E0,3.5257273E0,9.631731E0,2.2362397E0,1.2190976E0,1.2246189E0,3.258688E0,1.945265E0,1.4544237E0,1.0019898E0,7.0753055E0,2.0084913E1,1.260706E0,1.0548064E1,2.471531E0,8.298603E0,1.1231546E2,1.966331E0,1.4668211E0,1.4716353E0],"tree_param":{"num_deleted":"0","num_feature":"15","num_nodes":"73","size_leaf_vector":"1"}},{"base_weights":[2.1745341E-3,-9.996773E-1,9.417053E-1,7.729067E-2,-1.3138775E0,1.0782047E-1,1.1156726E0,-6.5845287E-1,5.833244E-1,-1.8229805E-1,-1.407466E0,7.027036E-1,-2.3388371E-1,8.8504547E-1,1.3349743E0,3.0376977E-1,-1.4275841E-1,7.238341E-1,-9.513243E-2,-1.1422539E-1,2.3812638E-1,-1.44198E0,-1.6559513E-1,1.3652532E-1,1.1407467E0,8.5477346E-1,-5.7111686E-1,1.1243778E0,4.08365E-1,9.5587164E-1,1.4361582E0,-1.00743234E-1,8.482205E-1,8.6885846E-1,-3.9976132E-1,-4.9194726E-1,6.067068E-1,-3.9994308E-1,-1.461936E-1,-1.0151428E-1,7.2127394E-2,-7.215299E-1,1.1987366E-1,1.3039613E-1,5.0513458E-2,7.287204E-3,1.0660639E-1,-1.0656649E0,2.0434476E-1,1.2968338E0,8.663303E-1,8.6781216E-1,-6.585913E-2,1.1317289E0,-3.3388313E-2,5.076564E-2,1.4606956E-1,-2.0196507E-2,1.2681481E-1,1.09139524E-1,2.9922102E-2,-9.8427095E-2,4.482027E-2,-9.666714E-2,1.9982466E-2,1.0500532E-1,-2.3268657E-2,3.0906482E-2,-8.9300625E-2,-1.1357089E-1,1.5793456E-2,-1.255808E-1,5.551813E-3,-9.340201E-2,5.7532232E-2,6.906257E-2,1.4060092E-1,1.1375102E-1,3.6973145E-2,1.24261E-1,-2.8124569E-2,9.4914936E-2,-4.855614E-2,1.2705618E-1,3.149154E-2],"categories":[],"categories_nodes":[],"categories_segments":[],"categories_sizes":[],"default_left":[0,0,0,0,0,0,0,0,0,0,0,0,0,0,0,0,0,0,0,0,0,0,0,0,0,0,0,0,0,0,0,0,0,0,0,0,0,0,0,0,0,0,0,0,0,0,0,0,0,0,0,0,0,0,0,0,0,0,0,0,0,0,0,0,0,0,0,0,0,0,0,0,0,0,0,0,0,0,0,0,0,0,0,0,0],"id":4,"left_children":[1,3,5,7,9,11,13,15,17,19,21,23,25,27,29,31,-1,33,-1,-1,35,37,39,41,43,45,47,49,51,53,55,-1,57,59,61,63,65,67,-1,-1,-1,69,-1,-1,-1,-1,-1,71,73,75,77,79,81,83,-1,-1,-1,-1,-1,-1,-1,-1,-1,-1,-1,-1,-1,-1,-1,-1,-1,-1,-1,-1,-1,-1,-1,-1,-1,-1,-1,-1,-1,-1,-1],"loss_changes":[3.2836945E2,5.7231003E1,2.5995972E1,1.4932287E1,1.3590759E1,6.706073E0,6.346634E0,1.256591E1,5.795251E0,4.766755E0,4.9311523E0,2.818131E0,8.268008E0,8.156139E0,1.4783936E0,6.6420193E0,0E0,3.9751596E0,0E0,0E0,2.6052365E0,1.8530121E0,4.040767E0,6.667496E0,2.8557777E-2,8.164749E-1,6.6523876E0,1.0884323E0,5.899022E0,4.6077824E0,5.4979706E-1,0E0,3.0217876E0,2.2129993E0,2.0420723E0,1.3189707E0,2.5308883E0,1.5273058E0,0E0,0E0,0E0,1.6895301E0,0E0,0E0,0E0,0E0,0E0,2.2880821E0,3.6509323E0,8.6758804E-1,2.6664696E0,6.2447634E0,6.477454E0,1.4868088E0,0E0,0E0,0E0,0E0,0E0,0E0,0E0,0E0,0E0,0E0,0E0,0E0,0E0,0E0,0E0,0E0,0E0,0E0,0E0,0E0,0E0,0E0,0E0,0E0,0E0,0E0,0E0,0E0,0E0,0E0,0E0],"parents":[2147483647,0,0,1,1,2,2,3,3,4,4,5,5,6,6,7,7,8,8,9,9,10,10,11,11,12,12,13,13,14,14,15,15,17,17,20,20,21,21,22,22,23,23,24,24,25,25,26,26,27,27,28,28,29,29,30,30,32,32,33,33,34,34,35,35,36,36,37,37,41,41,47,47,48,48,49,49,50,50,51,51,52,52,53,53],"right_children":[2,4,6,8,10,12,14,16,18,20,22,24,26,28,30,32,-1,34,-1,-1,36,38,40,42,44,46,48,50,52,54,56,-1,58,60,62,64,66,68,-1,-1,-1,70,-1,-1,-1,-1,-1,72,74,76,78,80,82,84,-1,-1,-1,-1,-1,-1,-1,-1,-1,-1,-1,-1,-1,-1,-1,-1,-1,-1,-1,-1,-1,-1,-1,-1,-1,-1,-1,-1,-1,-1,-1],"split_conditions":[1.4E1,1.2E1,3.6E1,3E0,3E0,3.1034482E-1,3.4E1,9.2424244E-1,1E0,1E1,1.875E3,1.6E1,1.5E1,4E-1,6.4E1,2.3E1,-1.4275841E-1,1.1E1,-9.513243E-2,-1.1422539E-1,1.8E1,1.4E1,8E0,2.9787233E-1,2.4324325E-1,7.49E2,2E1,9.444444E-1,3E0,4.827586E-1,7.6666665E-1,-1.00743234E-1,5.714286E-1,7E0,4.5652175E-1,1.6E1,3.2258064E-1,3.846154E-1,-1.461936E-1,-1.0151428E-1,7.2127394E-2,1E0,1.1987366E-1,1.3039613E-1,5.0513458E-2,7.287204E-3,1.0660639E-1,2.4E1,2.9E1,1.1E1,3E0,2.8E1,1.1E1,1.05E3,-3.3388313E-2,5.076564E-2,1.4606956E-1,-2.0196507E-2,1.2681481E-1,1.09139524E-1,2.9922102E-2,-9.8427095E-2,4.482027E-2,-9.666714E-2,1.9982466E-2,1.0500532E-1,-2.3268657E-2,3.0906482E-2,-8.9300625E-2,-1.1357089E-1,1.5793456E-2,-1.255808E-1,5.551813E-3,-9.340201E-2,5.7532232E-2,6.906257E-2,1.4060092E-1,1.1375102E-1,3.6973145E-2,1.24261E-1,-2.8124569E-2,9.4914936E-2,-4.855614E-2,1.2705618E-1,3.149154E-2],"split_indices":[2,7,0,7,8,6,2,4,13,2,14,7,2,6,0,11,0,7,0,0,7,7,0,6,6,14,7,4,8,6,4,0,4,1,6,1,6,6,0,0,0,13,0,0,0,0,0,2,0,7,8,2,7,14,0,0,0,0,0,0,0,0,0,0,0,0,0,0,0,0,0,0,0,0,0,0,0,0,0,0,0,0,0,0,0],"split_type":[0,0,0,0,0,0,0,0,0,0,0,0,0,0,0,0,0,0,0,0,0,0,0,0,0,0,0,0,0,0,0,0,0,0,0,0,0,0,0,0,0,0,0,0,0,0,0,0,0,0,0,0,0,0,0,0,0,0,0,0,0,0,0,0,0,0,0,0,0,0,0,0,0,0,0,0,0,0,0,0,0,0,0,0,0],"sum_hessian":[3.4685748E2,1.6783046E2,1.7902702E2,3.8075386E1,1.2975507E2,3.1181786E1,1.4784525E2,1.5393267E1,2.2682117E1,1.0136964E1,1.1961811E2,1.0990911E1,2.0190874E1,7.4516365E1,7.332887E1,7.107041E0,8.286226E0,2.12636E1,1.418519E0,2.5645092E0,7.5724545E0,1.1622681E2,3.3913004E0,5.3664074E0,5.624503E0,4.4123254E0,1.577855E1,4.8704155E1,2.5812208E1,1.7649384E1,5.5679493E1,1.8357162E0,5.2713246E0,1.9033615E1,2.2299845E0,2.4281452E0,5.144309E0,2.5794055E0,1.136474E2,1.6582227E0,1.7330776E0,3.145886E0,2.2205212E0,3.6386533E0,1.9858497E0,1.2247827E0,3.1875424E0,9.4058E0,6.37275E0,2.6780733E1,2.1923422E1,1.2688818E1,1.312339E1,1.5639475E1,2.0099084E0,1.9919622E0,5.368753E1,1.6539795E0,3.617345E0,1.302807E1,6.005544E0,1.2249019E0,1.0050826E0,1.2043102E0,1.223835E0,3.2020833E0,1.9422259E0,1.2110833E0,1.3683221E0,1.9406047E0,1.2052813E0,7.9392896E0,1.4665103E0,1.1933042E0,5.1794457E0,5.2050395E0,2.1575693E1,1.3345297E1,8.578125E0,9.506565E0,3.1822524E0,3.4700162E0,9.653375E0,1.2892618E1,2.746856E0],"tree_param":{"num_deleted":"0","num_feature":"15","num_nodes":"85","size_leaf_vector":"1"}},{"base_weights":[3.2257377E-3,-1.048016E0,7.956658E-1,-1.4314714E-1,-1.340097E0,4.065605E-2,1.0263451E0,-8.0860066E-1,2.6177692E-1,1.5405687E-2,-1.3609116E0,5.2107835E-1,-3.1485516E-1,-5.7351506E-1,1.0594983E0,-1.3723749E-1,4.0969613E-1,9.061312E-1,-3.0338526E-1,-3.625929E-2,-1.3776475E0,-1.2119467E-1,8.273962E-1,-4.357363E-1,1.04758374E-1,-1.1192062E-1,3.1167135E-2,9.07094E-1,1.3564588E0,1.0069951E-1,-8.933303E-2,1.0613667E0,-7.419015E-3,-9.3995875E-1,7.45443E-1,-1.4257005E-1,-8.827574E-1,-7.707188E-1,6.51692E-1,1.0058756E0,2.0204905E-1,9.044574E-2,-9.398132E-1,1.1550096E0,6.3846695E-1,1.571509E-2,1.4082609E-1,2.9730124E-2,1.20331384E-1,2.8078327E-2,-1.1757679E-1,1.21096805E-1,-2.0978983E-2,-1.2660508E-1,-8.386427E-3,-1.13281466E-1,1.4764817E-2,9.4946146E-2,8.535388E-3,5.074814E-2,1.2502564E-1,6.465141E-2,-3.1301312E-2,-7.49495E-2,4.2381443E-2,3.463685E-2,-1.4172825E-1,1.2382686E-1,4.1745123E-2,2.2176659E-2,1.0343512E-1],"categories":[],"categories_nodes":[],"categories_segments":[],"categories_sizes":[],"default_left":[0,0,0,0,0,0,0,0,0,0,0,0,0,0,0,0,0,0,0,0,0,0,0,0,0,0,0,0,0,0,0,0,0,0,0,0,0,0,0,0,0,0,0,0,0,0,0,0,0,0,0,0,0,0,0,0,0,0,0,0,0,0,0,0,0,0,0,0,0,0,0],"id":5,"left_children":[1,3,5,7,9,11,13,15,17,-1,19,21,23,25,27,-1,29,31,33,-1,35,37,39,41,-1,-1,-1,43,45,-1,-1,47,-1,49,51,-1,53,55,57,59,61,63,65,67,69,-1,-1,-1,-1,-1,-1,-1,-1,-1,-1,-1,-1,-1,-1,-1,-1,-1,-1,-1,-1,-1,-1,-1,-1,-1,-1],"loss_changes":[2.8011462E2,3.8006134E1,3.3350037E1,1.001656E1,3.6039429E0,8.005337E0,8.394745E0,1.0184899E1,8.788162E0,0E0,1.3006287E0,4.0157266E0,4.904606E0,2.1019638E0,5.295105E0,0E0,4.9484863E0,1.7792492E0,9.5159E0,0E0,1.2529144E0,4.166364E0,1.3149958E0,6.852194E0,0E0,0E0,0E0,5.809204E0,2.6913452E0,0E0,0E0,6.95591E-1,0E0,2.8226423E0,2.7196226E0,0E0,3.5600033E0,1.6384342E0,5.7239294E-1,6.23827E-1,1.1802728E0,4.068496E0,8.547081E0,2.5465012E0,7.9226227E0,0E0,0E0,0E0,0E0,0E0,0E0,0E0,0E0,0E0,0E0,0E0,0E0,0E0,0E0,0E0,0E0,0E0,0E0,0E0,0E0,0E0,0E0,0E0,0E0,0E0,0E0],"parents":[2147483647,0,0,1,1,2,2,3,3,4,4,5,5,6,6,7,7,8,8,10,10,11,11,12,12,13,13,14,14,16,16,17,17,18,18,20,20,21,21,22,22,23,23,27,27,28,28,31,31,33,33,34,34,36,36,37,37,38,38,39,39,40,40,41,41,42,42,43,43,44,44],"right_children":[2,4,6,8,10,12,14,16,18,-1,20,22,24,26,28,-1,30,32,34,-1,36,38,40,42,-1,-1,-1,44,46,-1,-1,48,-1,50,52,-1,54,56,58,60,62,64,66,68,70,-1,-1,-1,-1,-1,-1,-1,-1,-1,-1,-1,-1,-1,-1,-1,-1,-1,-1,-1,-1,-1,-1,-1,-1,-1,-1],"split_conditions":[2.2E1,1.5E1,3.6E1,3E0,1.06E2,1E1,7E-1,9.03E2,8E0,1.5405687E-2,2E0,2.6E1,5E0,1.125E3,4E1,-1.3723749E-1,9.2424244E-1,8E0,4E0,-3.625929E-2,1E0,1.8E1,2.9E1,3E0,1.04758374E-1,-1.1192062E-1,3.1167135E-2,3E0,6.4E1,1.0069951E-1,-8.933303E-2,2E0,-7.419015E-3,1.38E2,1.2E1,-1.4257005E-1,1E1,3.2107842E-1,7E0,2.1E1,1.8367347E-1,4.0229884E-1,8E0,1.318E3,6.33E2,1.571509E-2,1.4082609E-1,2.9730124E-2,1.20331384E-1,2.8078327E-2,-1.1757679E-1,1.21096805E-1,-2.0978983E-2,-1.2660508E-1,-8.386427E-3,-1.13281466E-1,1.4764817E-2,9.4946146E-2,8.535388E-3,5.074814E-2,1.2502564E-1,6.465141E-2,-3.1301312E-2,-7.49495E-2,4.2381443E-2,3.463685E-2,-1.4172825E-1,1.2382686E-1,4.1745123E-2,2.2176659E-2,1.0343512E-1],"split_indices":[0,7,0,7,14,1,4,14,7,0,8,0,8,14,2,0,4,2,8,0,13,7,0,8,0,0,0,8,0,0,0,8,0,14,0,0,0,6,1,11,6,6,7,14,14,0,0,0,0,0,0,0,0,0,0,0,0,0,0,0,0,0,0,0,0,0,0,0,0,0,0],"split_type":[0,0,0,0,0,0,0,0,0,0,0,0,0,0,0,0,0,0,0,0,0,0,0,0,0,0,0,0,0,0,0,0,0,0,0,0,0,0,0,0,0,0,0,0,0,0,0,0,0,0,0,0,0,0,0,0,0,0,0,0,0,0,0,0,0,0,0,0,0,0,0],"sum_hessian":[3.342525E2,1.4352776E2,1.9072473E2,3.538742E1,1.08140335E2,4.49103E1,1.4581444E2,1.3009933E1,2.2377487E1,1.3978194E0,1.06742516E2,1.890168E1,2.600862E1,2.6293995E0,1.4318504E2,8.807664E0,4.2022696E0,1.0174264E1,1.2203222E1,2.1336396E0,1.0460887E2,6.298865E0,1.2602815E1,2.451383E1,1.4947884E0,1.4630805E0,1.1663191E0,9.730257E1,4.5882473E1,3.0372162E0,1.1650531E0,8.7120285E0,1.4622357E0,7.658681E0,4.544542E0,9.363613E1,1.0972745E1,3.4240997E0,2.8747652E0,9.331125E0,3.2716894E0,1.2395415E1,1.2118416E1,4.8886024E1,4.8416542E1,2.0667784E0,4.3815693E1,1.8497491E0,6.8622794E0,1.2090292E0,6.4496517E0,2.8754792E0,1.6690624E0,7.0199533E0,3.9527924E0,2.2883384E0,1.1357611E0,1.4407532E0,1.434012E0,4.082273E0,5.2488527E0,1.6192054E0,1.652484E0,3.1672094E0,9.228206E0,3.3551261E0,8.76329E0,4.3317295E1,5.5687294E0,2.4348232E1,2.406831E1],"tree_param":{"num_deleted":"0","num_feature":"15","num_nodes":"71","size_leaf_vector":"1"}},{"base_weights":[3.4685622E-3,-8.9709884E-1,8.26471E-1,6.336923E-2,-1.1913233E0,3.116045E-1,1.0609034E0,-5.9459394E-1,5.012196E-1,-1.7657432E-1,-1.2815038E0,5.4723847E-1,-3.7616128E-1,-6.0328707E-2,1.1176407E0,2.6534992E-1,-1.2960373E-1,6.3285506E-1,-9.024346E-2,-1.0638584E-1,2.0850079E-1,-1.3173968E0,-9.611648E-2,2.8927568E-1,1.0504934E0,9.455447E-2,-5.948139E-1,8.1860316E-1,-1.241822E-1,4.2241198E-1,1.1442586E0,-6.117279E-1,9.755916E-2,9.670332E-1,1.3951132E-1,1.01263426E-1,-1.10846385E-1,-1.3360696E-1,-3.389817E-1,-9.077109E-2,6.996945E-2,-1.0118314E-1,3.9683208E-1,1.1990038E0,-1.2069545E-2,-8.633776E-1,7.3612124E-2,1.0905124E-5,1.1189733E-1,7.146063E-1,-2.6369626E-2,1.1616023E0,3.6155972E-1,1.9313898E-2,-9.792666E-2,-1.693813E-3,1.0673988E-1,1.0718042E-1,-1.0208861E-1,6.506617E-2,-1.12169124E-1,2.728217E-2,-8.085985E-2,6.497934E-2,-1.700051E-3,2.0064814E-2,1.2947768E-1,3.2092005E-2,-1.2181983E-1,9.2042945E-2,2.8610427E-2,1.0270276E-1,1.3100329E-1,-2.6838778E-2,8.516933E-2],"categories":[],"categories_nodes":[],"categories_segments":[],"categories_sizes":[],"default_left":[0,0,0,0,0,0,0,0,0,0,0,0,0,0,0,0,0,0,0,0,0,0,0,0,0,0,0,0,0,0,0,0,0,0,0,0,0,0,0,0,0,0,0,0,0,0,0,0,0,0,0,0,0,0,0,0,0,0,0,0,0,0,0,0,0,0,0,0,0,0,0,0,0,0,0],"id":6,"left_children":[1,3,5,7,9,11,13,15,17,19,21,23,25,27,29,31,-1,33,-1,-1,35,37,39,41,43,-1,45,47,-1,49,51,53,-1,55,57,-1,59,-1,61,-1,-1,-1,63,65,-1,67,-1,-1,-1,69,-1,71,73,-1,-1,-1,-1,-1,-1,-1,-1,-1,-1,-1,-1,-1,-1,-1,-1,-1,-1,-1,-1,-1,-1],"loss_changes":[2.399324E2,4.375831E1,2.0085167E1,1.101438E1,1.0606781E1,9.011493E0,7.4345856E0,9.585247E0,4.798211E0,3.9192426E0,4.4922485E0,5.002863E0,4.740699E0,7.7942095E0,1.5574646E0,5.4013147E0,0E0,3.4103088E0,0E0,0E0,2.2648826E0,1.4707031E0,3.3924975E0,4.376564E0,2.4880505E0,0E0,5.2892623E0,1.0681622E0,0E0,1.3214844E0,1.013916E0,1.3918293E0,0E0,1.2674866E0,1.1752897E1,0E0,6.042161E0,0E0,1.1721148E0,0E0,0E0,0E0,2.8327193E0,8.921757E-1,0E0,5.136711E0,0E0,0E0,0E0,1.10016584E-1,0E0,7.097168E-1,1.3838919E0,0E0,0E0,0E0,0E0,0E0,0E0,0E0,0E0,0E0,0E0,0E0,0E0,0E0,0E0,0E0,0E0,0E0,0E0,0E0,0E0,0E0,0E0],"parents":[2147483647,0,0,1,1,2,2,3,3,4,4,5,5,6,6,7,7,8,8,9,9,10,10,11,11,12,12,13,13,14,14,15,15,17,17,20,20,21,21,22,22,23,23,24,24,26,26,27,27,29,29,30,30,31,31,33,33,34,34,36,36,38,38,42,42,43,43,45,45,49,49,51,51,52,52],"right_children":[2,4,6,8,10,12,14,16,18,20,22,24,26,28,30,32,-1,34,-1,-1,36,38,40,42,44,-1,46,48,-1,50,52,54,-1,56,58,-1,60,-1,62,-1,-1,-1,64,66,-1,68,-1,-1,-1,70,-1,72,74,-1,-1,-1,-1,-1,-1,-1,-1,-1,-1,-1,-1,-1,-1,-1,-1,-1,-1,-1,-1,-1,-1],"split_conditions":[1.4E1,1.2E1,4.3E1,3E0,3E0,4.6153846E-1,7.8723407E-1,9.2424244E-1,1E0,1E1,1.875E3,4E0,1E0,4E0,2.1E1,2.4E1,-1.2960373E-1,2.5E1,-9.024346E-2,-1.0638584E-1,1.1E1,5E0,8E0,1.5E1,1.4E1,9.455447E-2,5E0,1.6E1,-1.241822E-1,1.8E1,5.531915E-1,1.72E2,9.755916E-2,7.5238097E-1,4E0,1.01263426E-1,3.2258064E-1,-1.3360696E-1,1.2E1,-9.077109E-2,6.996945E-2,-1.0118314E-1,2.5E1,1.39E2,-1.2069545E-2,9E0,7.3612124E-2,1.0905124E-5,1.1189733E-1,4.5E1,-2.6369626E-2,3.8E1,6E0,1.9313898E-2,-9.792666E-2,-1.693813E-3,1.0673988E-1,1.0718042E-1,-1.0208861E-1,6.506617E-2,-1.12169124E-1,2.728217E-2,-8.085985E-2,6.497934E-2,-1.700051E-3,2.0064814E-2,1.2947768E-1,3.2092005E-2,-1.2181983E-1,9.2042945E-2,2.8610427E-2,1.0270276E-1,1.3100329E-1,-2.6838778E-2,8.516933E-2],"split_indices":[2,7,0,7,8,6,4,4,13,2,14,8,8,8,2,11,0,11,0,0,2,8,0,11,1,0,8,3,0,2,6,14,0,4,2,0,6,0,0,0,0,0,11,14,0,7,0,0,0,0,0,2,3,0,0,0,0,0,0,0,0,0,0,0,0,0,0,0,0,0,0,0,0,0,0],"split_type":[0,0,0,0,0,0,0,0,0,0,0,0,0,0,0,0,0,0,0,0,0,0,0,0,0,0,0,0,0,0,0,0,0,0,0,0,0,0,0,0,0,0,0,0,0,0,0,0,0,0,0,0,0,0,0,0,0,0,0,0,0,0,0,0,0,0,0,0,0,0,0,0,0,0,0],"sum_hessian":[3.2172116E2,1.5357846E2,1.681427E2,3.619803E1,1.1738043E2,5.3335373E1,1.1480733E2,1.4320479E1,2.1877548E1,9.821601E0,1.0755883E2,3.987739E1,1.3457981E1,5.526685E0,1.0928064E2,6.7126837E0,7.6077957E0,2.0503824E1,1.373723E0,2.4389894E0,7.3826118E0,1.0428962E2,3.2692068E0,2.7404808E1,1.2472583E1,1.4384509E0,1.201953E1,3.3452473E0,2.1814377E0,4.6517515E0,1.0462889E2,3.0656345E0,3.647049E0,1.1651347E1,8.852478E0,1.4814042E0,5.901208E0,1.0197787E2,2.3117585E0,1.5489377E0,1.720269E0,1.450515E0,2.5954292E1,1.1047922E1,1.4246609E0,1.0293708E1,1.7258232E0,1.1666219E0,2.1786253E0,3.2332604E0,1.4184911E0,1.018871E2,2.7417862E0,1.1098028E0,1.9558316E0,1.1553804E0,1.0495967E1,4.951036E0,3.9014416E0,3.5689216E0,2.3322861E0,1.185881E0,1.1258774E0,1.5754152E1,1.0200141E1,1.2379833E0,9.809938E0,2.3950863E0,7.898621E0,1.4086328E0,1.8246278E0,5.7591248E1,4.4295856E1,1.3977447E0,1.3440416E0],"tree_param":{"num_deleted":"0","num_feature":"15","num_nodes":"75","size_leaf_vector":"1"}},{"base_weights":[3.509836E-3,-9.515941E-1,6.982656E-1,-1.3056305E-1,-1.2312053E0,3.4348194E-2,9.0784264E-1,-7.386892E-1,2.2832282E-1,1.7393637E-2,-1.253028E0,4.588238E-1,-2.8057134E-1,-5.3213155E-1,9.3926734E-1,-1.2673266E-1,3.705022E-1,7.9678917E-1,-2.6701292E-1,-3.190456E-2,-1.2703089E0,-1.1368737E-1,7.31051E-1,-3.9196628E-1,9.532745E-2,-1.0319965E-1,2.8776912E-2,7.9263407E-1,1.2401972E0,9.126255E-2,-8.0328345E-2,9.430524E-1,-8.136942E-3,-8.53139E-1,6.861824E-1,-1.3209598E-1,-7.71482E-1,-7.3247814E-1,6.1095273E-1,9.017877E-1,1.5127373E-1,8.518201E-2,-8.707569E-1,1.0388639E0,5.332638E-1,6.1532753E-3,1.2971796E-1,2.3254072E-2,1.0822131E-1,2.5757773E-2,-1.0732185E-1,1.12061955E-1,-1.8541612E-2,-1.16369486E-1,-1.0593974E-3,-1.0901526E-1,1.8489813E-2,9.456291E-2,6.0564064E-4,4.1835528E-2,1.1516427E-1,5.5885393E-2,-2.9585946E-2,-6.873006E-2,3.9410856E-2,2.6687915E-2,-1.3115487E-1,1.1204113E-1,3.495682E-2,1.4676468E-2,9.117816E-2],"categories":[],"categories_nodes":[],"categories_segments":[],"categories_sizes":[],"default_left":[0,0,0,0,0,0,0,0,0,0,0,0,0,0,0,0,0,0,0,0,0,0,0,0,0,0,0,0,0,0,0,0,0,0,0,0,0,0,0,0,0,0,0,0,0,0,0,0,0,0,0,0,0,0,0,0,0,0,0,0,0,0,0,0,0,0,0,0,0,0,0],"id":7,"left_children":[1,3,5,7,9,11,13,15,17,-1,19,21,23,25,27,-1,29,31,33,-1,35,37,39,41,-1,-1,-1,43,45,-1,-1,47,-1,49,51,-1,53,55,57,59,61,63,65,67,69,-1,-1,-1,-1,-1,-1,-1,-1,-1,-1,-1,-1,-1,-1,-1,-1,-1,-1,-1,-1,-1,-1,-1,-1,-1,-1],"loss_changes":[2.058601E2,2.9830452E1,2.495752E1,7.6561246E0,3.202591E0,6.0276575E0,6.6748657E0,8.07375E0,6.5029154E0,0E0,1.1436157E0,3.0715199E0,3.9408946E0,1.7530504E0,4.9259415E0,0E0,3.8890626E0,1.4449682E0,7.673079E0,0E0,1.3531036E0,3.6063294E0,1.1632986E0,5.6744003E0,0E0,0E0,0E0,5.373207E0,2.747841E0,0E0,0E0,6.5908146E-1,0E0,2.3056898E0,2.246736E0,0E0,3.2879157E0,1.5975995E0,7.615422E-1,7.1900177E-1,9.286681E-1,3.418236E0,6.530445E0,2.2252502E0,6.779152E0,0E0,0E0,0E0,0E0,0E0,0E0,0E0,0E0,0E0,0E0,0E0,0E0,0E0,0E0,0E0,0E0,0E0,0E0,0E0,0E0,0E0,0E0,0E0,0E0,0E0,0E0],"parents":[2147483647,0,0,1,1,2,2,3,3,4,4,5,5,6,6,7,7,8,8,10,10,11,11,12,12,13,13,14,14,16,16,17,17,18,18,20,20,21,21,22,22,23,23,27,27,28,28,31,31,33,33,34,34,36,36,37,37,38,38,39,39,40,40,41,41,42,42,43,43,44,44],"right_children":[2,4,6,8,10,12,14,16,18,-1,20,22,24,26,28,-1,30,32,34,-1,36,38,40,42,-1,-1,-1,44,46,-1,-1,48,-1,50,52,-1,54,56,58,60,62,64,66,68,70,-1,-1,-1,-1,-1,-1,-1,-1,-1,-1,-1,-1,-1,-1,-1,-1,-1,-1,-1,-1,-1,-1,-1,-1,-1,-1],"split_conditions":[2.2E1,1.5E1,3.6E1,3E0,1.06E2,1E1,7E-1,9.03E2,8E0,1.7393637E-2,2E0,2.6E1,5E0,1.125E3,4E1,-1.2673266E-1,9.2424244E-1,8E0,4E0,-3.190456E-2,1E0,2.5E1,2.9E1,3E0,9.532745E-2,-1.0319965E-1,2.8776912E-2,3E0,6.4E1,9.126255E-2,-8.0328345E-2,2E0,-8.136942E-3,1.38E2,1.2E1,-1.3209598E-1,1E1,3.5E-1,2.7E1,2.1E1,1.8367347E-1,4.0229884E-1,8E0,1.318E3,6.33E2,6.1532753E-3,1.2971796E-1,2.3254072E-2,1.0822131E-1,2.5757773E-2,-1.0732185E-1,1.12061955E-1,-1.8541612E-2,-1.16369486E-1,-1.0593974E-3,-1.0901526E-1,1.8489813E-2,9.456291E-2,6.0564064E-4,4.1835528E-2,1.1516427E-1,5.5885393E-2,-2.9585946E-2,-6.873006E-2,3.9410856E-2,2.6687915E-2,-1.3115487E-1,1.1204113E-1,3.495682E-2,1.4676468E-2,9.117816E-2],"split_indices":[0,7,0,7,14,1,4,14,7,0,8,0,8,14,2,0,4,2,8,0,13,11,0,8,0,0,0,8,0,0,0,8,0,14,0,0,0,6,11,11,6,6,7,14,14,0,0,0,0,0,0,0,0,0,0,0,0,0,0,0,0,0,0,0,0,0,0,0,0,0,0],"split_type":[0,0,0,0,0,0,0,0,0,0,0,0,0,0,0,0,0,0,0,0,0,0,0,0,0,0,0,0,0,0,0,0,0,0,0,0,0,0,0,0,0,0,0,0,0,0,0,0,0,0,0,0,0,0,0,0,0,0,0,0,0,0,0,0,0,0,0,0,0,0,0],"sum_hessian":[3.0823267E2,1.2964107E2,1.7859158E2,3.330716E1,9.633391E1,4.312864E1,1.3546295E2,1.1968483E1,2.1338678E1,1.3666453E0,9.496726E1,1.8174513E1,2.4954124E1,2.55279E0,1.3291016E2,8.008897E0,3.9595854E0,9.652507E0,1.1686172E1,2.078744E0,9.288852E1,6.0446367E0,1.2129875E1,2.3513577E1,1.4405477E0,1.4252063E0,1.1275835E0,9.180873E1,4.110143E1,2.8607955E0,1.0987899E0,8.21101E0,1.4414966E0,7.3014383E0,4.384733E0,8.282983E1,1.0058689E1,3.2546134E0,2.7900233E0,8.941361E0,3.1885147E0,1.2188738E1,1.132484E1,4.55557E1,4.6253036E1,1.9913201E0,3.9110107E1,1.7822762E0,6.428734E0,1.179293E0,6.1221457E0,2.7355344E0,1.6491985E0,6.288027E0,3.7706623E0,2.206131E0,1.0484825E0,1.4335688E0,1.3564546E0,3.9578664E0,4.9834948E0,1.5373223E0,1.6511923E0,3.1320713E0,9.056666E0,3.2727551E0,8.052084E0,4.0177086E1,5.378611E0,2.357187E1,2.2681166E1],"tree_param":{"num_deleted":"0","num_feature":"15","num_nodes":"71","size_leaf_vector":"1"}},{"base_weights":[3.6217931E-3,-8.183672E-1,7.3008245E-1,5.404631E-2,-1.1006906E0,2.6898843E-1,9.5091563E-1,-5.429136E-1,4.3669948E-1,-1.782105E-1,-1.1891919E0,7.1921283E-1,-3.7392136E-2,-9.418818E-2,1.0069416E0,2.348599E-1,-1.1950844E-1,5.6188846E-1,-8.62029E-2,-7.772383E-1,3.1215426E-1,-1.2275268E0,-3.835252E-2,-2.969724E-2,8.171623E-1,-1.6730133E-1,9.237125E-2,7.3309803E-1,-1.1728573E-1,3.3287314E-1,1.0347247E0,-5.66422E-1,8.853417E-2,8.7148297E-1,1.058152E-1,-1.12481214E-1,2.0628924E-2,-1.699909E-1,8.370205E-2,-2.9981294E-1,-1.2475916E-1,6.3491605E-2,-8.716094E-2,5.5592585E-1,1.2344887E-1,-6.280894E-1,1.8797058E-1,-2.047606E-3,1.02088474E-1,6.261275E-1,-3.0463839E-2,8.28573E-1,1.13676086E-1,1.7613484E-2,-9.085863E-2,1.0087526E-1,1.3847073E-2,9.783121E-2,-9.216532E-2,5.5259902E-2,-9.712874E-2,-7.552533E-2,3.2150157E-2,1.1307732E-1,3.14302E-2,-5.040991E-4,-1.336128E-1,7.492792E-2,-4.8952904E-2,8.4025554E-2,2.176315E-2,9.567876E-2,-2.3805758E-3],"categories":[],"categories_nodes":[],"categories_segments":[],"categories_sizes":[],"default_left":[0,0,0,0,0,0,0,0,0,0,0,0,0,0,0,0,0,0,0,0,0,0,0,0,0,0,0,0,0,0,0,0,0,0,0,0,0,0,0,0,0,0,0,0,0,0,0,0,0,0,0,0,0,0,0,0,0,0,0,0,0,0,0,0,0,0,0,0,0,0,0,0,0],"id":8,"left_children":[1,3,5,7,9,11,13,15,17,19,21,23,25,27,29,31,-1,33,-1,35,37,39,41,-1,43,45,-1,47,-1,49,51,53,-1,55,57,-1,-1,59,-1,61,-1,-1,-1,63,-1,65,67,-1,-1,69,-1,71,-1,-1,-1,-1,-1,-1,-1,-1,-1,-1,-1,-1,-1,-1,-1,-1,-1,-1,-1,-1,-1],"loss_changes":[1.7751096E2,3.4410378E1,1.5812248E1,8.24385E0,8.39418E0,7.2682076E0,6.31929E0,7.4517865E0,4.0472836E0,3.2987902E0,4.1886444E0,2.3634872E0,4.1735206E0,6.502514E0,1.5467072E0,4.2978263E0,0E0,2.815432E0,0E0,1.9309478E0,1.7706084E0,1.3549194E0,2.8688345E0,0E0,1.4614906E0,4.898695E0,0E0,9.3045163E-1,0E0,1.2136872E0,1.0881882E0,1.1441603E0,0E0,1.080636E0,9.386497E0,0E0,0E0,2.9598403E0,0E0,1.171728E0,0E0,0E0,0E0,1.5801821E0,0E0,5.7032995E0,6.9301443E0,0E0,0E0,1.7357767E-1,0E0,3.9179287E0,0E0,0E0,0E0,0E0,0E0,0E0,0E0,0E0,0E0,0E0,0E0,0E0,0E0,0E0,0E0,0E0,0E0,0E0,0E0,0E0,0E0],"parents":[2147483647,0,0,1,1,2,2,3,3,4,4,5,5,6,6,7,7,8,8,9,9,10,10,11,11,12,12,13,13,14,14,15,15,17,17,19,19,20,20,21,21,22,22,24,24,25,25,27,27,29,29,30,30,31,31,33,33,34,34,37,37,39,39,43,43,45,45,46,46,49,49,51,51],"right_children":[2,4,6,8,10,12,14,16,18,20,22,24,26,28,30,32,-1,34,-1,36,38,40,42,-1,44,46,-1,48,-1,50,52,54,-1,56,58,-1,-1,60,-1,62,-1,-1,-1,64,-1,66,68,-1,-1,70,-1,72,-1,-1,-1,-1,-1,-1,-1,-1,-1,-1,-1,-1,-1,-1,-1,-1,-1,-1,-1,-1,-1],"split_conditions":[1.4E1,1.2E1,4.3E1,3E0,3E0,3.1034482E-1,7.8723407E-1,9.2424244E-1,1E0,1.8E1,1.875E3,1.4E1,5E0,4E0,2.1E1,2.4E1,-1.1950844E-1,2.5E1,-8.62029E-2,5.714286E-1,1E0,1.4E1,2.8735632E-1,-2.969724E-2,4E0,2.3E1,9.237125E-2,1.6E1,-1.1728573E-1,1.8E1,2.2E1,1.72E2,8.853417E-2,5.882353E-1,4E0,-1.12481214E-1,2.0628924E-2,7E0,8.370205E-2,4E0,-1.2475916E-1,6.3491605E-2,-8.716094E-2,1E1,1.2344887E-1,4.6153846E-1,2.5E1,-2.047606E-3,1.02088474E-1,4.5E1,-3.0463839E-2,7.03E2,1.13676086E-1,1.7613484E-2,-9.085863E-2,1.0087526E-1,1.3847073E-2,9.783121E-2,-9.216532E-2,5.5259902E-2,-9.712874E-2,-7.552533E-2,3.2150157E-2,1.1307732E-1,3.14302E-2,-5.040991E-4,-1.336128E-1,7.492792E-2,-4.8952904E-2,8.4025554E-2,2.176315E-2,9.567876E-2,-2.3805758E-3],"split_indices":[2,7,0,7,8,6,4,4,13,7,14,11,8,8,2,11,0,11,0,6,3,7,6,0,8,11,0,3,0,2,11,14,0,6,2,0,0,1,0,8,0,0,0,7,0,6,11,0,0,0,0,14,0,0,0,0,0,0,0,0,0,0,0,0,0,0,0,0,0,0,0,0,0],"split_type":[0,0,0,0,0,0,0,0,0,0,0,0,0,0,0,0,0,0,0,0,0,0,0,0,0,0,0,0,0,0,0,0,0,0,0,0,0,0,0,0,0,0,0,0,0,0,0,0,0,0,0,0,0,0,0,0,0,0,0,0,0,0,0,0,0,0,0,0,0,0,0,0,0],"sum_hessian":[2.9526672E2,1.3846608E2,1.5680064E2,3.4051476E1,1.04414604E2,5.1496117E1,1.0530452E2,1.3137476E1,2.0913998E1,9.404268E0,9.501034E1,2.0307262E1,3.1188852E1,5.3232813E0,9.998124E1,6.2835937E0,6.853883E0,1.959274E1,1.3212578E0,3.9697793E0,5.434489E0,9.188304E1,3.1272945E0,1.6066828E0,1.870058E1,2.8202717E1,2.986136E0,3.1940048E0,2.1292768E0,4.4716663E0,9.5509575E1,2.8733485E0,3.410245E0,1.1127954E1,8.464787E0,2.8270593E0,1.14272E0,3.1849241E0,2.2495646E0,2.2827067E0,8.9600334E1,1.8613561E0,1.2659385E0,1.2935426E1,5.7651544E0,1.1943748E1,1.6258968E1,1.1393772E0,2.0546274E0,3.075019E0,1.3966473E0,3.4641354E1,6.086822E1,1.0594306E0,1.813918E0,9.0559E0,2.0720534E0,4.6034827E0,3.8613043E0,1.8379099E0,1.3470143E0,1.1927879E0,1.089919E0,2.7390537E0,1.0196372E1,6.888891E0,5.0548573E0,8.834027E0,7.4249415E0,1.3240309E0,1.7509881E0,3.000545E1,4.6359034E0],"tree_param":{"num_deleted":"0","num_feature":"15","num_nodes":"73","size_leaf_vector":"1"}},{"base_weights":[3.6159523E-3,-8.757474E-1,6.164685E-1,-1.1967198E-1,-1.1489516E0,3.0362672E-1,9.881236E-1,-3.9868397E-1,5.2279484E-1,-1.2183273E0,-5.084869E-1,1.9030721E-1,1.2553649E-1,1.0149528E0,-4.1738427E-3,-8.7516826E-1,-4.1397315E-2,8.026991E-1,-8.86442E-2,-1.242454E-1,-1.8493082E-2,6.6521436E-1,-1.1971872E-1,6.229855E-1,-2.9925045E-1,8.6639607E-1,1.23455636E-1,-1.1724359E-1,2.6186028E-2,3.3273032E-1,-1.0209663E-1,-1.4136362E-2,9.4375306E-1,1.2453629E0,-6.4046375E-2,-4.6576593E-2,6.709223E-1,2.0747328E-2,-1.1718194E0,1.165663E0,6.6608554E-1,6.105408E-2,-9.269557E-2,1.11701526E-1,4.4243198E-2,1.5180676E-1,3.3949547E-2,7.850824E-2,1.2828809E-2,-4.453353E-2,4.6985757E-2,-1.3625164E-1,2.380287E-3,1.2009174E-1,3.9684255E-2,8.716751E-2,9.368405E-3],"categories":[],"categories_nodes":[],"categories_segments":[],"categories_sizes":[],"default_left":[0,0,0,0,0,0,0,0,0,0,0,0,0,0,0,0,0,0,0,0,0,0,0,0,0,0,0,0,0,0,0,0,0,0,0,0,0,0,0,0,0,0,0,0,0,0,0,0,0,0,0,0,0,0,0,0,0],"id":9,"left_children":[1,3,5,7,9,11,13,15,17,19,21,23,-1,25,-1,27,29,31,-1,-1,-1,33,-1,35,37,39,-1,-1,-1,41,-1,-1,43,45,-1,-1,47,49,51,53,55,-1,-1,-1,-1,-1,-1,-1,-1,-1,-1,-1,-1,-1,-1,-1,-1],"loss_changes":[1.5310341E2,2.3963982E1,1.9164928E1,5.960137E0,3.1835861E0,9.720238E0,2.1442108E0,3.8688543E0,4.714461E0,1.6778183E0,8.945636E0,1.7914955E1,0E0,1.3503494E0,0E0,3.612649E0,5.528593E0,1.330719E0,0E0,0E0,0E0,4.1085196E0,0E0,2.6482315E0,1.1177043E1,2.077015E0,0E0,0E0,0E0,4.415334E0,0E0,0E0,1.9657183E-1,3.161111E-1,0E0,0E0,2.5800972E0,6.5323334E0,2.4800358E0,4.5928955E-3,3.548483E0,0E0,0E0,0E0,0E0,0E0,0E0,0E0,0E0,0E0,0E0,0E0,0E0,0E0,0E0,0E0,0E0],"parents":[2147483647,0,0,1,1,2,2,3,3,4,4,5,5,6,6,7,7,8,8,9,9,10,10,11,11,13,13,15,15,16,16,17,17,21,21,23,23,24,24,25,25,29,29,32,32,33,33,36,36,37,37,38,38,39,39,40,40],"right_children":[2,4,6,8,10,12,14,16,18,20,22,24,-1,26,-1,28,30,32,-1,-1,-1,34,-1,36,38,40,-1,-1,-1,42,-1,-1,44,46,-1,-1,48,50,52,54,56,-1,-1,-1,-1,-1,-1,-1,-1,-1,-1,-1,-1,-1,-1,-1,-1],"split_conditions":[2.2E1,1.5E1,3E1,2.7E1,9E0,5E0,5.531915E-1,3E0,2.8735632E-1,2.615E3,7E0,3E0,1.2553649E-1,4.6E1,-4.1738427E-3,9.03E2,1.2E1,3.18E2,-8.86442E-2,-1.242454E-1,-1.8493082E-2,1.9E1,-1.1971872E-1,8.125E-1,4.6875E-1,2E0,1.23455636E-1,-1.1724359E-1,2.6186028E-2,2.5E1,-1.0209663E-1,-1.4136362E-2,2E0,2E1,-6.4046375E-2,-4.6576593E-2,2.6E1,6.33E2,1.279E3,8.1E1,9.736842E-1,6.105408E-2,-9.269557E-2,1.11701526E-1,4.4243198E-2,1.5180676E-1,3.3949547E-2,7.850824E-2,1.2828809E-2,-4.453353E-2,4.6985757E-2,-1.3625164E-1,2.380287E-3,1.2009174E-1,3.9684255E-2,8.716751E-2,9.368405E-3],"split_indices":[0,7,2,11,2,8,6,7,6,14,1,8,0,2,0,14,7,14,0,0,0,11,0,4,6,8,0,0,0,11,0,0,2,7,0,0,11,14,14,0,4,0,0,0,0,0,0,0,0,0,0,0,0,0,0,0,0],"split_type":[0,0,0,0,0,0,0,0,0,0,0,0,0,0,0,0,0,0,0,0,0,0,0,0,0,0,0,0,0,0,0,0,0,0,0,0,0,0,0,0,0,0,0,0,0,0,0,0,0,0,0,0,0,0,0,0,0],"sum_hessian":[2.8209125E2,1.156786E2,1.6641264E2,3.108656E1,8.459204E1,9.134212E1,7.507053E1,2.1938501E1,9.148057E0,7.551043E1,9.081609E0,8.269582E1,8.646288E0,7.317862E1,1.8919119E0,8.779933E0,1.3158569E1,7.991231E0,1.1568258E0,7.359003E1,1.9204013E0,3.370912E0,5.7106967E0,4.375339E1,3.8942436E1,4.660005E1,2.6578571E1,6.9355454E0,1.8443872E0,9.999704E0,3.1588657E0,1.0384924E0,6.9527383E0,2.365881E0,1.0050311E0,1.4775978E0,4.227579E1,2.9207409E1,9.735028E0,1.6752415E1,2.9847637E1,8.615066E0,1.3846388E0,4.2542715E0,2.6984668E0,1.2990077E0,1.0668733E0,3.455852E1,7.71727E0,1.4337002E1,1.4870406E1,8.275527E0,1.4595013E0,1.5480526E1,1.2718877E0,2.1575516E1,8.27212E0],"tree_param":{"num_deleted":"0","num_feature":"15","num_nodes":"57","size_leaf_vector":"1"}},{"base_weights":[3.3076808E-3,-7.548665E-1,6.4781195E-1,7.188761E-2,-1.015082E0,2.3008756E-1,8.5934067E-1,5.450409E-1,-4.0856102E-1,-1.1442462E0,-4.467131E-1,6.473606E-1,-5.17088E-2,-1.2235172E-1,9.143385E-1,-2.6799992E-2,9.528494E-1,-1.1215247E-1,1.5469794E-1,-1.4290103E-1,-1.1884936E0,1.789816E-2,-9.7972983E-1,-2.986676E-2,7.416938E-1,7.1745676E-1,-1.8983223E-1,-8.2359517E-1,9.2522085E-2,7.7181643E-1,1.1179477E0,-8.66593E-1,7.681247E-1,1.067944E0,2.9099196E-2,5.5136305E-1,-1.10283986E-1,-8.414547E-2,4.1418966E-2,-1.21324494E-1,-1.7317576E-2,8.87509E-1,-3.8369507E-1,-1.1924454E-1,3.541195E-2,4.9506238E-1,1.1561048E-1,9.082576E-2,2.412193E-3,-4.7249767E-1,3.299977E-1,-6.0635773E-3,-1.08443834E-1,8.9330244E-1,3.022238E-1,1.8016763E-1,1.1816324E0,-1.183759E-1,4.5869797E-3,9.631543E-2,7.4388967E-3,1.3012573E-2,1.2089256E-1,7.257559E-2,-2.300681E-2,1.1761642E-2,1.2677608E-1,2.2184642E-2,-1.0203611E-1,-2.460251E-3,7.5132065E-2,5.8767353E-3,-9.454047E-2,-6.10259E-2,7.194511E-2,9.420828E-2,3.466947E-2,-1.07631996E-1,6.7357816E-2,7.171362E-2,-4.0277794E-2,1.2046583E-1,3.8330983E-2],"categories":[],"categories_nodes":[],"categories_segments":[],"categories_sizes":[],"default_left":[0,0,0,0,0,0,0,0,0,0,0,0,0,0,0,0,0,0,0,0,0,0,0,0,0,0,0,0,0,0,0,0,0,0,0,0,0,0,0,0,0,0,0,0,0,0,0,0,0,0,0,0,0,0,0,0,0,0,0,0,0,0,0,0,0,0,0,0,0,0,0,0,0,0,0,0,0,0,0,0,0,0,0],"id":10,"left_children":[1,3,5,7,9,11,13,15,17,19,21,23,25,27,29,31,33,-1,35,37,39,41,43,-1,45,47,49,51,-1,53,55,57,59,61,-1,63,-1,-1,-1,-1,-1,65,67,-1,-1,69,-1,-1,-1,71,73,-1,-1,75,77,79,81,-1,-1,-1,-1,-1,-1,-1,-1,-1,-1,-1,-1,-1,-1,-1,-1,-1,-1,-1,-1,-1,-1,-1,-1,-1,-1],"loss_changes":[1.3281378E2,2.6940804E1,1.278334E1,7.2315125E0,6.4672623E0,6.0010414E0,5.3575897E0,3.7479463E0,6.5464005E0,3.2335968E0,4.7828298E0,2.0538044E0,3.4528944E0,5.196378E0,1.8104477E0,5.750808E0,4.0108967E-1,0E0,5.4687176E0,2.0558803E0,1.6351471E0,4.273896E0,2.970007E0,0E0,1.3651962E0,6.344993E-1,4.1610193E0,7.5914764E-1,0E0,3.0057945E0,1.9193344E0,1.2622747E0,5.2953243E-1,8.456688E-1,0E0,1.2673151E0,0E0,0E0,0E0,0E0,0E0,9.8091197E-1,3.4659455E0,0E0,0E0,1.8339951E0,0E0,0E0,0E0,4.594802E0,4.17035E0,0E0,0E0,8.761139E-1,7.540331E0,1.3688645E0,1.4948654E-1,0E0,0E0,0E0,0E0,0E0,0E0,0E0,0E0,0E0,0E0,0E0,0E0,0E0,0E0,0E0,0E0,0E0,0E0,0E0,0E0,0E0,0E0,0E0,0E0,0E0,0E0],"parents":[2147483647,0,0,1,1,2,2,3,3,4,4,5,5,6,6,7,7,8,8,9,9,10,10,11,11,12,12,13,13,14,14,15,15,16,16,18,18,19,19,20,20,21,21,22,22,24,24,25,25,26,26,27,27,29,29,30,30,31,31,32,32,33,33,35,35,41,41,42,42,45,45,49,49,50,50,53,53,54,54,55,55,56,56],"right_children":[2,4,6,8,10,12,14,16,18,20,22,24,26,28,30,32,34,-1,36,38,40,42,44,-1,46,48,50,52,-1,54,56,58,60,62,-1,64,-1,-1,-1,-1,-1,66,68,-1,-1,70,-1,-1,-1,72,74,-1,-1,76,78,80,82,-1,-1,-1,-1,-1,-1,-1,-1,-1,-1,-1,-1,-1,-1,-1,-1,-1,-1,-1,-1,-1,-1,-1,-1,-1,-1],"split_conditions":[1.4E1,1.1E1,4.3E1,9.2424244E-1,9E0,3.1034482E-1,7.8723407E-1,8.2E2,3E0,1.4E1,4.2922375E-1,1.4E1,1.5E1,1.8E1,3.9E1,7.5238097E-1,8.5E-1,-1.1215247E-1,6E0,8.77193E-1,2.615E3,1.5E1,2.9E1,-2.986676E-2,4E0,1.8E1,2E1,4E0,9.2522085E-2,9.736842E-1,6.4E1,8E0,3.375E-1,2.4E1,2.9099196E-2,4.67E2,-1.10283986E-1,-8.414547E-2,4.1418966E-2,-1.21324494E-1,-1.7317576E-2,4E0,3E0,-1.1924454E-1,3.541195E-2,1.4E1,1.1561048E-1,9.082576E-2,2.412193E-3,2E1,1.3E1,-6.0635773E-3,-1.08443834E-1,1.318E3,2E1,5.6E1,5.4545456E-1,-1.183759E-1,4.5869797E-3,9.631543E-2,7.4388967E-3,1.3012573E-2,1.2089256E-1,7.257559E-2,-2.300681E-2,1.1761642E-2,1.2677608E-1,2.2184642E-2,-1.0203611E-1,-2.460251E-3,7.5132065E-2,5.8767353E-3,-9.454047E-2,-6.10259E-2,7.194511E-2,9.420828E-2,3.466947E-2,-1.07631996E-1,6.7357816E-2,7.171362E-2,-4.0277794E-2,1.2046583E-1,3.8330983E-2],"split_indices":[2,7,0,4,2,6,4,14,7,7,6,11,2,3,2,4,4,0,1,4,14,0,11,0,8,7,7,8,0,4,0,7,6,11,0,14,0,0,0,0,0,8,8,0,0,7,0,0,0,11,1,0,0,14,11,0,6,0,0,0,0,0,0,0,0,0,0,0,0,0,0,0,0,0,0,0,0,0,0,0,0,0,0],"split_type":[0,0,0,0,0,0,0,0,0,0,0,0,0,0,0,0,0,0,0,0,0,0,0,0,0,0,0,0,0,0,0,0,0,0,0,0,0,0,0,0,0,0,0,0,0,0,0,0,0,0,0,0,0,0,0,0,0,0,0,0,0,0,0,0,0,0,0,0,0,0,0,0,0,0,0,0,0,0,0,0,0,0,0],"sum_hessian":[2.6979858E2,1.2388869E2,1.4590991E2,2.9831646E1,9.405704E1,4.9750652E1,9.6159256E1,1.4962198E1,1.4869447E1,7.5814644E1,1.8242397E1,1.9531664E1,3.0218988E1,5.036414E0,9.112284E1,6.617388E0,8.3448105E0,6.125172E0,8.744275E0,3.3873174E0,7.242732E1,1.0262966E1,7.9794316E0,1.574597E0,1.7957066E1,3.9619315E0,2.6257057E1,3.1449773E0,1.8914368E0,5.6420418E1,3.4702427E1,3.1740382E0,3.4433494E0,6.585976E0,1.7588347E0,7.0743623E0,1.6699126E0,1.2763797E0,2.1109376E0,7.051342E1,1.9139055E0,2.8599827E0,7.4029827E0,6.9733663E0,1.0060654E0,1.2633196E1,5.32387E0,2.863839E0,1.0980923E0,1.7067432E1,9.189624E0,1.1152784E0,2.0296988E0,4.410733E1,1.2313087E1,2.4502778E0,3.2252148E1,2.1347058E0,1.0393325E0,2.384607E0,1.0587422E0,1.1119843E0,5.473992E0,5.8418727E0,1.2324895E0,1.3784198E0,1.4815631E0,4.1281724E0,3.2748103E0,4.4708247E0,8.162372E0,8.450194E0,8.617239E0,2.525456E0,6.6641674E0,3.9829376E1,4.277955E0,2.2101588E0,1.0102928E1,1.1556137E0,1.2946644E0,3.085327E1,1.3988787E0],"tree_param":{"num_deleted":"0","num_feature":"15","num_nodes":"83","size_leaf_vector":"1"}},{"base_weights":[3.5667426E-3,-7.6268464E-1,5.807844E-1,-3.2843113E-2,-1.0128543E0,2.9706922E-1,9.0386504E-1,-5.639708E-1,2.955384E-1,-1.1359208E0,-3.183982E-1,1.8673366E-1,1.2334325E-1,9.3150604E-1,-5.66589E-3,-1.0962675E-1,2.2413142E-1,4.3174908E-1,-1.0037817E-1,-1.1611255E0,4.5277905E-3,-6.005478E-1,7.0066E-1,3.3289304E-1,-5.3695005E-1,7.799745E-1,1.17005624E-1,7.838952E-2,-7.962646E-2,5.5704576E-1,-7.7854216E-2,-1.18790045E-1,-6.793977E-3,3.0453008E-1,-1.170038E-1,8.8106215E-2,1.6068181E-2,3.8278997E-1,-1.2133421E-1,5.939616E-1,-8.818074E-1,1.0942935E0,5.7739216E-1,8.748072E-2,1.9134939E-2,-4.346176E-2,1.3792695E-1,-1.1235342E-1,4.3733545E-2,9.144872E-2,-4.308202E-3,-1.2763987E-1,5.231727E-3,1.1444607E-1,4.0991183E-2,7.281881E-2,-1.5848674E-2],"categories":[],"categories_nodes":[],"categories_segments":[],"categories_sizes":[],"default_left":[0,0,0,0,0,0,0,0,0,0,0,0,0,0,0,0,0,0,0,0,0,0,0,0,0,0,0,0,0,0,0,0,0,0,0,0,0,0,0,0,0,0,0,0,0,0,0,0,0,0,0,0,0,0,0,0,0],"id":11,"left_children":[1,3,5,7,9,11,13,15,17,19,21,23,-1,25,-1,-1,27,29,-1,31,-1,33,35,37,39,41,-1,-1,-1,43,-1,-1,-1,45,-1,-1,-1,47,-1,49,51,53,55,-1,-1,-1,-1,-1,-1,-1,-1,-1,-1,-1,-1,-1,-1],"loss_changes":[1.1476394E2,2.0322052E1,1.3296547E1,5.31052E0,6.7311783E0,8.064167E0,1.8768654E0,5.1168346E0,3.7749276E0,2.1398468E0,4.4124417E0,7.900143E0,0E0,1.5035019E0,0E0,0E0,3.7721293E0,3.1312313E0,0E0,1.9296188E0,0E0,6.2378798E0,1.966306E-1,5.1978126E0,5.4568286E0,2.1619053E0,0E0,0E0,0E0,1.7735214E0,0E0,0E0,0E0,4.730663E0,0E0,0E0,0E0,5.4370117E0,0E0,7.6494026E-1,3.7879548E0,8.289528E-2,3.3108845E0,0E0,0E0,0E0,0E0,0E0,0E0,0E0,0E0,0E0,0E0,0E0,0E0,0E0,0E0],"parents":[2147483647,0,0,1,1,2,2,3,3,4,4,5,5,6,6,7,7,8,8,9,9,10,10,11,11,13,13,16,16,17,17,19,19,21,21,22,22,23,23,24,24,25,25,29,29,33,33,37,37,39,39,40,40,41,41,42,42],"right_children":[2,4,6,8,10,12,14,16,18,20,22,24,-1,26,-1,-1,28,30,-1,32,-1,34,36,38,40,42,-1,-1,-1,44,-1,-1,-1,46,-1,-1,-1,48,-1,50,52,54,56,-1,-1,-1,-1,-1,-1,-1,-1,-1,-1,-1,-1,-1,-1],"split_conditions":[1.3E1,1.2E1,3E1,3E0,9E0,5E0,5.531915E-1,2.4E1,1.2E1,5E0,2.9E1,4.8387095E-1,1.2334325E-1,4.6E1,-5.66589E-3,-1.0962675E-1,9.2424244E-1,1E0,-1.0037817E-1,2.615E3,4.5277905E-3,2.45E2,3E1,2.4E1,1E1,2E0,1.17005624E-1,7.838952E-2,-7.962646E-2,8E0,-7.7854216E-2,-1.18790045E-1,-6.793977E-3,2.43E2,-1.170038E-1,8.8106215E-2,1.6068181E-2,1.4E1,-1.2133421E-1,1.6E1,2.6E1,2.1E1,4.516129E-1,8.748072E-2,1.9134939E-2,-4.346176E-2,1.3792695E-1,-1.1235342E-1,4.3733545E-2,9.144872E-2,-4.308202E-3,-1.2763987E-1,5.231727E-3,1.1444607E-1,4.0991183E-2,7.281881E-2,-1.5848674E-2],"split_indices":[2,7,2,7,2,8,6,11,2,8,11,6,0,2,0,0,4,13,0,14,0,14,11,1,7,8,0,0,0,7,0,0,0,14,0,0,0,11,0,2,2,7,6,0,0,0,0,0,0,0,0,0,0,0,0,0,0],"split_type":[0,0,0,0,0,0,0,0,0,0,0,0,0,0,0,0,0,0,0,0,0,0,0,0,0,0,0,0,0,0,0,0,0,0,0,0,0,0,0,0,0,0,0,0,0,0,0,0,0,0,0,0,0,0,0,0,0],"sum_hessian":[2.5747296E2,1.10484474E2,1.469885E2,2.8492413E1,8.199206E1,7.928416E1,6.770434E1,1.0611629E1,1.7880785E1,6.9109314E1,1.2882745E1,7.199957E1,7.2845826E0,6.5839874E1,1.8644634E0,6.1003404E0,4.5112877E0,1.6788517E1,1.0922674E0,6.768209E1,1.4272245E0,1.0410925E1,2.4718194E0,6.0350777E1,1.1648794E1,4.2874706E1,2.2965168E1,3.0628555E0,1.4484322E0,1.5702628E1,1.0858885E0,6.597945E1,1.702641E0,4.200471E0,6.2104545E0,1.3793333E0,1.0924861E0,5.9193058E1,1.1577191E0,2.553291E0,9.095503E0,1.5078216E1,2.7796492E1,7.657069E0,8.04556E0,2.8417058E0,1.358765E0,1.3836668E0,5.780939E1,1.4088945E0,1.1443964E0,6.1367965E0,2.9587061E0,1.3422083E1,1.656133E0,2.3077843E1,4.7186484E0],"tree_param":{"num_deleted":"0","num_feature":"15","num_nodes":"57","size_leaf_vector":"1"}},{"base_weights":[2.8385052E-3,-7.870249E-1,5.129325E-1,-1.10882185E-1,-1.0579715E0,2.4190095E-1,8.640483E-1,-6.112166E-1,1.573029E-1,-1.1321164E0,-4.5210218E-1,1.4258845E-1,1.1274796E-1,5.135852E-1,9.654905E-1,-1.0890498E-1,2.9761234E-1,6.117626E-1,-2.2768554E-1,-1.1607658E-1,-1.5859302E-2,5.6251997E-1,-1.1030301E-1,5.248456E-1,-2.907481E-1,9.492903E-1,-3.3333713E-1,4.3241012E-1,1.0383224E0,8.035446E-2,-3.0113695E-2,9.071791E-1,1.9382016E-1,-7.4745274E-1,6.029931E-1,-5.475238E-3,9.59376E-2,3.405439E-1,8.6677253E-1,-2.1826161E-2,-1.0550395E0,1.0118195E0,2.1552764E-2,7.330608E-2,-7.0823616E-1,-7.510462E-2,9.868616E-2,3.9268708E-1,1.0782499E0,2.6821231E-2,1.0392159E-1,7.2418146E-2,-5.591439E-2,2.5996089E-2,-9.575136E-2,9.946597E-2,-1.7962791E-2,9.6195005E-2,1.4954087E-2,1.1465708E-1,2.6835967E-2,1.1201458E-2,-1.3507497E-1,-1.2524451E-1,7.500389E-3,2.8178105E-2,1.0819148E-1,-8.686695E-3,-1.6227715E-1,-2.9882973E-2,8.452193E-2,1.1481879E-1,4.9671058E-2],"categories":[],"categories_nodes":[],"categories_segments":[],"categories_sizes":[],"default_left":[0,0,0,0,0,0,0,0,0,0,0,0,0,0,0,0,0,0,0,0,0,0,0,0,0,0,0,0,0,0,0,0,0,0,0,0,0,0,0,0,0,0,0,0,0,0,0,0,0,0,0,0,0,0,0,0,0,0,0,0,0,0,0,0,0,0,0,0,0,0,0,0,0],"id":12,"left_children":[1,3,5,7,9,11,13,15,17,19,21,23,-1,25,27,-1,29,31,33,-1,-1,35,-1,37,39,41,43,45,47,-1,-1,49,51,53,55,-1,-1,57,59,61,63,65,-1,-1,67,-1,-1,69,71,-1,-1,-1,-1,-1,-1,-1,-1,-1,-1,-1,-1,-1,-1,-1,-1,-1,-1,-1,-1,-1,-1,-1,-1],"loss_changes":[9.994044E1,1.7714207E1,1.4133404E1,3.9824438E0,2.6044998E0,7.4420485E0,1.8245239E0,4.8021417E0,3.5774958E0,1.5212326E0,6.715555E0,1.3217695E1,0E0,6.5111985E0,1.4720993E0,0E0,1.5562816E0,9.7039914E-1,5.35874E0,0E0,0E0,1.0983031E0,0E0,2.3681545E0,7.7072277E0,3.0244255E-1,3.094964E0,5.76827E0,6.8040466E-1,0E0,0E0,1.5722895E-1,2.4480646E0,1.8231072E0,1.6894392E0,0E0,0E0,3.311041E0,2.0623035E0,5.2813377E0,2.2729578E0,2.1623611E-1,0E0,0E0,2.8569531E0,0E0,0E0,1.5251496E0,1.0464783E0,0E0,0E0,0E0,0E0,0E0,0E0,0E0,0E0,0E0,0E0,0E0,0E0,0E0,0E0,0E0,0E0,0E0,0E0,0E0,0E0,0E0,0E0,0E0,0E0],"parents":[2147483647,0,0,1,1,2,2,3,3,4,4,5,5,6,6,7,7,8,8,9,9,10,10,11,11,13,13,14,14,16,16,17,17,18,18,21,21,23,23,24,24,25,25,26,26,27,27,28,28,31,31,32,32,33,33,34,34,37,37,38,38,39,39,40,40,41,41,44,44,47,47,48,48],"right_children":[2,4,6,8,10,12,14,16,18,20,22,24,-1,26,28,-1,30,32,34,-1,-1,36,-1,38,40,42,44,46,48,-1,-1,50,52,54,56,-1,-1,58,60,62,64,66,-1,-1,68,-1,-1,70,72,-1,-1,-1,-1,-1,-1,-1,-1,-1,-1,-1,-1,-1,-1,-1,-1,-1,-1,-1,-1,-1,-1,-1,-1],"split_conditions":[2.2E1,1.5E1,3E1,3E0,9E0,5E0,5.8E1,9.03E2,8E0,2.615E3,7E0,3E0,1.1274796E-1,1.9E1,2.4528302E-1,-1.0890498E-1,7.5238097E-1,9.4871795E-1,4E0,-1.1607658E-1,-1.5859302E-2,4E0,-1.1030301E-1,4.2E1,4.6875E-1,5.6E1,1E0,3.8E1,7.6666665E-1,8.035446E-2,-3.0113695E-2,1E0,4E0,1.38E2,1.2E1,-5.475238E-3,9.59376E-2,1E0,5E1,2.2E1,1.279E3,1E0,2.1552764E-2,7.330608E-2,3E0,-7.510462E-2,9.868616E-2,1.6E1,4.827586E-1,2.6821231E-2,1.0392159E-1,7.2418146E-2,-5.591439E-2,2.5996089E-2,-9.575136E-2,9.946597E-2,-1.7962791E-2,9.6195005E-2,1.4954087E-2,1.1465708E-1,2.6835967E-2,1.1201458E-2,-1.3507497E-1,-1.2524451E-1,7.500389E-3,2.8178105E-2,1.0819148E-1,-8.686695E-3,-1.6227715E-1,-2.9882973E-2,8.452193E-2,1.1481879E-1,4.9671058E-2],"split_indices":[0,7,2,7,2,8,0,14,7,14,1,8,0,1,6,0,4,4,8,0,0,8,0,0,6,0,8,2,4,0,0,0,2,14,0,0,0,8,0,7,14,8,0,0,3,0,0,3,6,0,0,0,0,0,0,0,0,0,0,0,0,0,0,0,0,0,0,0,0,0,0,0,0],"split_type":[0,0,0,0,0,0,0,0,0,0,0,0,0,0,0,0,0,0,0,0,0,0,0,0,0,0,0,0,0,0,0,0,0,0,0,0,0,0,0,0,0,0,0,0,0,0,0,0,0,0,0,0,0,0,0,0,0,0,0,0,0,0,0,0,0,0,0,0,0,0,0,0,0],"sum_hessian":[2.4604794E2,9.633442E1,1.4971352E2,2.796284E1,6.837158E1,8.544569E1,6.426784E1,9.31165E0,1.8651188E1,6.0142845E1,8.228734E0,7.787362E1,7.572063E0,1.57876005E1,4.848024E1,5.972959E0,3.3386908E0,8.283677E0,1.0367511E1,5.8236694E1,1.9061512E0,3.2690225E0,4.959712E0,4.1263165E1,3.661046E1,1.0344785E1,5.4428163E0,6.6612744E0,4.1818966E1,1.6242177E0,1.714473E0,4.167416E0,4.116261E0,6.438833E0,3.9286773E0,1.616595E0,1.6524274E0,2.8108425E1,1.3154738E1,2.7842436E1,8.768021E0,9.183266E0,1.1615182E0,1.1672437E0,4.2755723E0,2.0120509E0,4.6492233E0,3.0665913E0,3.8752373E1,1.2328105E0,2.9346058E0,2.4375577E0,1.6787035E0,1.0699581E0,5.3688755E0,2.4377558E0,1.4909215E0,5.6595216E0,2.2448904E1,8.33946E0,4.8152785E0,2.612682E1,1.7156168E0,7.3719163E0,1.3961043E0,1.2442672E0,7.9389987E0,3.1978319E0,1.0777407E0,1.3473494E0,1.7192419E0,3.3722404E1,5.029968E0],"tree_param":{"num_deleted":"0","num_feature":"15","num_nodes":"73","size_leaf_vector":"1"}},{"base_weights":[4.007284E-3,-7.573393E-1,4.8235273E-1,-9.995648E-2,-1.0311369E0,1.2550089E-1,7.330611E-1,-5.839204E-1,1.5393089E-1,-1.1090149E0,-4.237935E-1,1.8996337E-2,1.0202437E-1,-1.7711787E-1,7.984545E-1,-1.0575111E-1,2.8519958E-1,5.056536E-1,-2.8869376E-1,-1.1397032E-1,-1.4850867E-2,5.258566E-1,-1.06640615E-1,3.4920603E-1,-3.7197554E-1,5.96234E-2,-6.35097E-1,7.7900454E-2,8.335164E-1,7.758285E-2,-2.8292537E-2,6.456467E-1,-2.9914755E-2,-7.968033E-1,4.7634596E-1,-5.140799E-3,8.947769E-2,9.477259E-1,1.6417728E-1,-1.0820055E-1,-1.5267439E-1,-9.03578E-1,1.5270272E-2,-5.64062E-1,8.147712E-2,6.076145E-1,9.513744E-1,7.756105E-2,-1.0097137E-2,2.4663985E-2,-1.081389E-1,8.8395745E-2,-1.6884392E-2,4.5600127E-2,1.0974272E-1,3.7971217E-2,-3.0211955E-2,-5.7019886E-2,2.2546437E-2,-1.1308383E-1,-3.2205433E-2,2.7929973E-3,-8.905964E-2,7.5702995E-2,-2.0838967E-2,8.083927E-2,1.0915867E-1],"categories":[],"categories_nodes":[],"categories_segments":[],"categories_sizes":[],"default_left":[0,0,0,0,0,0,0,0,0,0,0,0,0,0,0,0,0,0,0,0,0,0,0,0,0,0,0,0,0,0,0,0,0,0,0,0,0,0,0,0,0,0,0,0,0,0,0,0,0,0,0,0,0,0,0,0,0,0,0,0,0,0,0,0,0,0,0],"id":13,"left_children":[1,3,5,7,9,11,13,15,17,19,21,23,-1,25,27,-1,29,31,33,-1,-1,35,-1,37,39,-1,41,43,45,-1,-1,47,-1,49,51,-1,-1,53,55,-1,57,59,-1,61,-1,63,65,-1,-1,-1,-1,-1,-1,-1,-1,-1,-1,-1,-1,-1,-1,-1,-1,-1,-1,-1,-1],"loss_changes":[8.6352196E1,1.63647E1,1.29354515E1,3.531442E0,2.5799942E0,5.821561E0,5.2196426E0,4.354418E0,3.1292827E0,1.4972305E0,6.020914E0,7.3329005E0,0E0,2.694119E0,1.9506912E0,0E0,1.4070706E0,1.437135E0,3.9253216E0,0E0,0E0,9.5764124E-1,0E0,3.2511563E0,3.8879864E0,0E0,1.1088455E0,2.732623E0,1.4447861E0,0E0,0E0,1.021667E0,0E0,2.0054462E0,1.2712141E0,0E0,0E0,1.8889427E-2,2.597929E0,0E0,3.452292E0,1.0735035E-1,0E0,6.355003E-1,0E0,3.671156E0,8.3091736E-2,0E0,0E0,0E0,0E0,0E0,0E0,0E0,0E0,0E0,0E0,0E0,0E0,0E0,0E0,0E0,0E0,0E0,0E0,0E0,0E0],"parents":[2147483647,0,0,1,1,2,2,3,3,4,4,5,5,6,6,7,7,8,8,9,9,10,10,11,11,13,13,14,14,16,16,17,17,18,18,21,21,23,23,24,24,26,26,27,27,28,28,31,31,33,33,34,34,37,37,38,38,40,40,41,41,43,43,45,45,46,46],"right_children":[2,4,6,8,10,12,14,16,18,20,22,24,-1,26,28,-1,30,32,34,-1,-1,36,-1,38,40,-1,42,44,46,-1,-1,48,-1,50,52,-1,-1,54,56,-1,58,60,-1,62,-1,64,66,-1,-1,-1,-1,-1,-1,-1,-1,-1,-1,-1,-1,-1,-1,-1,-1,-1,-1,-1,-1],"split_conditions":[2.2E1,1.5E1,4.3E1,3E0,9E0,6E0,2.1E1,9.03E2,9E0,2.615E3,7E0,3E0,1.0202437E-1,3E0,7.777778E-1,-1.0575111E-1,7.5238097E-1,5.7894737E-1,4E0,-1.1397032E-1,-1.4850867E-2,4E0,-1.06640615E-1,1E0,1.4E1,5.96234E-2,2.6E1,1.7E1,2.2E1,7.758285E-2,-2.8292537E-2,1.2E1,-2.9914755E-2,1.38E2,1.2E1,-5.140799E-3,8.947769E-2,1.8E1,2.1E1,-1.0820055E-1,4E0,2.4E1,1.5270272E-2,2.7E1,8.147712E-2,1.9E1,6.6E1,7.756105E-2,-1.0097137E-2,2.4663985E-2,-1.081389E-1,8.8395745E-2,-1.6884392E-2,4.5600127E-2,1.0974272E-1,3.7971217E-2,-3.0211955E-2,-5.7019886E-2,2.2546437E-2,-1.1308383E-1,-3.2205433E-2,2.7929973E-3,-8.905964E-2,7.5702995E-2,-2.0838967E-2,8.083927E-2,1.0915867E-1],"split_indices":[0,7,0,7,2,8,2,14,7,14,1,8,0,8,4,0,4,6,8,0,0,8,0,8,2,0,11,3,11,0,0,2,0,14,0,0,0,2,2,0,8,11,0,1,0,7,0,0,0,0,0,0,0,0,0,0,0,0,0,0,0,0,0,0,0,0,0],"split_type":[0,0,0,0,0,0,0,0,0,0,0,0,0,0,0,0,0,0,0,0,0,0,0,0,0,0,0,0,0,0,0,0,0,0,0,0,0,0,0,0,0,0,0,0,0,0,0,0,0,0,0,0,0,0,0,0,0,0,0,0,0,0,0,0,0,0,0],"sum_hessian":[2.3510664E2,9.04928E1,1.4461385E2,2.7009228E1,6.348357E1,6.029379E1,8.432005E1,8.84632E0,1.8162907E1,5.5536297E1,7.9472737E0,5.4792828E1,5.500962E0,5.5375195E0,7.878253E1,5.585807E0,3.260513E0,1.0041351E1,8.121556E0,5.363605E1,1.9002471E0,3.2807238E0,4.6665497E0,2.9762575E1,2.5030252E1,1.9473345E0,3.5901847E0,3.8051445E0,7.4977394E1,1.5534067E0,1.7071064E0,8.721948E0,1.3194039E0,4.855322E0,3.2662342E0,1.6147349E0,1.6659889E0,6.054806E0,2.3707767E1,4.978267E0,2.0051985E1,2.5680375E0,1.0221473E0,2.1588604E0,1.6462841E0,2.7816393E1,4.7160995E1,7.3957396E0,1.3262082E0,1.0690287E0,3.786293E0,1.7748586E0,1.4913754E0,2.357428E0,3.6973784E0,1.6340456E1,7.3673115E0,9.288319E0,1.0763667E1,1.1672583E0,1.4007792E0,1.0925615E0,1.0662988E0,2.357241E1,4.2439823E0,2.6699549E1,2.0461447E1],"tree_param":{"num_deleted":"0","num_feature":"15","num_nodes":"67","size_leaf_vector":"1"}},{"base_weights":[3.8456777E-3,-8.115554E-1,4.0840986E-1,-9.536926E-2,-1.0913327E0,-5.3692408E-2,6.271852E-1,-1.0173563E-1,9.300266E-2,-1.1233022E-1,-1.3906347E-2,2.4565284E-1,-2.9767117E-1,4.8588488E-1,1.0001985E0,-4.3110314E-1,3.7521946E-1,-4.0116435E-1,4.0687418E-1,1.4413431E-1,-6.25642E-1,7.3195124E-1,2.48971E-1,-1.8313384E-2,1.0860019E0,6.3493095E-2,-7.058005E-1,1.0445845E-1,3.0643517E-2,7.219617E-2,-9.221516E-1,5.45711E-1,-1.6061623E-1,7.958773E-1,-3.3722368E-1,4.8743583E-2,-7.5933486E-1,-2.6368408E-2,7.979129E-1,-8.538526E-2,5.8097756E-1,1.1151141E-1,2.9939814E-2,-1.0223742E-1,3.8322624E-2,7.067205E-2,-5.104618E-2,-5.7320106E-3,-1.2576708E-1,1.6403899E-2,9.8733954E-2,-7.561468E-2,7.702875E-2,2.6092157E-2,1.0438939E-1,4.1263722E-2,-1.004711E-1,-1.1175189E-1,-1.9740663E-2,1.062971E-1,4.4051405E-2,4.2894308E-2,-6.859038E-2,9.852653E-2,2.4933966E-2],"categories":[],"categories_nodes":[],"categories_segments":[],"categories_sizes":[],"default_left":[0,0,0,0,0,0,0,0,0,0,0,0,0,0,0,0,0,0,0,0,0,0,0,0,0,0,0,0,0,0,0,0,0,0,0,0,0,0,0,0,0,0,0,0,0,0,0,0,0,0,0,0,0,0,0,0,0,0,0,0,0,0,0,0,0],"id":14,"left_children":[1,3,5,7,9,11,13,-1,15,-1,-1,17,19,21,23,25,27,29,31,33,35,37,39,-1,41,-1,43,-1,45,-1,47,49,51,53,55,-1,57,-1,59,61,63,-1,-1,-1,-1,-1,-1,-1,-1,-1,-1,-1,-1,-1,-1,-1,-1,-1,-1,-1,-1,-1,-1,-1,-1],"loss_changes":[7.4803375E1,1.4963722E1,1.5355288E1,3.9537036E0,1.4870987E0,3.69689E0,4.9394913E0,0E0,3.0263011E0,0E0,0E0,2.543804E0,4.116788E0,4.2833405E0,2.9743805E0,2.5693717E0,2.994738E0,3.6255627E0,1.5665302E0,4.237768E0,2.7714076E0,2.6442146E0,4.550089E0,0E0,2.5309944E-1,0E0,2.540733E0,0E0,3.9068897E0,0E0,1.0579863E0,2.4183345E0,3.056164E0,4.8025465E-1,4.4087267E0,0E0,2.7576618E0,0E0,2.8478146E0,6.802366E0,2.498961E0,0E0,0E0,0E0,0E0,0E0,0E0,0E0,0E0,0E0,0E0,0E0,0E0,0E0,0E0,0E0,0E0,0E0,0E0,0E0,0E0,0E0,0E0,0E0,0E0],"parents":[2147483647,0,0,1,1,2,2,3,3,4,4,5,5,6,6,8,8,11,11,12,12,13,13,14,14,15,15,16,16,17,17,18,18,19,19,20,20,21,21,22,22,24,24,26,26,28,28,30,30,31,31,32,32,33,33,34,34,36,36,38,38,39,39,40,40],"right_children":[2,4,6,8,10,12,14,-1,16,-1,-1,18,20,22,24,26,28,30,32,34,36,38,40,-1,42,-1,44,-1,46,-1,48,50,52,54,56,-1,58,-1,60,62,64,-1,-1,-1,-1,-1,-1,-1,-1,-1,-1,-1,-1,-1,-1,-1,-1,-1,-1,-1,-1,-1,-1,-1,-1],"split_conditions":[9E0,1.4E1,3.6E1,1.7E1,2.615E3,3.5E-1,4E1,-1.0173563E-1,3E0,-1.1233022E-1,-1.3906347E-2,2.29E2,9.3877554E-1,3E0,6.4E1,1E0,2.43E2,8E1,2.2E1,1.1E1,7E0,8.125E-1,6.33E2,-1.8313384E-2,5.4545456E-1,6.3493095E-2,1.7E1,1.0445845E-1,2E0,7.219617E-2,2.0689656E-1,1.6E1,3E1,4E0,3E0,4.8743583E-2,1.3E1,-2.6368408E-2,7.03E2,9.444444E-1,8.66E2,1.1151141E-1,2.9939814E-2,-1.0223742E-1,3.8322624E-2,7.067205E-2,-5.104618E-2,-5.7320106E-3,-1.2576708E-1,1.6403899E-2,9.8733954E-2,-7.561468E-2,7.702875E-2,2.6092157E-2,1.0438939E-1,4.1263722E-2,-1.004711E-1,-1.1175189E-1,-1.9740663E-2,1.062971E-1,4.4051405E-2,4.2894308E-2,-6.859038E-2,9.852653E-2,2.4933966E-2],"split_indices":[2,7,0,11,14,6,2,0,7,0,0,14,4,8,0,8,14,14,7,7,1,4,14,0,6,0,0,0,2,0,6,7,11,8,8,0,1,0,14,4,14,0,0,0,0,0,0,0,0,0,0,0,0,0,0,0,0,0,0,0,0,0,0,0,0],"split_type":[0,0,0,0,0,0,0,0,0,0,0,0,0,0,0,0,0,0,0,0,0,0,0,0,0,0,0,0,0,0,0,0,0,0,0,0,0,0,0,0,0,0,0,0,0,0,0,0,0,0,0,0,0,0,0,0,0,0,0,0,0,0,0,0,0],"sum_hessian":[2.2475317E2,7.419891E1,1.5055426E2,2.1219975E1,5.297894E1,4.8617607E1,1.0193665E2,2.853368E0,1.8366606E1,5.1084335E1,1.8946017E0,2.1828577E1,2.6789032E1,7.5601E1,2.6335655E1,6.2437525E0,1.2122854E1,4.0583324E0,1.7770243E1,1.1652552E1,1.5136481E1,3.6059216E1,3.9541782E1,1.7038041E0,2.4631851E1,1.0105741E0,5.233178E0,3.429426E0,8.693428E0,1.1637673E0,2.8945653E0,1.4308131E1,3.462113E0,4.672601E0,6.97995E0,1.3393781E0,1.3797103E1,2.054267E0,3.4004948E1,2.0071278E1,1.9470505E1,2.3350035E1,1.281816E0,4.101965E0,1.1312132E0,3.7286487E0,4.9647794E0,1.1363523E0,1.758213E0,8.410716E0,5.897415E0,2.2258742E0,1.2362387E0,2.130115E0,2.5424864E0,3.4669523E0,3.5129976E0,7.822297E0,5.9748063E0,1.8391245E1,1.5613704E1,1.0965407E1,9.105871E0,7.886029E0,1.1584476E1],"tree_param":{"num_deleted":"0","num_feature":"15","num_nodes":"65","size_leaf_vector":"1"}},{"base_weights":[4.685287E-3,-7.8696203E-1,3.8349718E-1,-8.8184424E-2,-1.0719223E0,-4.8638247E-2,5.9189105E-1,-9.825944E-2,9.328868E-2,-1.1063383E-1,-1.3021658E-2,1.2405012E-1,-4.133806E-1,3.9241728E-1,8.545574E-1,-4.068612E-1,3.571368E-1,2.9547247E-1,-2.8430054E-1,-1.0996654E-1,-5.8151213E-3,6.243619E-1,8.95125E-3,9.425769E-1,1.6277823E-1,3.6781784E-2,-7.85092E-1,1.00593224E-1,3.0585034E-2,1.10955566E-1,6.9039804E-1,4.6154234E-1,-5.2570385E-1,-6.275921E-1,3.0058944E-1,8.540509E-1,3.360264E-1,8.568654E-1,-2.7101636E-1,1.0248814E0,3.0277428E-1,8.898133E-2,-5.714124E-1,-9.424314E-2,-1.2861274E-2,6.724695E-2,-4.6856053E-2,4.9664494E-2,-3.5887454E-2,9.675491E-3,1.0701473E-1,-1.5568417E-3,6.9614336E-2,-1.5083755E-2,-1.2979455E-1,4.049053E-3,-8.8086E-2,6.986462E-2,-2.5695357E-2,7.3923427E-3,1.05257384E-1,6.721268E-2,-1.4398095E-2,9.6149504E-2,2.1300454E-2,-3.2962176E-3,-1.0351183E-1,1.0809207E-1,-1.282155E-2,7.754922E-2,-1.4719404E-2,-1.1795568E-1,2.5430862E-2],"categories":[],"categories_nodes":[],"categories_segments":[],"categories_sizes":[],"default_left":[0,0,0,0,0,0,0,0,0,0,0,0,0,0,0,0,0,0,0,0,0,0,0,0,0,0,0,0,0,0,0,0,0,0,0,0,0,0,0,0,0,0,0,0,0,0,0,0,0,0,0,0,0,0,0,0,0,0,0,0,0,0,0,0,0,0,0,0,0,0,0,0,0],"id":15,"left_children":[1,3,5,7,9,11,13,-1,15,-1,-1,17,19,21,23,25,27,29,31,-1,33,35,37,39,41,-1,43,-1,45,47,49,51,53,55,57,59,61,63,65,67,69,-1,71,-1,-1,-1,-1,-1,-1,-1,-1,-1,-1,-1,-1,-1,-1,-1,-1,-1,-1,-1,-1,-1,-1,-1,-1,-1,-1,-1,-1,-1,-1],"loss_changes":[6.5075905E1,1.389064E1,1.3245411E1,3.5706859E0,1.4699135E0,3.1170201E0,4.8564796E0,0E0,2.617266E0,0E0,0E0,2.4501796E0,4.4326687E0,5.1681128E0,2.3991451E0,2.3212576E0,2.6801567E0,1.6940243E0,2.1338713E0,0E0,2.2771695E0,2.1124935E0,5.6774483E0,1.6370354E0,3.6794248E0,0E0,3.9317536E-1,0E0,3.3725638E0,3.3950944E0,1.5976021E0,3.5793012E-1,2.2368004E0,7.027874E-1,1.9593806E0,2.9449415E0,2.954454E0,1.9495678E-1,3.2407591E0,2.2287712E0,1.3126016E0,0E0,2.0900087E0,0E0,0E0,0E0,0E0,0E0,0E0,0E0,0E0,0E0,0E0,0E0,0E0,0E0,0E0,0E0,0E0,0E0,0E0,0E0,0E0,0E0,0E0,0E0,0E0,0E0,0E0,0E0,0E0,0E0,0E0],"parents":[2147483647,0,0,1,1,2,2,3,3,4,4,5,5,6,6,8,8,11,11,12,12,13,13,14,14,15,15,16,16,17,17,18,18,20,20,21,21,22,22,23,23,24,24,26,26,28,28,29,29,30,30,31,31,32,32,33,33,34,34,35,35,36,36,37,37,38,38,39,39,40,40,42,42],"right_children":[2,4,6,8,10,12,14,-1,16,-1,-1,18,20,22,24,26,28,30,32,-1,34,36,38,40,42,-1,44,-1,46,48,50,52,54,56,58,60,62,64,66,68,70,-1,72,-1,-1,-1,-1,-1,-1,-1,-1,-1,-1,-1,-1,-1,-1,-1,-1,-1,-1,-1,-1,-1,-1,-1,-1,-1,-1,-1,-1,-1,-1],"split_conditions":[9E0,1.4E1,3.6E1,1.7E1,2.615E3,4.5945945E-1,3.4E1,-9.825944E-2,3E0,-1.1063383E-1,-1.3021658E-2,2.9E1,2.2E1,4E-1,4.827586E-1,3E0,2.43E2,4E0,9E0,-1.0996654E-1,2.3E1,9.444444E-1,1.1E1,1.193E3,1.4E1,3.6781784E-2,4E0,1.00593224E-1,2E0,3E0,1.4E1,1.5E1,9.03E2,7E0,1.6E1,1.1E1,3E0,4E0,9.62963E-1,5E0,2.8735632E-1,8.898133E-2,6.4E1,-9.424314E-2,-1.2861274E-2,6.724695E-2,-4.6856053E-2,4.9664494E-2,-3.5887454E-2,9.675491E-3,1.0701473E-1,-1.5568417E-3,6.9614336E-2,-1.5083755E-2,-1.2979455E-1,4.049053E-3,-8.8086E-2,6.986462E-2,-2.5695357E-2,7.3923427E-3,1.05257384E-1,6.721268E-2,-1.4398095E-2,9.6149504E-2,2.1300454E-2,-3.2962176E-3,-1.0351183E-1,1.0809207E-1,-1.282155E-2,7.754922E-2,-1.4719404E-2,-1.1795568E-1,2.5430862E-2],"split_indices":[2,7,0,11,14,6,2,0,7,0,0,0,11,6,6,8,14,8,1,0,0,4,7,14,7,0,2,0,2,8,2,2,14,7,1,7,8,3,4,8,6,0,0,0,0,0,0,0,0,0,0,0,0,0,0,0,0,0,0,0,0,0,0,0,0,0,0,0,0,0,0,0,0],"split_type":[0,0,0,0,0,0,0,0,0,0,0,0,0,0,0,0,0,0,0,0,0,0,0,0,0,0,0,0,0,0,0,0,0,0,0,0,0,0,0,0,0,0,0,0,0,0,0,0,0,0,0,0,0,0,0,0,0,0,0,0,0,0,0,0,0,0,0,0,0,0,0,0,0],"sum_hessian":[2.1499619E2,6.923348E1,1.4576271E2,2.0434242E1,4.8799236E1,4.7672775E1,9.8089935E1,2.7021005E0,1.7732141E1,4.6910023E1,1.8892144E0,3.280232E1,1.48704605E1,5.7168823E1,4.092111E1,5.9366374E0,1.1795505E1,2.32983E1,9.504016E0,4.9079714E0,9.962489E0,3.5230797E1,2.1938026E1,3.5980534E1,4.940576E0,1.9566425E0,3.979995E0,3.252649E0,8.542855E0,1.6752268E1,6.5460324E0,2.1009572E0,7.403059E0,2.9427052E0,7.019784E0,1.8517605E1,1.6713192E1,4.9340625E0,1.7003963E1,3.1346268E1,4.634265E0,2.3758833E0,2.5646925E0,2.859153E0,1.1208419E0,3.5851855E0,4.9576697E0,9.168587E0,7.583681E0,3.0433314E0,3.5027013E0,1.0002915E0,1.1006657E0,5.788496E0,1.614563E0,1.0398539E0,1.9028512E0,3.948021E0,3.0717628E0,4.034756E0,1.4482849E1,9.594733E0,7.118459E0,3.8199756E0,1.114087E0,1.3760157E1,3.2438066E0,2.9953165E1,1.3931026E0,1.9072016E0,2.7270634E0,1.2301608E0,1.3345318E0],"tree_param":{"num_deleted":"0","num_feature":"15","num_nodes":"73","size_leaf_vector":"1"}},{"base_weights":[4.594244E-3,-7.6313686E-1,3.594435E-1,-8.419957E-2,-1.0538996E0,1.7908399E-1,8.235038E-1,-9.4990544E-2,8.937973E-2,-1.0910145E-1,-1.21930055E-2,5.8390915E-1,3.6426306E-2,9.121982E-1,1.5056014E-1,-3.8783956E-1,3.40331E-1,8.819061E-1,3.019895E-1,-8.040352E-2,9.1468656E-1,9.96949E-1,2.8832886E-1,8.6037576E-2,-5.430264E-1,3.462643E-2,-7.546077E-1,7.72641E-1,-9.452796E-2,1.0694064E-1,-2.1311631E-2,-7.1142636E-2,4.5219356E-1,1.0815508E-1,-5.017596E-1,-1.5719129E-2,1.1099037E-1,1.0557379E0,-1.2012685E-2,-1.5380743E-1,7.4389644E-2,-1.1126273E-1,2.4227513E-2,-9.129249E-2,-1.2198491E-2,3.515417E-4,1.0395968E-1,8.779407E-2,-8.59328E-2,-1.713693E-2,6.151085E-2,-6.7713566E-2,1.6978174E-2,2.3356197E-2,-8.115457E-2,2.5189698E-2,1.07930236E-1,3.80582E-2,-7.5296186E-2],"categories":[],"categories_nodes":[],"categories_segments":[],"categories_sizes":[],"default_left":[0,0,0,0,0,0,0,0,0,0,0,0,0,0,0,0,0,0,0,0,0,0,0,0,0,0,0,0,0,0,0,0,0,0,0,0,0,0,0,0,0,0,0,0,0,0,0,0,0,0,0,0,0,0,0,0,0,0,0],"id":16,"left_children":[1,3,5,7,9,11,13,-1,15,-1,-1,17,19,21,23,25,27,29,31,33,35,37,39,-1,41,-1,43,45,47,-1,-1,-1,49,51,53,-1,-1,55,-1,57,-1,-1,-1,-1,-1,-1,-1,-1,-1,-1,-1,-1,-1,-1,-1,-1,-1,-1,-1],"loss_changes":[5.6616196E1,1.2879932E1,1.1747562E1,3.2082515E0,1.4549599E0,5.962982E0,2.2201633E0,0E0,2.3149111E0,0E0,0E0,1.9964285E0,8.044764E0,1.5473099E0,3.3213413E0,2.0784903E0,2.4189014E0,2.8093357E0,2.6599538E0,5.574887E0,2.0999193E0,2.106411E0,1.2337463E0,0E0,1.8553827E0,0E0,3.709004E-1,1.303541E0,6.043842E0,0E0,0E0,0E0,1.5265827E0,2.477897E0,5.123316E0,0E0,0E0,2.7249908E-1,0E0,1.4548407E0,0E0,0E0,0E0,0E0,0E0,0E0,0E0,0E0,0E0,0E0,0E0,0E0,0E0,0E0,0E0,0E0,0E0,0E0,0E0],"parents":[2147483647,0,0,1,1,2,2,3,3,4,4,5,5,6,6,8,8,11,11,12,12,13,13,14,14,15,15,16,16,17,17,18,18,19,19,20,20,21,21,22,22,24,24,26,26,27,27,28,28,32,32,33,33,34,34,37,37,39,39],"right_children":[2,4,6,8,10,12,14,-1,16,-1,-1,18,20,22,24,26,28,30,32,34,36,38,40,-1,42,-1,44,46,48,-1,-1,-1,50,52,54,-1,-1,56,-1,58,-1,-1,-1,-1,-1,-1,-1,-1,-1,-1,-1,-1,-1,-1,-1,-1,-1,-1,-1],"split_conditions":[9E0,1.4E1,3.4E1,1.7E1,2.615E3,2E0,4.827586E-1,-9.4990544E-2,3E0,-1.0910145E-1,-1.21930055E-2,9.4285715E-1,5E0,1.193E3,1.4E1,3E0,4.81E2,2.6E1,9.6E-1,4.5652175E-1,1.2E1,5E0,4E1,8.6037576E-2,6.4E1,3.462643E-2,4E0,3E0,2E0,1.0694064E-1,-2.1311631E-2,-7.1142636E-2,1.8E1,1.4E1,1.1E1,-1.5719129E-2,1.1099037E-1,7.647059E-1,-1.2012685E-2,5.7E1,7.4389644E-2,-1.1126273E-1,2.4227513E-2,-9.129249E-2,-1.2198491E-2,3.515417E-4,1.0395968E-1,8.779407E-2,-8.59328E-2,-1.713693E-2,6.151085E-2,-6.7713566E-2,1.6978174E-2,2.3356197E-2,-8.115457E-2,2.5189698E-2,1.07930236E-1,3.80582E-2,-7.5296186E-2],"split_indices":[2,7,2,11,14,8,6,0,7,0,0,4,8,14,7,8,14,11,4,6,2,8,2,0,0,0,2,8,2,0,0,0,2,11,7,0,0,4,0,0,0,0,0,0,0,0,0,0,0,0,0,0,0,0,0,0,0,0,0],"split_type":[0,0,0,0,0,0,0,0,0,0,0,0,0,0,0,0,0,0,0,0,0,0,0,0,0,0,0,0,0,0,0,0,0,0,0,0,0,0,0,0,0,0,0,0,0,0,0,0,0,0,0,0,0,0,0,0,0,0,0],"sum_hessian":[2.0581326E2,6.469416E1,1.411191E2,1.9785107E1,4.4909054E1,1.02620865E2,3.8498234E1,2.5574875E0,1.722762E1,4.302497E1,1.8840824E0,2.5933968E1,7.66869E1,3.37009E1,4.797333E0,5.7492085E0,1.147841E1,1.1572887E1,1.4361081E1,6.848517E1,8.20173E0,2.9143793E1,4.55711E0,2.2520816E0,2.5452514E0,1.9340397E0,3.8151686E0,5.3665514E0,6.111859E0,9.900946E0,1.6719416E0,1.3714706E0,1.298961E1,4.7826103E1,2.0659063E1,1.2936236E0,6.9081063E0,2.7738876E1,1.4049168E0,2.6487927E0,1.9083169E0,1.2336416E0,1.3116097E0,2.6971204E0,1.1180482E0,1.6437925E0,3.722759E0,2.6255057E0,3.486353E0,2.679983E0,1.0309628E1,2.7533429E0,4.507276E1,6.1966E0,1.4462463E1,1.1229215E0,2.6615955E1,1.5928881E0,1.0559047E0],"tree_param":{"num_deleted":"0","num_feature":"15","num_nodes":"59","size_leaf_vector":"1"}},{"base_weights":[4.345334E-3,-7.413798E-1,3.3601335E-1,-8.1280224E-2,-1.0369911E0,1.6510826E-1,7.9462105E-1,-9.190219E-2,8.56758E-2,-1.0770692E-1,-1.1416824E-2,4.0480965E-1,-5.638836E-2,3.725611E-1,9.5694184E-1,-3.699616E-1,3.2657596E-1,8.12506E-1,2.4470115E-1,-2.3312671E-1,8.785592E-1,6.0121655E-1,-6.1304566E-2,-2.282255E-3,1.0112238E0,-8.776616E-2,1.7467797E-1,9.417946E-2,2.6357178E-2,-6.312799E-2,1.013143E0,5.3742063E-1,-3.9427957E-1,6.5268405E-2,-6.832444E-1,-1.48402825E-2,1.07622065E-1,8.086194E-1,-1.8788012E-2,1.04122E0,2.1181522E-2,5.4547664E-2,-2.8997619E-2,6.0971748E-2,-4.0765762E-2,-6.626157E-2,6.659726E-2,1.08533196E-1,4.1444972E-2,2.1066375E-2,8.798664E-2,-1.15250945E-1,2.3446072E-2,-1.5092863E-1,2.5614595E-2,4.8305556E-2,-1.0359862E-1,9.9940844E-2,2.4656933E-2,1.0752224E-1,2.729383E-2],"categories":[],"categories_nodes":[],"categories_segments":[],"categories_sizes":[],"default_left":[0,0,0,0,0,0,0,0,0,0,0,0,0,0,0,0,0,0,0,0,0,0,0,0,0,0,0,0,0,0,0,0,0,0,0,0,0,0,0,0,0,0,0,0,0,0,0,0,0,0,0,0,0,0,0,0,0,0,0,0,0],"id":17,"left_children":[1,3,5,7,9,11,13,-1,15,-1,-1,17,19,21,23,25,27,29,31,33,35,37,-1,-1,39,-1,41,-1,43,45,47,49,51,53,55,-1,-1,57,-1,59,-1,-1,-1,-1,-1,-1,-1,-1,-1,-1,-1,-1,-1,-1,-1,-1,-1,-1,-1,-1,-1],"loss_changes":[4.9303104E1,1.1890415E1,1.0682255E1,2.8853548E0,1.4415092E0,5.4261727E0,2.191574E0,0E0,2.0577707E0,0E0,0E0,2.9996405E0,9.090154E0,3.0658674E0,1.4178085E0,1.9705589E0,2.2053623E0,2.4156303E0,7.0601664E0,6.2247972E0,1.9376087E0,1.8244865E0,0E0,0E0,3.7582397E-1,0E0,8.481524E-1,0E0,2.563579E0,1.9434209E0,2.3392677E-2,2.6717606E0,6.0291014E0,8.977129E0,8.082795E0,0E0,0E0,6.41593E-1,0E0,3.2605743E-1,0E0,0E0,0E0,0E0,0E0,0E0,0E0,0E0,0E0,0E0,0E0,0E0,0E0,0E0,0E0,0E0,0E0,0E0,0E0,0E0,0E0],"parents":[2147483647,0,0,1,1,2,2,3,3,4,4,5,5,6,6,8,8,11,11,12,12,13,13,14,14,15,15,16,16,17,17,18,18,19,19,20,20,21,21,24,24,26,26,28,28,29,29,30,30,31,31,32,32,33,33,34,34,37,37,39,39],"right_children":[2,4,6,8,10,12,14,-1,16,-1,-1,18,20,22,24,26,28,30,32,34,36,38,-1,-1,40,-1,42,-1,44,46,48,50,52,54,56,-1,-1,58,-1,60,-1,-1,-1,-1,-1,-1,-1,-1,-1,-1,-1,-1,-1,-1,-1,-1,-1,-1,-1,-1,-1],"split_conditions":[9E0,1.4E1,3.4E1,1.7E1,2.615E3,3E0,6.4E1,-9.190219E-2,3E0,-1.0770692E-1,-1.1416824E-2,2.857143E-1,5E0,4.827586E-1,7.6666665E-1,4E2,2.43E2,1.4285715E-1,9.62963E-1,1.7E1,1.2E1,1.05E3,-6.1304566E-2,-2.282255E-3,5.4545456E-1,-8.776616E-2,7.5238097E-1,9.417946E-2,2E0,2.9E1,1.1E1,4.2E1,1.7E1,2.5714287E-1,1.6E1,-1.48402825E-2,1.07622065E-1,2.2E1,-1.8788012E-2,6E0,2.1181522E-2,5.4547664E-2,-2.8997619E-2,6.0971748E-2,-4.0765762E-2,-6.626157E-2,6.659726E-2,1.08533196E-1,4.1444972E-2,2.1066375E-2,8.798664E-2,-1.15250945E-1,2.3446072E-2,-1.5092863E-1,2.5614595E-2,4.8305556E-2,-1.0359862E-1,9.9940844E-2,2.4656933E-2,1.0752224E-1,2.729383E-2],"split_indices":[2,7,2,11,14,8,0,0,7,0,0,6,8,6,4,14,14,6,4,7,2,14,0,0,6,0,4,0,2,11,1,0,7,6,11,0,0,1,0,8,0,0,0,0,0,0,0,0,0,0,0,0,0,0,0,0,0,0,0,0,0],"split_type":[0,0,0,0,0,0,0,0,0,0,0,0,0,0,0,0,0,0,0,0,0,0,0,0,0,0,0,0,0,0,0,0,0,0,0,0,0,0,0,0,0,0,0,0,0,0,0,0,0,0,0,0,0,0,0,0,0,0,0,0,0],"sum_hessian":[1.9733163E2,6.0366894E1,1.3696474E2,1.9066467E1,4.1300426E1,1.0077126E2,3.6193474E1,2.4198284E0,1.6646639E1,3.9421227E1,1.8792012E0,4.7999302E1,5.2771965E1,1.0968596E1,2.5224876E1,5.572014E0,1.1074626E1,1.2385766E1,3.5613537E1,4.501347E1,7.758495E0,9.219684E0,1.7489132E0,1.3545957E0,2.3870281E1,2.5673432E0,3.0046704E0,2.931096E0,8.14353E0,2.4367015E0,9.949064E0,2.4533562E1,1.1079976E1,2.7582972E1,1.7430498E1,1.2924907E0,6.4660044E0,7.2811866E0,1.9384971E0,2.2715443E1,1.1548389E0,1.574368E0,1.4303024E0,3.3013484E0,4.842181E0,1.387251E0,1.0494506E0,8.153144E0,1.7959204E0,1.3380884E1,1.1152677E1,4.645131E0,6.434845E0,2.2354646E0,2.5347506E1,3.9618073E0,1.346869E1,4.8549986E0,2.4261875E0,2.1370134E1,1.3453081E0],"tree_param":{"num_deleted":"0","num_feature":"15","num_nodes":"61","size_leaf_vector":"1"}},{"base_weights":[4.6584187E-3,-7.1922123E-1,3.1551996E-1,-7.756847E-2,-1.020962E0,1.5329969E-1,7.6676786E-1,-2.9635635E-1,5.058426E-1,-1.0642799E-1,-1.0689802E-2,3.7878308E-1,-5.3205732E-2,3.499922E-1,9.3384856E-1,-4.4147807E-1,6.820941E-2,8.1471585E-2,-1.895934E-2,7.7499145E-1,2.26127E-1,-2.1648102E-1,8.448374E-1,5.720492E-1,-5.712816E-2,-2.1496192E-3,9.908684E-1,-1.0959672E-1,-1.2476072E-1,-5.641513E-2,9.731135E-1,5.031036E-1,-3.637634E-1,1.0523866E-2,-7.4299294E-1,-1.401067E-2,1.0453353E-1,7.7867234E-1,-1.7414717E-2,1.0226574E0,2.018791E-2,6.0558435E-2,-4.122561E-2,-6.1828632E-2,6.444355E-2,1.0437759E-1,3.951598E-2,1.9223964E-2,8.451224E-2,-1.0610268E-1,2.149298E-2,-7.724036E-2,2.406866E-2,-2.1341536E-3,-1.01601936E-1,9.720608E-2,2.3212602E-2,2.4752952E-2,1.0617093E-1],"categories":[],"categories_nodes":[],"categories_segments":[],"categories_sizes":[],"default_left":[0,0,0,0,0,0,0,0,0,0,0,0,0,0,0,0,0,0,0,0,0,0,0,0,0,0,0,0,0,0,0,0,0,0,0,0,0,0,0,0,0,0,0,0,0,0,0,0,0,0,0,0,0,0,0,0,0,0,0],"id":18,"left_children":[1,3,5,7,9,11,13,15,17,-1,-1,19,21,23,25,27,-1,-1,-1,29,31,33,35,37,-1,-1,39,-1,41,43,45,47,49,51,53,-1,-1,55,-1,57,-1,-1,-1,-1,-1,-1,-1,-1,-1,-1,-1,-1,-1,-1,-1,-1,-1,-1,-1],"loss_changes":[4.2997105E1,1.1035311E1,9.666691E0,2.6317103E0,1.4289665E0,4.656353E0,2.1169682E0,2.3985238E0,1.3728808E0,0E0,0E0,2.7110114E0,7.931826E0,2.7085347E0,1.3532944E0,2.65548E0,0E0,0E0,0E0,2.1732497E0,6.0419216E0,5.447611E0,1.7922759E0,1.6590443E0,0E0,0E0,3.7282372E-1,0E0,2.3926048E0,1.7452139E0,1.3918877E-2,2.4765773E0,5.085381E0,6.094331E0,2.68262E0,0E0,0E0,6.1156464E-1,0E0,4.0179825E-1,0E0,0E0,0E0,0E0,0E0,0E0,0E0,0E0,0E0,0E0,0E0,0E0,0E0,0E0,0E0,0E0,0E0,0E0,0E0],"parents":[2147483647,0,0,1,1,2,2,3,3,4,4,5,5,6,6,7,7,8,8,11,11,12,12,13,13,14,14,15,15,19,19,20,20,21,21,22,22,23,23,26,26,28,28,29,29,30,30,31,31,32,32,33,33,34,34,37,37,39,39],"right_children":[2,4,6,8,10,12,14,16,18,-1,-1,20,22,24,26,28,-1,-1,-1,30,32,34,36,38,-1,-1,40,-1,42,44,46,48,50,52,54,-1,-1,56,-1,58,-1,-1,-1,-1,-1,-1,-1,-1,-1,-1,-1,-1,-1,-1,-1,-1,-1,-1,-1],"split_conditions":[9E0,1.4E1,3.4E1,5E0,2.615E3,3E0,6.4E1,3.4E1,6.23E2,-1.0642799E-1,-1.0689802E-2,2.857143E-1,5E0,4.827586E-1,7.6666665E-1,4E0,6.820941E-2,8.1471585E-2,-1.895934E-2,1.4285715E-1,9.62963E-1,4.5652175E-1,1.2E1,1.05E3,-5.712816E-2,-2.1496192E-3,5.4545456E-1,-1.0959672E-1,1.79E2,2.9E1,1.1E1,4.2E1,1.7E1,2.5925925E-1,1.1E1,-1.401067E-2,1.0453353E-1,2.2E1,-1.7414717E-2,1.8E1,2.018791E-2,6.0558435E-2,-4.122561E-2,-6.1828632E-2,6.444355E-2,1.0437759E-1,3.951598E-2,1.9223964E-2,8.451224E-2,-1.0610268E-1,2.149298E-2,-7.724036E-2,2.406866E-2,-2.1341536E-3,-1.01601936E-1,9.720608E-2,2.3212602E-2,2.4752952E-2,1.0617093E-1],"split_indices":[2,7,2,8,14,8,0,11,14,0,0,6,8,6,4,0,0,0,0,6,4,6,2,14,0,0,6,0,14,11,1,0,7,6,7,0,0,1,0,1,0,0,0,0,0,0,0,0,0,0,0,0,0,0,0,0,0,0,0],"split_type":[0,0,0,0,0,0,0,0,0,0,0,0,0,0,0,0,0,0,0,0,0,0,0,0,0,0,0,0,0,0,0,0,0,0,0,0,0,0,0,0,0,0,0,0,0,0,0,0,0,0,0,0,0,0,0,0,0,0,0],"sum_hessian":[1.8906741E2,5.6405823E1,1.3266159E2,1.8443254E1,3.796257E1,9.8567154E1,3.4094437E1,1.3770965E1,4.672289E0,3.6088005E1,1.8745649E0,4.671967E1,5.184749E1,1.0642333E1,2.3452103E1,1.2470208E1,1.3007563E0,3.1165686E0,1.5557204E0,1.1860317E1,3.4859352E1,4.4513355E1,7.3341336E0,8.880831E0,1.7615025E0,1.3559928E0,2.2096111E1,3.2642713E0,9.205937E0,2.4200363E0,9.440281E0,2.3821396E1,1.1037954E1,3.1788012E1,1.2725344E1,1.2913913E0,6.0427423E0,6.920899E0,1.9599317E0,2.0955631E1,1.1404803E0,2.287761E0,6.918176E0,1.4085828E0,1.0114534E0,7.693646E0,1.7466351E0,1.3297369E1,1.0524027E1,4.6281004E0,6.4098544E0,6.6866455E0,2.5101366E1,3.7888875E0,8.936456E0,4.536991E0,2.3839078E0,1.3571184E0,1.9598513E1],"tree_param":{"num_deleted":"0","num_feature":"15","num_nodes":"59","size_leaf_vector":"1"}},{"base_weights":[5.4829125E-3,-5.48807E-1,3.7379217E-1,-2.0599794E-2,-7.888924E-1,2.5870574E-1,8.918397E-1,3.3038953E-1,-3.8773304E-1,-9.659815E-1,-2.8614408E-1,-5.8909106E-1,3.0754808E-1,-2.2476096E-2,9.961587E-1,-1.4406092E-1,5.4914546E-1,-9.434599E-2,1.1065233E-3,-1.0053428E0,1.3369873E-2,2.093991E-1,-7.139264E-1,-1.02963604E-1,1.1605243E-2,7.241377E-1,2.1288419E-1,1.0381136E-1,1.9241612E-2,-7.930589E-2,7.245168E-2,7.1791863E-1,-2.2232538E-2,5.1781726E-1,-4.4147003E-1,-1.05436794E-1,-6.3386053E-4,-4.9787623E-1,6.6434574E-1,-1.747755E-1,-9.720479E-2,-2.599278E-2,8.5832155E-1,3.8916624E-1,-6.394146E-2,8.723056E-2,2.4105048E-2,1.0435082E-2,7.3321305E-2,8.26168E-4,-9.106604E-2,-8.8523865E-2,2.299785E-2,9.615211E-2,-3.9972505E-3,-7.6816015E-2,4.772349E-2,9.3059696E-2,-3.0683037E-3,8.668409E-2,6.6008917E-3,-1.3166502E-1,3.1718675E-3],"categories":[],"categories_nodes":[],"categories_segments":[],"categories_sizes":[],"default_left":[0,0,0,0,0,0,0,0,0,0,0,0,0,0,0,0,0,0,0,0,0,0,0,0,0,0,0,0,0,0,0,0,0,0,0,0,0,0,0,0,0,0,0,0,0,0,0,0,0,0,0,0,0,0,0,0,0,0,0,0,0,0,0],"id":19,"left_children":[1,3,5,7,9,11,13,15,17,19,21,23,25,-1,27,29,31,-1,33,35,-1,37,39,-1,-1,41,43,-1,-1,-1,-1,45,-1,47,49,-1,-1,51,53,55,-1,-1,57,59,61,-1,-1,-1,-1,-1,-1,-1,-1,-1,-1,-1,-1,-1,-1,-1,-1,-1,-1],"loss_changes":[3.7443058E1,9.269457E0,6.338354E0,3.2089212E0,4.2031326E0,3.9726295E0,2.5092258E0,1.4037478E0,2.6255436E0,1.7267418E0,3.2290244E0,1.7754468E0,3.2859182E0,0E0,4.115162E-1,3.2915056E0,1.3240283E0,0E0,2.0911202E0,1.7385063E0,0E0,2.7452533E0,9.467001E-1,0E0,0E0,2.3009052E0,3.5626645E0,0E0,0E0,0E0,0E0,3.4736228E-1,0E0,2.9911697E-1,1.0471169E0,0E0,0E0,1.192902E0,1.0838776E0,1.8433028E0,0E0,0E0,9.332218E-1,6.8015943E0,3.524588E0,0E0,0E0,0E0,0E0,0E0,0E0,0E0,0E0,0E0,0E0,0E0,0E0,0E0,0E0,0E0,0E0,0E0,0E0],"parents":[2147483647,0,0,1,1,2,2,3,3,4,4,5,5,6,6,7,7,8,8,9,9,10,10,11,11,12,12,14,14,15,15,16,16,18,18,19,19,21,21,22,22,25,25,26,26,31,31,33,33,34,34,37,37,38,38,39,39,42,42,43,43,44,44],"right_children":[2,4,6,8,10,12,14,16,18,20,22,24,26,-1,28,30,32,-1,34,36,-1,38,40,-1,-1,42,44,-1,-1,-1,-1,46,-1,48,50,-1,-1,52,54,56,-1,-1,58,60,62,-1,-1,-1,-1,-1,-1,-1,-1,-1,-1,-1,-1,-1,-1,-1,-1,-1,-1],"split_conditions":[2.6E1,1.2E1,4E1,9.4871795E-1,9E0,7.380952E-1,6.4E1,1.5384616E-1,3E0,5E0,7E0,2.1E1,1E1,-2.2476096E-2,5.4545456E-1,1.603E3,1.09E3,-9.434599E-2,4E0,2.615E3,1.3369873E-2,1.7E1,3E0,-1.02963604E-1,1.1605243E-2,1.93E2,3.880597E-1,1.0381136E-1,1.9241612E-2,-7.930589E-2,7.245168E-2,2.5E1,-2.2232538E-2,1.9E1,2.5E1,-1.05436794E-1,-6.3386053E-4,4E0,2E1,1E0,-9.720479E-2,-2.599278E-2,2.3E1,9.444444E-1,4.0425533E-1,8.723056E-2,2.4105048E-2,1.0435082E-2,7.3321305E-2,8.26168E-4,-9.106604E-2,-8.8523865E-2,2.299785E-2,9.615211E-2,-3.9972505E-3,-7.6816015E-2,4.772349E-2,9.3059696E-2,-3.0683037E-3,8.668409E-2,6.6008917E-3,-1.3166502E-1,3.1718675E-3],"split_indices":[0,7,2,4,2,4,0,6,7,8,1,2,7,0,6,14,14,0,2,14,0,7,8,0,0,14,6,0,0,0,0,11,0,11,11,0,0,8,7,3,0,0,1,4,6,0,0,0,0,0,0,0,0,0,0,0,0,0,0,0,0,0,0],"split_type":[0,0,0,0,0,0,0,0,0,0,0,0,0,0,0,0,0,0,0,0,0,0,0,0,0,0,0,0,0,0,0,0,0,0,0,0,0,0,0,0,0,0,0,0,0,0,0,0,0,0,0,0,0,0,0,0,0,0,0,0,0,0,0],"sum_hessian":[1.8140457E2,7.222257E1,1.0918201E2,2.2908285E1,4.9314285E1,9.0562546E1,1.8619461E1,1.1762807E1,1.1145479E1,3.5787148E1,1.3527137E1,4.3306575E0,8.623189E1,1.4922543E0,1.7127207E1,3.8197553E0,7.943052E0,4.000971E0,7.144508E0,3.463329E1,1.1538575E0,6.5037227E0,7.023414E0,2.3821855E0,1.948472E0,1.473549E1,7.14964E1,1.6000397E1,1.126811E0,2.235983E0,1.5837724E0,6.574235E0,1.3688167E0,3.2177546E0,3.9267535E0,3.2960373E1,1.6729163E0,2.5089157E0,3.9948068E0,2.8168435E0,4.2065706E0,1.6557313E0,1.3079759E1,4.3432713E1,2.8063686E1,4.3399343E0,2.2343006E0,1.6105869E0,1.6071677E0,2.5065494E0,1.4202042E0,1.4963384E0,1.0125774E0,2.5526E0,1.442207E0,1.3814583E0,1.4353851E0,1.2053068E1,1.02669E0,1.6847374E1,2.6585339E1,1.0854492E0,2.6978237E1],"tree_param":{"num_deleted":"0","num_feature":"15","num_nodes":"63","size_leaf_vector":"1"}},{"base_weights":[3.935924E-3,-6.7444766E-1,2.7562797E-1,-6.528262E-2,-9.917821E-1,1.2651E-1,7.163265E-1,-8.603228E-2,9.027209E-2,-1.0419464E-1,-1.006053E-2,3.383461E-1,-6.645296E-2,3.2308108E-1,8.8935983E-1,-1.2179524E-1,5.6407046E-1,7.28696E-1,1.9149218E-1,-2.1687059E-1,7.984669E-1,5.380138E-1,-5.282678E-2,-6.7427526E-3,9.5447105E-1,1.3738826E-1,-6.758516E-1,9.107429E-2,-1.7529408E-2,-5.607148E-2,9.244037E-1,4.494211E-1,-3.367967E-1,3.204555E-2,-5.9255314E-1,-1.5048476E-2,1.0062709E-1,7.45312E-1,-1.6535724E-2,2.0646304E-2,9.9379504E-1,5.4983057E-2,-5.9742946E-2,-7.711358E-2,-2.1544699E-2,-4.532837E-2,3.6717664E-2,9.952309E-2,3.6366228E-2,1.5442324E-2,7.965996E-2,-9.932671E-2,2.0587165E-2,-1.3961093E-1,2.0902501E-2,4.88288E-2,-9.4069995E-2,9.401093E-2,2.2404818E-2,1.0343796E-1,1.8340247E-2],"categories":[],"categories_nodes":[],"categories_segments":[],"categories_sizes":[],"default_left":[0,0,0,0,0,0,0,0,0,0,0,0,0,0,0,0,0,0,0,0,0,0,0,0,0,0,0,0,0,0,0,0,0,0,0,0,0,0,0,0,0,0,0,0,0,0,0,0,0,0,0,0,0,0,0,0,0,0,0,0,0],"id":20,"left_children":[1,3,5,7,9,11,13,-1,15,-1,-1,17,19,21,23,25,27,29,31,33,35,37,-1,-1,39,41,43,-1,-1,45,47,49,51,53,55,-1,-1,57,-1,-1,59,-1,-1,-1,-1,-1,-1,-1,-1,-1,-1,-1,-1,-1,-1,-1,-1,-1,-1,-1,-1],"loss_changes":[3.252191E1,9.689854E0,8.188363E0,2.347526E0,1.3752403E0,3.9198532E0,1.8653355E0,0E0,1.7020056E0,0E0,0E0,2.475254E0,6.773222E0,2.3404567E0,1.3974514E0,1.8235146E0,1.4934505E0,1.9121943E0,4.852514E0,4.1337495E0,1.6755872E0,1.5036967E0,0E0,0E0,3.8609314E-1,3.0688035E0,9.772539E-3,0E0,0E0,7.314183E-1,2.5391579E-2,2.295144E0,4.440299E0,7.2210307E0,7.0771627E0,0E0,0E0,5.503249E-1,0E0,0E0,4.297676E-1,0E0,0E0,0E0,0E0,0E0,0E0,0E0,0E0,0E0,0E0,0E0,0E0,0E0,0E0,0E0,0E0,0E0,0E0,0E0,0E0],"parents":[2147483647,0,0,1,1,2,2,3,3,4,4,5,5,6,6,8,8,11,11,12,12,13,13,14,14,15,15,16,16,17,17,18,18,19,19,20,20,21,21,24,24,25,25,26,26,29,29,30,30,31,31,32,32,33,33,34,34,37,37,40,40],"right_children":[2,4,6,8,10,12,14,-1,16,-1,-1,18,20,22,24,26,28,30,32,34,36,38,-1,-1,40,42,44,-1,-1,46,48,50,52,54,56,-1,-1,58,-1,-1,60,-1,-1,-1,-1,-1,-1,-1,-1,-1,-1,-1,-1,-1,-1,-1,-1,-1,-1,-1,-1],"split_conditions":[9E0,1.4E1,3.4E1,1.7E1,2.615E3,3E0,6.4E1,-8.603228E-2,5E0,-1.0419464E-1,-1.006053E-2,2.857143E-1,5E0,4.827586E-1,7.6666665E-1,4E0,6.23E2,1.4285715E-1,9.62963E-1,1.7E1,1.2E1,1.05E3,-5.282678E-2,-6.7427526E-3,1.8E1,8E0,4E2,9.107429E-2,-1.7529408E-2,2.6E1,1.1E1,4.2E1,1.7E1,2.5714287E-1,1.6E1,-1.5048476E-2,1.0062709E-1,2.2E1,-1.6535724E-2,2.0646304E-2,5.4545456E-1,5.4983057E-2,-5.9742946E-2,-7.711358E-2,-2.1544699E-2,-4.532837E-2,3.6717664E-2,9.952309E-2,3.6366228E-2,1.5442324E-2,7.965996E-2,-9.932671E-2,2.0587165E-2,-1.3961093E-1,2.0902501E-2,4.88288E-2,-9.4069995E-2,9.401093E-2,2.2404818E-2,1.0343796E-1,1.8340247E-2],"split_indices":[2,7,2,11,14,8,0,0,8,0,0,6,8,6,4,8,14,6,4,7,2,14,0,0,1,7,14,0,0,11,1,0,7,6,11,0,0,1,0,0,6,0,0,0,0,0,0,0,0,0,0,0,0,0,0,0,0,0,0,0,0],"split_type":[0,0,0,0,0,0,0,0,0,0,0,0,0,0,0,0,0,0,0,0,0,0,0,0,0,0,0,0,0,0,0,0,0,0,0,0,0,0,0,0,0,0,0,0,0,0,0,0,0,0,0,0,0,0,0,0,0,0,0,0,0],"sum_hessian":[1.7444226E2,4.9461136E1,1.24981125E2,1.7353859E1,3.2107277E1,9.434494E1,3.0636183E1,2.098377E0,1.5255482E1,3.0236109E1,1.8711697E0,4.4613976E1,4.9730965E1,1.0237353E1,2.0398829E1,1.1051764E1,4.203718E0,1.11129055E1,3.3501072E1,4.300181E1,6.729156E0,8.467646E0,1.769708E0,1.2974637E0,1.9101366E1,8.041868E0,3.009895E0,2.7040534E0,1.4996648E0,2.3606086E0,8.752296E0,2.2610924E1,1.0890147E1,2.6414825E1,1.6586983E1,1.2584033E0,5.4707527E0,6.4940767E0,1.9735689E0,1.2662128E0,1.7835152E1,5.312043E0,2.7298255E0,1.934605E0,1.0752902E0,1.181151E0,1.1794577E0,7.0828185E0,1.6694778E0,1.3005195E1,9.60573E0,4.5525503E0,6.337597E0,2.1529365E0,2.4261889E1,3.9430451E0,1.2643937E1,4.142498E0,2.3515787E0,1.6721352E1,1.1138012E0],"tree_param":{"num_deleted":"0","num_feature":"15","num_nodes":"61","size_leaf_vector":"1"}},{"base_weights":[3.7577848E-3,-5.1110077E-1,3.3011225E-1,-2.4548393E-2,-7.4932796E-1,2.2486192E-1,8.4962696E-1,3.0554026E-1,-3.751614E-1,-1.03423476E-1,-4.276034E-1,3.5712472E-1,-4.5640025E-2,-2.2686025E-2,9.637073E-1,-1.3453422E-1,5.0521666E-1,-9.119741E-2,-1.1406281E-2,2.4942122E-2,-8.2710576E-1,6.1988926E-1,1.4475031E-1,5.565724E-1,-1.9406609E-1,1.01131916E-1,1.7481616E-2,-7.524344E-2,6.960657E-2,6.659739E-1,-2.0667328E-2,4.9507198E-1,-4.3685305E-1,-3.084951E-1,7.496494E-1,-2.2110698E-1,-9.986099E-2,-4.1407573E-1,7.686741E-1,2.6603976E-1,-1.0219704E0,7.2351414E-1,3.3935308E-3,5.2088547E-1,-4.0444654E-1,8.163581E-2,2.1974757E-2,8.745205E-3,7.332709E-2,-4.1537132E-4,-8.78422E-2,4.823184E-3,-8.619499E-2,2.2971835E-2,8.540531E-2,-7.593533E-2,3.9765235E-2,-9.563117E-2,1.9794121E-2,4.5570796E-3,8.588266E-2,-4.9580697E-2,3.814389E-2,-3.0553391E-2,-1.2952074E-1,8.880644E-2,2.4499586E-2,-5.5234875E-3,7.464471E-2,-5.9085764E-2,2.8494854E-2],"categories":[],"categories_nodes":[],"categories_segments":[],"categories_sizes":[],"default_left":[0,0,0,0,0,0,0,0,0,0,0,0,0,0,0,0,0,0,0,0,0,0,0,0,0,0,0,0,0,0,0,0,0,0,0,0,0,0,0,0,0,0,0,0,0,0,0,0,0,0,0,0,0,0,0,0,0,0,0,0,0,0,0,0,0,0,0,0,0,0,0],"id":21,"left_children":[1,3,5,7,9,11,13,15,17,-1,19,21,23,-1,25,27,29,-1,31,33,35,37,39,41,43,-1,-1,-1,-1,45,-1,47,49,51,53,55,-1,57,59,61,63,65,-1,67,69,-1,-1,-1,-1,-1,-1,-1,-1,-1,-1,-1,-1,-1,-1,-1,-1,-1,-1,-1,-1,-1,-1,-1,-1,-1,-1],"loss_changes":[2.8504484E1,7.6104565E0,5.4858313E0,2.7379797E0,3.604597E0,3.153666E0,2.3223314E0,1.1423391E0,2.2236114E0,0E0,4.0776277E0,3.2031817E0,2.761237E0,0E0,4.1213226E-1,2.8875604E0,1.1242034E0,0E0,1.9039712E0,3.0082998E0,1.0209455E0,4.328909E0,5.0744343E0,5.101094E-1,3.904109E0,0E0,0E0,0E0,0E0,3.0842543E-1,0E0,3.285632E-1,9.111572E-1,1.7354085E0,1.6212225E-2,1.607447E0,0E0,1.4933088E0,1.469409E0,2.9615893E0,2.703128E-1,1.4425468E-1,0E0,8.2352495E-1,2.678896E0,0E0,0E0,0E0,0E0,0E0,0E0,0E0,0E0,0E0,0E0,0E0,0E0,0E0,0E0,0E0,0E0,0E0,0E0,0E0,0E0,0E0,0E0,0E0,0E0,0E0,0E0],"parents":[2147483647,0,0,1,1,2,2,3,3,4,4,5,5,6,6,7,7,8,8,10,10,11,11,12,12,14,14,15,15,16,16,18,18,19,19,20,20,21,21,22,22,23,23,24,24,29,29,31,31,32,32,33,33,34,34,35,35,37,37,38,38,39,39,40,40,41,41,43,43,44,44],"right_children":[2,4,6,8,10,12,14,16,18,-1,20,22,24,-1,26,28,30,-1,32,34,36,38,40,42,44,-1,-1,-1,-1,46,-1,48,50,52,54,56,-1,58,60,62,64,66,-1,68,70,-1,-1,-1,-1,-1,-1,-1,-1,-1,-1,-1,-1,-1,-1,-1,-1,-1,-1,-1,-1,-1,-1,-1,-1,-1,-1],"split_conditions":[2.6E1,1.2E1,4E1,9.4871795E-1,1E1,4.2424244E-1,6.4E1,1.5384616E-1,3E0,-1.03423476E-1,7E0,9.444444E-1,1.1E1,-2.2686025E-2,5.4545456E-1,1.603E3,1.09E3,-9.119741E-2,4E0,1E0,3E0,7.7272725E-1,2.2E1,2.3E1,2E0,1.01131916E-1,1.7481616E-2,-7.524344E-2,6.960657E-2,2.5E1,-2.0667328E-2,2E0,2.5E1,1E0,1.9E1,1E0,-9.986099E-2,2.1E1,2.4528302E-1,2.26E2,2.4324325E-1,9.375E-1,3.3935308E-3,2.36E2,2.9E1,8.163581E-2,2.1974757E-2,8.745205E-3,7.332709E-2,-4.1537132E-4,-8.78422E-2,4.823184E-3,-8.619499E-2,2.2971835E-2,8.540531E-2,-7.593533E-2,3.9765235E-2,-9.563117E-2,1.9794121E-2,4.5570796E-3,8.588266E-2,-4.9580697E-2,3.814389E-2,-3.0553391E-2,-1.2952074E-1,8.880644E-2,2.4499586E-2,-5.5234875E-3,7.464471E-2,-5.9085764E-2,2.8494854E-2],"split_indices":[0,7,2,4,0,6,0,6,7,0,1,4,7,0,6,14,14,0,2,13,8,4,7,2,8,0,0,0,0,11,0,1,11,3,7,3,0,2,6,14,6,4,0,14,1,0,0,0,0,0,0,0,0,0,0,0,0,0,0,0,0,0,0,0,0,0,0,0,0,0,0],"split_type":[0,0,0,0,0,0,0,0,0,0,0,0,0,0,0,0,0,0,0,0,0,0,0,0,0,0,0,0,0,0,0,0,0,0,0,0,0,0,0,0,0,0,0,0,0,0,0,0,0,0,0,0,0,0,0,0,0,0,0,0,0,0,0,0,0,0,0,0,0,0,0],"sum_hessian":[1.6763876E2,6.481701E1,1.0282176E2,2.1667208E1,4.3149803E1,8.669146E1,1.61303E1,1.1226471E1,1.0440736E1,2.1709793E1,2.1440012E1,5.8008022E1,2.8683437E1,1.4508803E0,1.467942E1,3.6057835E0,7.6206875E0,3.6084485E0,6.832288E0,1.0492246E1,1.0947765E1,2.5070358E1,3.2937664E1,5.1279325E0,2.3555504E1,1.3577999E1,1.1014217E0,2.121594E0,1.4841895E0,6.269437E0,1.3512504E0,3.0443966E0,3.787891E0,7.579323E0,2.9129229E0,2.919857E0,8.027909E0,2.929442E0,2.2140915E1,3.0535269E1,2.4023955E0,3.5951955E0,1.5327371E0,5.0199413E0,1.8535563E1,4.0687447E0,2.2006922E0,1.6271172E0,1.4172795E0,2.4229836E0,1.3649073E0,5.1638427E0,2.41548E0,1.0222751E0,1.8906476E0,1.4400058E0,1.4798511E0,1.254988E0,1.6744541E0,2.621292E0,1.9519623E1,3.5831873E0,2.6952082E1,1.2480824E0,1.1543132E0,2.0383842E0,1.5568112E0,1.6248744E0,3.395067E0,1.4702869E1,3.8326936E0],"tree_param":{"num_deleted":"0","num_feature":"15","num_nodes":"71","size_leaf_vector":"1"}},{"base_weights":[2.562453E-3,-6.3649625E-1,2.4179523E-1,-6.094422E-2,-9.658758E-1,1.0607868E-1,6.675029E-1,-8.242992E-2,8.7220736E-2,-1.0228081E-1,-8.513358E-3,5.331985E-2,8.357434E-1,7.6606196E-1,4.954282E-2,-1.1948183E-1,5.431794E-1,3.0478752E-1,-1.992771E-1,2.0675045E-2,9.404003E-2,8.731028E-1,1.4011319E-1,7.955431E-2,-6.5800674E-2,1.209484E-1,-6.355519E-1,8.7790914E-2,-1.6216975E-2,6.878863E-1,1.6261578E-1,-3.1273223E-2,-7.0994246E-1,9.5544827E-1,-3.0774513E-2,6.577008E-2,-2.6066136E-1,5.064125E-2,-5.5763453E-2,-7.3381744E-2,-1.8890223E-2,-5.7535125E-3,8.826537E-2,4.000129E-2,-3.076969E-2,8.776861E-3,-8.532471E-2,9.798314E-3,-9.2457935E-2,2.8362134E-2,9.870601E-2,-7.536534E-2,2.8269196E-2],"categories":[],"categories_nodes":[],"categories_segments":[],"categories_sizes":[],"default_left":[0,0,0,0,0,0,0,0,0,0,0,0,0,0,0,0,0,0,0,0,0,0,0,0,0,0,0,0,0,0,0,0,0,0,0,0,0,0,0,0,0,0,0,0,0,0,0,0,0,0,0,0,0],"id":22,"left_children":[1,3,5,7,9,11,13,-1,15,-1,-1,17,19,21,23,25,27,29,31,-1,-1,33,35,-1,-1,37,39,-1,-1,41,43,45,47,49,-1,-1,51,-1,-1,-1,-1,-1,-1,-1,-1,-1,-1,-1,-1,-1,-1,-1,-1],"loss_changes":[2.4980326E1,8.378576E0,6.797576E0,2.024856E0,1.328949E0,3.471366E0,1.7008266E0,0E0,1.5129949E0,0E0,0E0,5.5387836E0,2.0648956E-1,1.522747E0,3.1605754E0,1.4903449E0,1.3165029E0,2.2635355E0,3.72087E0,0E0,0E0,2.3142424E0,1.1622875E0,0E0,0E0,2.5348606E0,2.7302742E-2,0E0,0E0,1.7196383E0,3.8207188E0,3.3894894E0,1.9554787E0,1.376934E-1,0E0,0E0,1.1260251E0,0E0,0E0,0E0,0E0,0E0,0E0,0E0,0E0,0E0,0E0,0E0,0E0,0E0,0E0,0E0,0E0],"parents":[2147483647,0,0,1,1,2,2,3,3,4,4,5,5,6,6,8,8,11,11,12,12,13,13,14,14,15,15,16,16,17,17,18,18,21,21,22,22,25,25,26,26,29,29,30,30,31,31,32,32,33,33,36,36],"right_children":[2,4,6,8,10,12,14,-1,16,-1,-1,18,20,22,24,26,28,30,32,-1,-1,34,36,-1,-1,38,40,-1,-1,42,44,46,48,50,-1,-1,52,-1,-1,-1,-1,-1,-1,-1,-1,-1,-1,-1,-1,-1,-1,-1,-1],"split_conditions":[9E0,1.4E1,3.4E1,1.7E1,2.615E3,6E0,4.827586E-1,-8.242992E-2,5E0,-1.0228081E-1,-8.513358E-3,3E0,8E0,1.193E3,1.4E1,4E0,6.23E2,2.857143E-1,4.6875E-1,2.0675045E-2,9.404003E-2,5E0,2.8735632E-1,7.955431E-2,-6.5800674E-2,8E0,4E2,8.7790914E-2,-1.6216975E-2,1.4285715E-1,9.62963E-1,5.8E1,9E0,7.906977E-1,-3.0774513E-2,6.577008E-2,9.464286E-1,5.064125E-2,-5.5763453E-2,-7.3381744E-2,-1.8890223E-2,-5.7535125E-3,8.826537E-2,4.000129E-2,-3.076969E-2,8.776861E-3,-8.532471E-2,9.798314E-3,-9.2457935E-2,2.8362134E-2,9.870601E-2,-7.536534E-2,2.8269196E-2],"split_indices":[2,7,2,11,14,8,6,0,8,0,0,8,1,14,7,8,14,6,6,0,0,8,6,0,0,7,14,0,0,6,4,0,7,4,0,0,4,0,0,0,0,0,0,0,0,0,0,0,0,0,0,0,0],"split_type":[0,0,0,0,0,0,0,0,0,0,0,0,0,0,0,0,0,0,0,0,0,0,0,0,0,0,0,0,0,0,0,0,0,0,0,0,0,0,0,0,0,0,0,0,0,0,0,0,0,0,0,0,0],"sum_hessian":[1.6138756E2,4.350712E1,1.1788044E2,1.6267174E1,2.7239944E1,9.033168E1,2.7548761E1,1.9024168E0,1.4364758E1,2.5434523E1,1.8054212E0,8.5241325E1,5.0903487E0,2.355266E1,3.9961007E0,1.0391754E1,3.9730036E0,4.261261E1,4.262872E1,1.1506127E0,3.9397361E0,1.9776003E1,3.776657E0,1.884659E0,2.1114416E0,7.6113586E0,2.7803953E0,2.5284572E0,1.4445467E0,1.0494773E1,3.2117836E1,3.2874554E1,9.754164E0,1.8665274E1,1.1107289E0,1.3683727E0,2.4082842E0,5.0158577E0,2.595501E0,1.7520069E0,1.0283884E0,2.3200355E0,8.174737E0,2.144343E1,1.0674408E1,2.9496033E1,3.3785217E0,2.161488E0,7.592676E0,1.2869294E0,1.7378345E1,1.0597329E0,1.3485515E0],"tree_param":{"num_deleted":"0","num_feature":"15","num_nodes":"53","size_leaf_vector":"1"}},